//Numpy array shape [64]
//Min -0.066730372608
//Max 0.055878076702
//Number of zeros 0

#ifndef B93_H_
#define B93_H_

#ifndef __SYNTHESIS__
model_default_t b93[64];
#else
model_default_t b93[64] = {0.0135056125, 0.0187008698, -0.0315276496, -0.0364779308, 0.0370594449, 0.0558780767, 0.0537631735, 0.0517183989, -0.0395504422, 0.0202069469, 0.0242901985, -0.0125151221, -0.0016471398, 0.0025356978, 0.0375368521, -0.0523115881, 0.0339785032, -0.0382320471, 0.0082473783, 0.0266518835, 0.0221002959, 0.0284568612, -0.0560643151, -0.0073548951, -0.0383382812, -0.0373893902, -0.0106887314, -0.0509447306, -0.0591139011, 0.0391707309, 0.0243559051, -0.0172420666, 0.0367888808, 0.0458310768, -0.0178281572, -0.0536125153, 0.0186542980, -0.0175468624, 0.0166519098, -0.0015561802, -0.0535807684, 0.0374755748, 0.0440037884, -0.0046521965, -0.0006068139, 0.0274116602, -0.0512103103, -0.0414189473, 0.0044180853, 0.0033931218, -0.0667303726, -0.0084633846, 0.0123822764, 0.0169091150, 0.0483487658, -0.0337366089, -0.0056330357, 0.0325615108, -0.0364067331, 0.0160783455, 0.0299865846, -0.0310055632, -0.0046054819, -0.0021576008};

#endif

#endif
