//Numpy array shape [64, 64, 64]
//Min -0.066654562950
//Max 0.055814594030
//Number of zeros 0

#ifndef B86_H_
#define B86_H_

#ifndef __SYNTHESIS__
model_default_t b86[262144];
#else
model_default_t b86[262144] = {0.0134902690, 0.0186796244, -0.0314918309, -0.0364364907, 0.0370173417, 0.0558145940, 0.0537020937, 0.0516596437, -0.0395055115, 0.0201839898, 0.0242626034, -0.0125009045, -0.0016452685, 0.0025328170, 0.0374942087, -0.0522521585, 0.0339399017, -0.0381886140, 0.0082380092, 0.0266216043, 0.0220751893, 0.0284245331, -0.0560006239, -0.0073465393, -0.0382947251, -0.0373469144, -0.0106765879, -0.0508868545, -0.0590467453, 0.0391262285, 0.0243282355, -0.0172224790, 0.0367470868, 0.0457790084, -0.0178079028, -0.0535516068, 0.0186331049, -0.0175269283, 0.0166329928, -0.0015544123, -0.0535198972, 0.0374329984, 0.0439537987, -0.0046469113, -0.0006061245, 0.0273805186, -0.0511521325, -0.0413718931, 0.0044130660, 0.0033892670, -0.0666545630, -0.0084537696, 0.0123682097, 0.0168899056, 0.0482938401, -0.0336982831, -0.0056266361, 0.0325245187, -0.0363653712, 0.0160600785, 0.0299525186, -0.0309703387, -0.0046002497, -0.0021551496, 0.0134902690, 0.0186796244, -0.0314918309, -0.0364364907, 0.0370173417, 0.0558145940, 0.0537020937, 0.0516596437, -0.0395055115, 0.0201839898, 0.0242626034, -0.0125009045, -0.0016452685, 0.0025328170, 0.0374942087, -0.0522521585, 0.0339399017, -0.0381886140, 0.0082380092, 0.0266216043, 0.0220751893, 0.0284245331, -0.0560006239, -0.0073465393, -0.0382947251, -0.0373469144, -0.0106765879, -0.0508868545, -0.0590467453, 0.0391262285, 0.0243282355, -0.0172224790, 0.0367470868, 0.0457790084, -0.0178079028, -0.0535516068, 0.0186331049, -0.0175269283, 0.0166329928, -0.0015544123, -0.0535198972, 0.0374329984, 0.0439537987, -0.0046469113, -0.0006061245, 0.0273805186, -0.0511521325, -0.0413718931, 0.0044130660, 0.0033892670, -0.0666545630, -0.0084537696, 0.0123682097, 0.0168899056, 0.0482938401, -0.0336982831, -0.0056266361, 0.0325245187, -0.0363653712, 0.0160600785, 0.0299525186, -0.0309703387, -0.0046002497, -0.0021551496, 0.0134902690, 0.0186796244, -0.0314918309, -0.0364364907, 0.0370173417, 0.0558145940, 0.0537020937, 0.0516596437, -0.0395055115, 0.0201839898, 0.0242626034, -0.0125009045, -0.0016452685, 0.0025328170, 0.0374942087, -0.0522521585, 0.0339399017, -0.0381886140, 0.0082380092, 0.0266216043, 0.0220751893, 0.0284245331, -0.0560006239, -0.0073465393, -0.0382947251, -0.0373469144, -0.0106765879, -0.0508868545, -0.0590467453, 0.0391262285, 0.0243282355, -0.0172224790, 0.0367470868, 0.0457790084, -0.0178079028, -0.0535516068, 0.0186331049, -0.0175269283, 0.0166329928, -0.0015544123, -0.0535198972, 0.0374329984, 0.0439537987, -0.0046469113, -0.0006061245, 0.0273805186, -0.0511521325, -0.0413718931, 0.0044130660, 0.0033892670, -0.0666545630, -0.0084537696, 0.0123682097, 0.0168899056, 0.0482938401, -0.0336982831, -0.0056266361, 0.0325245187, -0.0363653712, 0.0160600785, 0.0299525186, -0.0309703387, -0.0046002497, -0.0021551496, 0.0134902690, 0.0186796244, -0.0314918309, -0.0364364907, 0.0370173417, 0.0558145940, 0.0537020937, 0.0516596437, -0.0395055115, 0.0201839898, 0.0242626034, -0.0125009045, -0.0016452685, 0.0025328170, 0.0374942087, -0.0522521585, 0.0339399017, -0.0381886140, 0.0082380092, 0.0266216043, 0.0220751893, 0.0284245331, -0.0560006239, -0.0073465393, -0.0382947251, -0.0373469144, -0.0106765879, -0.0508868545, -0.0590467453, 0.0391262285, 0.0243282355, -0.0172224790, 0.0367470868, 0.0457790084, -0.0178079028, -0.0535516068, 0.0186331049, -0.0175269283, 0.0166329928, -0.0015544123, -0.0535198972, 0.0374329984, 0.0439537987, -0.0046469113, -0.0006061245, 0.0273805186, -0.0511521325, -0.0413718931, 0.0044130660, 0.0033892670, -0.0666545630, -0.0084537696, 0.0123682097, 0.0168899056, 0.0482938401, -0.0336982831, -0.0056266361, 0.0325245187, -0.0363653712, 0.0160600785, 0.0299525186, -0.0309703387, -0.0046002497, -0.0021551496, 0.0134902690, 0.0186796244, -0.0314918309, -0.0364364907, 0.0370173417, 0.0558145940, 0.0537020937, 0.0516596437, -0.0395055115, 0.0201839898, 0.0242626034, -0.0125009045, -0.0016452685, 0.0025328170, 0.0374942087, -0.0522521585, 0.0339399017, -0.0381886140, 0.0082380092, 0.0266216043, 0.0220751893, 0.0284245331, -0.0560006239, -0.0073465393, -0.0382947251, -0.0373469144, -0.0106765879, -0.0508868545, -0.0590467453, 0.0391262285, 0.0243282355, -0.0172224790, 0.0367470868, 0.0457790084, -0.0178079028, -0.0535516068, 0.0186331049, -0.0175269283, 0.0166329928, -0.0015544123, -0.0535198972, 0.0374329984, 0.0439537987, -0.0046469113, -0.0006061245, 0.0273805186, -0.0511521325, -0.0413718931, 0.0044130660, 0.0033892670, -0.0666545630, -0.0084537696, 0.0123682097, 0.0168899056, 0.0482938401, -0.0336982831, -0.0056266361, 0.0325245187, -0.0363653712, 0.0160600785, 0.0299525186, -0.0309703387, -0.0046002497, -0.0021551496, 0.0134902690, 0.0186796244, -0.0314918309, -0.0364364907, 0.0370173417, 0.0558145940, 0.0537020937, 0.0516596437, -0.0395055115, 0.0201839898, 0.0242626034, -0.0125009045, -0.0016452685, 0.0025328170, 0.0374942087, -0.0522521585, 0.0339399017, -0.0381886140, 0.0082380092, 0.0266216043, 0.0220751893, 0.0284245331, -0.0560006239, -0.0073465393, -0.0382947251, -0.0373469144, -0.0106765879, -0.0508868545, -0.0590467453, 0.0391262285, 0.0243282355, -0.0172224790, 0.0367470868, 0.0457790084, -0.0178079028, -0.0535516068, 0.0186331049, -0.0175269283, 0.0166329928, -0.0015544123, -0.0535198972, 0.0374329984, 0.0439537987, -0.0046469113, -0.0006061245, 0.0273805186, -0.0511521325, -0.0413718931, 0.0044130660, 0.0033892670, -0.0666545630, -0.0084537696, 0.0123682097, 0.0168899056, 0.0482938401, -0.0336982831, -0.0056266361, 0.0325245187, -0.0363653712, 0.0160600785, 0.0299525186, -0.0309703387, -0.0046002497, -0.0021551496, 0.0134902690, 0.0186796244, -0.0314918309, -0.0364364907, 0.0370173417, 0.0558145940, 0.0537020937, 0.0516596437, -0.0395055115, 0.0201839898, 0.0242626034, -0.0125009045, -0.0016452685, 0.0025328170, 0.0374942087, -0.0522521585, 0.0339399017, -0.0381886140, 0.0082380092, 0.0266216043, 0.0220751893, 0.0284245331, -0.0560006239, -0.0073465393, -0.0382947251, -0.0373469144, -0.0106765879, -0.0508868545, -0.0590467453, 0.0391262285, 0.0243282355, -0.0172224790, 0.0367470868, 0.0457790084, -0.0178079028, -0.0535516068, 0.0186331049, -0.0175269283, 0.0166329928, -0.0015544123, -0.0535198972, 0.0374329984, 0.0439537987, -0.0046469113, -0.0006061245, 0.0273805186, -0.0511521325, -0.0413718931, 0.0044130660, 0.0033892670, -0.0666545630, -0.0084537696, 0.0123682097, 0.0168899056, 0.0482938401, -0.0336982831, -0.0056266361, 0.0325245187, -0.0363653712, 0.0160600785, 0.0299525186, -0.0309703387, -0.0046002497, -0.0021551496, 0.0134902690, 0.0186796244, -0.0314918309, -0.0364364907, 0.0370173417, 0.0558145940, 0.0537020937, 0.0516596437, -0.0395055115, 0.0201839898, 0.0242626034, -0.0125009045, -0.0016452685, 0.0025328170, 0.0374942087, -0.0522521585, 0.0339399017, -0.0381886140, 0.0082380092, 0.0266216043, 0.0220751893, 0.0284245331, -0.0560006239, -0.0073465393, -0.0382947251, -0.0373469144, -0.0106765879, -0.0508868545, -0.0590467453, 0.0391262285, 0.0243282355, -0.0172224790, 0.0367470868, 0.0457790084, -0.0178079028, -0.0535516068, 0.0186331049, -0.0175269283, 0.0166329928, -0.0015544123, -0.0535198972, 0.0374329984, 0.0439537987, -0.0046469113, -0.0006061245, 0.0273805186, -0.0511521325, -0.0413718931, 0.0044130660, 0.0033892670, -0.0666545630, -0.0084537696, 0.0123682097, 0.0168899056, 0.0482938401, -0.0336982831, -0.0056266361, 0.0325245187, -0.0363653712, 0.0160600785, 0.0299525186, -0.0309703387, -0.0046002497, -0.0021551496, 0.0134902690, 0.0186796244, -0.0314918309, -0.0364364907, 0.0370173417, 0.0558145940, 0.0537020937, 0.0516596437, -0.0395055115, 0.0201839898, 0.0242626034, -0.0125009045, -0.0016452685, 0.0025328170, 0.0374942087, -0.0522521585, 0.0339399017, -0.0381886140, 0.0082380092, 0.0266216043, 0.0220751893, 0.0284245331, -0.0560006239, -0.0073465393, -0.0382947251, -0.0373469144, -0.0106765879, -0.0508868545, -0.0590467453, 0.0391262285, 0.0243282355, -0.0172224790, 0.0367470868, 0.0457790084, -0.0178079028, -0.0535516068, 0.0186331049, -0.0175269283, 0.0166329928, -0.0015544123, -0.0535198972, 0.0374329984, 0.0439537987, -0.0046469113, -0.0006061245, 0.0273805186, -0.0511521325, -0.0413718931, 0.0044130660, 0.0033892670, -0.0666545630, -0.0084537696, 0.0123682097, 0.0168899056, 0.0482938401, -0.0336982831, -0.0056266361, 0.0325245187, -0.0363653712, 0.0160600785, 0.0299525186, -0.0309703387, -0.0046002497, -0.0021551496, 0.0134902690, 0.0186796244, -0.0314918309, -0.0364364907, 0.0370173417, 0.0558145940, 0.0537020937, 0.0516596437, -0.0395055115, 0.0201839898, 0.0242626034, -0.0125009045, -0.0016452685, 0.0025328170, 0.0374942087, -0.0522521585, 0.0339399017, -0.0381886140, 0.0082380092, 0.0266216043, 0.0220751893, 0.0284245331, -0.0560006239, -0.0073465393, -0.0382947251, -0.0373469144, -0.0106765879, -0.0508868545, -0.0590467453, 0.0391262285, 0.0243282355, -0.0172224790, 0.0367470868, 0.0457790084, -0.0178079028, -0.0535516068, 0.0186331049, -0.0175269283, 0.0166329928, -0.0015544123, -0.0535198972, 0.0374329984, 0.0439537987, -0.0046469113, -0.0006061245, 0.0273805186, -0.0511521325, -0.0413718931, 0.0044130660, 0.0033892670, -0.0666545630, -0.0084537696, 0.0123682097, 0.0168899056, 0.0482938401, -0.0336982831, -0.0056266361, 0.0325245187, -0.0363653712, 0.0160600785, 0.0299525186, -0.0309703387, -0.0046002497, -0.0021551496, 0.0134902690, 0.0186796244, -0.0314918309, -0.0364364907, 0.0370173417, 0.0558145940, 0.0537020937, 0.0516596437, -0.0395055115, 0.0201839898, 0.0242626034, -0.0125009045, -0.0016452685, 0.0025328170, 0.0374942087, -0.0522521585, 0.0339399017, -0.0381886140, 0.0082380092, 0.0266216043, 0.0220751893, 0.0284245331, -0.0560006239, -0.0073465393, -0.0382947251, -0.0373469144, -0.0106765879, -0.0508868545, -0.0590467453, 0.0391262285, 0.0243282355, -0.0172224790, 0.0367470868, 0.0457790084, -0.0178079028, -0.0535516068, 0.0186331049, -0.0175269283, 0.0166329928, -0.0015544123, -0.0535198972, 0.0374329984, 0.0439537987, -0.0046469113, -0.0006061245, 0.0273805186, -0.0511521325, -0.0413718931, 0.0044130660, 0.0033892670, -0.0666545630, -0.0084537696, 0.0123682097, 0.0168899056, 0.0482938401, -0.0336982831, -0.0056266361, 0.0325245187, -0.0363653712, 0.0160600785, 0.0299525186, -0.0309703387, -0.0046002497, -0.0021551496, 0.0134902690, 0.0186796244, -0.0314918309, -0.0364364907, 0.0370173417, 0.0558145940, 0.0537020937, 0.0516596437, -0.0395055115, 0.0201839898, 0.0242626034, -0.0125009045, -0.0016452685, 0.0025328170, 0.0374942087, -0.0522521585, 0.0339399017, -0.0381886140, 0.0082380092, 0.0266216043, 0.0220751893, 0.0284245331, -0.0560006239, -0.0073465393, -0.0382947251, -0.0373469144, -0.0106765879, -0.0508868545, -0.0590467453, 0.0391262285, 0.0243282355, -0.0172224790, 0.0367470868, 0.0457790084, -0.0178079028, -0.0535516068, 0.0186331049, -0.0175269283, 0.0166329928, -0.0015544123, -0.0535198972, 0.0374329984, 0.0439537987, -0.0046469113, -0.0006061245, 0.0273805186, -0.0511521325, -0.0413718931, 0.0044130660, 0.0033892670, -0.0666545630, -0.0084537696, 0.0123682097, 0.0168899056, 0.0482938401, -0.0336982831, -0.0056266361, 0.0325245187, -0.0363653712, 0.0160600785, 0.0299525186, -0.0309703387, -0.0046002497, -0.0021551496, 0.0134902690, 0.0186796244, -0.0314918309, -0.0364364907, 0.0370173417, 0.0558145940, 0.0537020937, 0.0516596437, -0.0395055115, 0.0201839898, 0.0242626034, -0.0125009045, -0.0016452685, 0.0025328170, 0.0374942087, -0.0522521585, 0.0339399017, -0.0381886140, 0.0082380092, 0.0266216043, 0.0220751893, 0.0284245331, -0.0560006239, -0.0073465393, -0.0382947251, -0.0373469144, -0.0106765879, -0.0508868545, -0.0590467453, 0.0391262285, 0.0243282355, -0.0172224790, 0.0367470868, 0.0457790084, -0.0178079028, -0.0535516068, 0.0186331049, -0.0175269283, 0.0166329928, -0.0015544123, -0.0535198972, 0.0374329984, 0.0439537987, -0.0046469113, -0.0006061245, 0.0273805186, -0.0511521325, -0.0413718931, 0.0044130660, 0.0033892670, -0.0666545630, -0.0084537696, 0.0123682097, 0.0168899056, 0.0482938401, -0.0336982831, -0.0056266361, 0.0325245187, -0.0363653712, 0.0160600785, 0.0299525186, -0.0309703387, -0.0046002497, -0.0021551496, 0.0134902690, 0.0186796244, -0.0314918309, -0.0364364907, 0.0370173417, 0.0558145940, 0.0537020937, 0.0516596437, -0.0395055115, 0.0201839898, 0.0242626034, -0.0125009045, -0.0016452685, 0.0025328170, 0.0374942087, -0.0522521585, 0.0339399017, -0.0381886140, 0.0082380092, 0.0266216043, 0.0220751893, 0.0284245331, -0.0560006239, -0.0073465393, -0.0382947251, -0.0373469144, -0.0106765879, -0.0508868545, -0.0590467453, 0.0391262285, 0.0243282355, -0.0172224790, 0.0367470868, 0.0457790084, -0.0178079028, -0.0535516068, 0.0186331049, -0.0175269283, 0.0166329928, -0.0015544123, -0.0535198972, 0.0374329984, 0.0439537987, -0.0046469113, -0.0006061245, 0.0273805186, -0.0511521325, -0.0413718931, 0.0044130660, 0.0033892670, -0.0666545630, -0.0084537696, 0.0123682097, 0.0168899056, 0.0482938401, -0.0336982831, -0.0056266361, 0.0325245187, -0.0363653712, 0.0160600785, 0.0299525186, -0.0309703387, -0.0046002497, -0.0021551496, 0.0134902690, 0.0186796244, -0.0314918309, -0.0364364907, 0.0370173417, 0.0558145940, 0.0537020937, 0.0516596437, -0.0395055115, 0.0201839898, 0.0242626034, -0.0125009045, -0.0016452685, 0.0025328170, 0.0374942087, -0.0522521585, 0.0339399017, -0.0381886140, 0.0082380092, 0.0266216043, 0.0220751893, 0.0284245331, -0.0560006239, -0.0073465393, -0.0382947251, -0.0373469144, -0.0106765879, -0.0508868545, -0.0590467453, 0.0391262285, 0.0243282355, -0.0172224790, 0.0367470868, 0.0457790084, -0.0178079028, -0.0535516068, 0.0186331049, -0.0175269283, 0.0166329928, -0.0015544123, -0.0535198972, 0.0374329984, 0.0439537987, -0.0046469113, -0.0006061245, 0.0273805186, -0.0511521325, -0.0413718931, 0.0044130660, 0.0033892670, -0.0666545630, -0.0084537696, 0.0123682097, 0.0168899056, 0.0482938401, -0.0336982831, -0.0056266361, 0.0325245187, -0.0363653712, 0.0160600785, 0.0299525186, -0.0309703387, -0.0046002497, -0.0021551496, 0.0134902690, 0.0186796244, -0.0314918309, -0.0364364907, 0.0370173417, 0.0558145940, 0.0537020937, 0.0516596437, -0.0395055115, 0.0201839898, 0.0242626034, -0.0125009045, -0.0016452685, 0.0025328170, 0.0374942087, -0.0522521585, 0.0339399017, -0.0381886140, 0.0082380092, 0.0266216043, 0.0220751893, 0.0284245331, -0.0560006239, -0.0073465393, -0.0382947251, -0.0373469144, -0.0106765879, -0.0508868545, -0.0590467453, 0.0391262285, 0.0243282355, -0.0172224790, 0.0367470868, 0.0457790084, -0.0178079028, -0.0535516068, 0.0186331049, -0.0175269283, 0.0166329928, -0.0015544123, -0.0535198972, 0.0374329984, 0.0439537987, -0.0046469113, -0.0006061245, 0.0273805186, -0.0511521325, -0.0413718931, 0.0044130660, 0.0033892670, -0.0666545630, -0.0084537696, 0.0123682097, 0.0168899056, 0.0482938401, -0.0336982831, -0.0056266361, 0.0325245187, -0.0363653712, 0.0160600785, 0.0299525186, -0.0309703387, -0.0046002497, -0.0021551496, 0.0134902690, 0.0186796244, -0.0314918309, -0.0364364907, 0.0370173417, 0.0558145940, 0.0537020937, 0.0516596437, -0.0395055115, 0.0201839898, 0.0242626034, -0.0125009045, -0.0016452685, 0.0025328170, 0.0374942087, -0.0522521585, 0.0339399017, -0.0381886140, 0.0082380092, 0.0266216043, 0.0220751893, 0.0284245331, -0.0560006239, -0.0073465393, -0.0382947251, -0.0373469144, -0.0106765879, -0.0508868545, -0.0590467453, 0.0391262285, 0.0243282355, -0.0172224790, 0.0367470868, 0.0457790084, -0.0178079028, -0.0535516068, 0.0186331049, -0.0175269283, 0.0166329928, -0.0015544123, -0.0535198972, 0.0374329984, 0.0439537987, -0.0046469113, -0.0006061245, 0.0273805186, -0.0511521325, -0.0413718931, 0.0044130660, 0.0033892670, -0.0666545630, -0.0084537696, 0.0123682097, 0.0168899056, 0.0482938401, -0.0336982831, -0.0056266361, 0.0325245187, -0.0363653712, 0.0160600785, 0.0299525186, -0.0309703387, -0.0046002497, -0.0021551496, 0.0134902690, 0.0186796244, -0.0314918309, -0.0364364907, 0.0370173417, 0.0558145940, 0.0537020937, 0.0516596437, -0.0395055115, 0.0201839898, 0.0242626034, -0.0125009045, -0.0016452685, 0.0025328170, 0.0374942087, -0.0522521585, 0.0339399017, -0.0381886140, 0.0082380092, 0.0266216043, 0.0220751893, 0.0284245331, -0.0560006239, -0.0073465393, -0.0382947251, -0.0373469144, -0.0106765879, -0.0508868545, -0.0590467453, 0.0391262285, 0.0243282355, -0.0172224790, 0.0367470868, 0.0457790084, -0.0178079028, -0.0535516068, 0.0186331049, -0.0175269283, 0.0166329928, -0.0015544123, -0.0535198972, 0.0374329984, 0.0439537987, -0.0046469113, -0.0006061245, 0.0273805186, -0.0511521325, -0.0413718931, 0.0044130660, 0.0033892670, -0.0666545630, -0.0084537696, 0.0123682097, 0.0168899056, 0.0482938401, -0.0336982831, -0.0056266361, 0.0325245187, -0.0363653712, 0.0160600785, 0.0299525186, -0.0309703387, -0.0046002497, -0.0021551496, 0.0134902690, 0.0186796244, -0.0314918309, -0.0364364907, 0.0370173417, 0.0558145940, 0.0537020937, 0.0516596437, -0.0395055115, 0.0201839898, 0.0242626034, -0.0125009045, -0.0016452685, 0.0025328170, 0.0374942087, -0.0522521585, 0.0339399017, -0.0381886140, 0.0082380092, 0.0266216043, 0.0220751893, 0.0284245331, -0.0560006239, -0.0073465393, -0.0382947251, -0.0373469144, -0.0106765879, -0.0508868545, -0.0590467453, 0.0391262285, 0.0243282355, -0.0172224790, 0.0367470868, 0.0457790084, -0.0178079028, -0.0535516068, 0.0186331049, -0.0175269283, 0.0166329928, -0.0015544123, -0.0535198972, 0.0374329984, 0.0439537987, -0.0046469113, -0.0006061245, 0.0273805186, -0.0511521325, -0.0413718931, 0.0044130660, 0.0033892670, -0.0666545630, -0.0084537696, 0.0123682097, 0.0168899056, 0.0482938401, -0.0336982831, -0.0056266361, 0.0325245187, -0.0363653712, 0.0160600785, 0.0299525186, -0.0309703387, -0.0046002497, -0.0021551496, 0.0134902690, 0.0186796244, -0.0314918309, -0.0364364907, 0.0370173417, 0.0558145940, 0.0537020937, 0.0516596437, -0.0395055115, 0.0201839898, 0.0242626034, -0.0125009045, -0.0016452685, 0.0025328170, 0.0374942087, -0.0522521585, 0.0339399017, -0.0381886140, 0.0082380092, 0.0266216043, 0.0220751893, 0.0284245331, -0.0560006239, -0.0073465393, -0.0382947251, -0.0373469144, -0.0106765879, -0.0508868545, -0.0590467453, 0.0391262285, 0.0243282355, -0.0172224790, 0.0367470868, 0.0457790084, -0.0178079028, -0.0535516068, 0.0186331049, -0.0175269283, 0.0166329928, -0.0015544123, -0.0535198972, 0.0374329984, 0.0439537987, -0.0046469113, -0.0006061245, 0.0273805186, -0.0511521325, -0.0413718931, 0.0044130660, 0.0033892670, -0.0666545630, -0.0084537696, 0.0123682097, 0.0168899056, 0.0482938401, -0.0336982831, -0.0056266361, 0.0325245187, -0.0363653712, 0.0160600785, 0.0299525186, -0.0309703387, -0.0046002497, -0.0021551496, 0.0134902690, 0.0186796244, -0.0314918309, -0.0364364907, 0.0370173417, 0.0558145940, 0.0537020937, 0.0516596437, -0.0395055115, 0.0201839898, 0.0242626034, -0.0125009045, -0.0016452685, 0.0025328170, 0.0374942087, -0.0522521585, 0.0339399017, -0.0381886140, 0.0082380092, 0.0266216043, 0.0220751893, 0.0284245331, -0.0560006239, -0.0073465393, -0.0382947251, -0.0373469144, -0.0106765879, -0.0508868545, -0.0590467453, 0.0391262285, 0.0243282355, -0.0172224790, 0.0367470868, 0.0457790084, -0.0178079028, -0.0535516068, 0.0186331049, -0.0175269283, 0.0166329928, -0.0015544123, -0.0535198972, 0.0374329984, 0.0439537987, -0.0046469113, -0.0006061245, 0.0273805186, -0.0511521325, -0.0413718931, 0.0044130660, 0.0033892670, -0.0666545630, -0.0084537696, 0.0123682097, 0.0168899056, 0.0482938401, -0.0336982831, -0.0056266361, 0.0325245187, -0.0363653712, 0.0160600785, 0.0299525186, -0.0309703387, -0.0046002497, -0.0021551496, 0.0134902690, 0.0186796244, -0.0314918309, -0.0364364907, 0.0370173417, 0.0558145940, 0.0537020937, 0.0516596437, -0.0395055115, 0.0201839898, 0.0242626034, -0.0125009045, -0.0016452685, 0.0025328170, 0.0374942087, -0.0522521585, 0.0339399017, -0.0381886140, 0.0082380092, 0.0266216043, 0.0220751893, 0.0284245331, -0.0560006239, -0.0073465393, -0.0382947251, -0.0373469144, -0.0106765879, -0.0508868545, -0.0590467453, 0.0391262285, 0.0243282355, -0.0172224790, 0.0367470868, 0.0457790084, -0.0178079028, -0.0535516068, 0.0186331049, -0.0175269283, 0.0166329928, -0.0015544123, -0.0535198972, 0.0374329984, 0.0439537987, -0.0046469113, -0.0006061245, 0.0273805186, -0.0511521325, -0.0413718931, 0.0044130660, 0.0033892670, -0.0666545630, -0.0084537696, 0.0123682097, 0.0168899056, 0.0482938401, -0.0336982831, -0.0056266361, 0.0325245187, -0.0363653712, 0.0160600785, 0.0299525186, -0.0309703387, -0.0046002497, -0.0021551496, 0.0134902690, 0.0186796244, -0.0314918309, -0.0364364907, 0.0370173417, 0.0558145940, 0.0537020937, 0.0516596437, -0.0395055115, 0.0201839898, 0.0242626034, -0.0125009045, -0.0016452685, 0.0025328170, 0.0374942087, -0.0522521585, 0.0339399017, -0.0381886140, 0.0082380092, 0.0266216043, 0.0220751893, 0.0284245331, -0.0560006239, -0.0073465393, -0.0382947251, -0.0373469144, -0.0106765879, -0.0508868545, -0.0590467453, 0.0391262285, 0.0243282355, -0.0172224790, 0.0367470868, 0.0457790084, -0.0178079028, -0.0535516068, 0.0186331049, -0.0175269283, 0.0166329928, -0.0015544123, -0.0535198972, 0.0374329984, 0.0439537987, -0.0046469113, -0.0006061245, 0.0273805186, -0.0511521325, -0.0413718931, 0.0044130660, 0.0033892670, -0.0666545630, -0.0084537696, 0.0123682097, 0.0168899056, 0.0482938401, -0.0336982831, -0.0056266361, 0.0325245187, -0.0363653712, 0.0160600785, 0.0299525186, -0.0309703387, -0.0046002497, -0.0021551496, 0.0134902690, 0.0186796244, -0.0314918309, -0.0364364907, 0.0370173417, 0.0558145940, 0.0537020937, 0.0516596437, -0.0395055115, 0.0201839898, 0.0242626034, -0.0125009045, -0.0016452685, 0.0025328170, 0.0374942087, -0.0522521585, 0.0339399017, -0.0381886140, 0.0082380092, 0.0266216043, 0.0220751893, 0.0284245331, -0.0560006239, -0.0073465393, -0.0382947251, -0.0373469144, -0.0106765879, -0.0508868545, -0.0590467453, 0.0391262285, 0.0243282355, -0.0172224790, 0.0367470868, 0.0457790084, -0.0178079028, -0.0535516068, 0.0186331049, -0.0175269283, 0.0166329928, -0.0015544123, -0.0535198972, 0.0374329984, 0.0439537987, -0.0046469113, -0.0006061245, 0.0273805186, -0.0511521325, -0.0413718931, 0.0044130660, 0.0033892670, -0.0666545630, -0.0084537696, 0.0123682097, 0.0168899056, 0.0482938401, -0.0336982831, -0.0056266361, 0.0325245187, -0.0363653712, 0.0160600785, 0.0299525186, -0.0309703387, -0.0046002497, -0.0021551496, 0.0134902690, 0.0186796244, -0.0314918309, -0.0364364907, 0.0370173417, 0.0558145940, 0.0537020937, 0.0516596437, -0.0395055115, 0.0201839898, 0.0242626034, -0.0125009045, -0.0016452685, 0.0025328170, 0.0374942087, -0.0522521585, 0.0339399017, -0.0381886140, 0.0082380092, 0.0266216043, 0.0220751893, 0.0284245331, -0.0560006239, -0.0073465393, -0.0382947251, -0.0373469144, -0.0106765879, -0.0508868545, -0.0590467453, 0.0391262285, 0.0243282355, -0.0172224790, 0.0367470868, 0.0457790084, -0.0178079028, -0.0535516068, 0.0186331049, -0.0175269283, 0.0166329928, -0.0015544123, -0.0535198972, 0.0374329984, 0.0439537987, -0.0046469113, -0.0006061245, 0.0273805186, -0.0511521325, -0.0413718931, 0.0044130660, 0.0033892670, -0.0666545630, -0.0084537696, 0.0123682097, 0.0168899056, 0.0482938401, -0.0336982831, -0.0056266361, 0.0325245187, -0.0363653712, 0.0160600785, 0.0299525186, -0.0309703387, -0.0046002497, -0.0021551496, 0.0134902690, 0.0186796244, -0.0314918309, -0.0364364907, 0.0370173417, 0.0558145940, 0.0537020937, 0.0516596437, -0.0395055115, 0.0201839898, 0.0242626034, -0.0125009045, -0.0016452685, 0.0025328170, 0.0374942087, -0.0522521585, 0.0339399017, -0.0381886140, 0.0082380092, 0.0266216043, 0.0220751893, 0.0284245331, -0.0560006239, -0.0073465393, -0.0382947251, -0.0373469144, -0.0106765879, -0.0508868545, -0.0590467453, 0.0391262285, 0.0243282355, -0.0172224790, 0.0367470868, 0.0457790084, -0.0178079028, -0.0535516068, 0.0186331049, -0.0175269283, 0.0166329928, -0.0015544123, -0.0535198972, 0.0374329984, 0.0439537987, -0.0046469113, -0.0006061245, 0.0273805186, -0.0511521325, -0.0413718931, 0.0044130660, 0.0033892670, -0.0666545630, -0.0084537696, 0.0123682097, 0.0168899056, 0.0482938401, -0.0336982831, -0.0056266361, 0.0325245187, -0.0363653712, 0.0160600785, 0.0299525186, -0.0309703387, -0.0046002497, -0.0021551496, 0.0134902690, 0.0186796244, -0.0314918309, -0.0364364907, 0.0370173417, 0.0558145940, 0.0537020937, 0.0516596437, -0.0395055115, 0.0201839898, 0.0242626034, -0.0125009045, -0.0016452685, 0.0025328170, 0.0374942087, -0.0522521585, 0.0339399017, -0.0381886140, 0.0082380092, 0.0266216043, 0.0220751893, 0.0284245331, -0.0560006239, -0.0073465393, -0.0382947251, -0.0373469144, -0.0106765879, -0.0508868545, -0.0590467453, 0.0391262285, 0.0243282355, -0.0172224790, 0.0367470868, 0.0457790084, -0.0178079028, -0.0535516068, 0.0186331049, -0.0175269283, 0.0166329928, -0.0015544123, -0.0535198972, 0.0374329984, 0.0439537987, -0.0046469113, -0.0006061245, 0.0273805186, -0.0511521325, -0.0413718931, 0.0044130660, 0.0033892670, -0.0666545630, -0.0084537696, 0.0123682097, 0.0168899056, 0.0482938401, -0.0336982831, -0.0056266361, 0.0325245187, -0.0363653712, 0.0160600785, 0.0299525186, -0.0309703387, -0.0046002497, -0.0021551496, 0.0134902690, 0.0186796244, -0.0314918309, -0.0364364907, 0.0370173417, 0.0558145940, 0.0537020937, 0.0516596437, -0.0395055115, 0.0201839898, 0.0242626034, -0.0125009045, -0.0016452685, 0.0025328170, 0.0374942087, -0.0522521585, 0.0339399017, -0.0381886140, 0.0082380092, 0.0266216043, 0.0220751893, 0.0284245331, -0.0560006239, -0.0073465393, -0.0382947251, -0.0373469144, -0.0106765879, -0.0508868545, -0.0590467453, 0.0391262285, 0.0243282355, -0.0172224790, 0.0367470868, 0.0457790084, -0.0178079028, -0.0535516068, 0.0186331049, -0.0175269283, 0.0166329928, -0.0015544123, -0.0535198972, 0.0374329984, 0.0439537987, -0.0046469113, -0.0006061245, 0.0273805186, -0.0511521325, -0.0413718931, 0.0044130660, 0.0033892670, -0.0666545630, -0.0084537696, 0.0123682097, 0.0168899056, 0.0482938401, -0.0336982831, -0.0056266361, 0.0325245187, -0.0363653712, 0.0160600785, 0.0299525186, -0.0309703387, -0.0046002497, -0.0021551496, 0.0134902690, 0.0186796244, -0.0314918309, -0.0364364907, 0.0370173417, 0.0558145940, 0.0537020937, 0.0516596437, -0.0395055115, 0.0201839898, 0.0242626034, -0.0125009045, -0.0016452685, 0.0025328170, 0.0374942087, -0.0522521585, 0.0339399017, -0.0381886140, 0.0082380092, 0.0266216043, 0.0220751893, 0.0284245331, -0.0560006239, -0.0073465393, -0.0382947251, -0.0373469144, -0.0106765879, -0.0508868545, -0.0590467453, 0.0391262285, 0.0243282355, -0.0172224790, 0.0367470868, 0.0457790084, -0.0178079028, -0.0535516068, 0.0186331049, -0.0175269283, 0.0166329928, -0.0015544123, -0.0535198972, 0.0374329984, 0.0439537987, -0.0046469113, -0.0006061245, 0.0273805186, -0.0511521325, -0.0413718931, 0.0044130660, 0.0033892670, -0.0666545630, -0.0084537696, 0.0123682097, 0.0168899056, 0.0482938401, -0.0336982831, -0.0056266361, 0.0325245187, -0.0363653712, 0.0160600785, 0.0299525186, -0.0309703387, -0.0046002497, -0.0021551496, 0.0134902690, 0.0186796244, -0.0314918309, -0.0364364907, 0.0370173417, 0.0558145940, 0.0537020937, 0.0516596437, -0.0395055115, 0.0201839898, 0.0242626034, -0.0125009045, -0.0016452685, 0.0025328170, 0.0374942087, -0.0522521585, 0.0339399017, -0.0381886140, 0.0082380092, 0.0266216043, 0.0220751893, 0.0284245331, -0.0560006239, -0.0073465393, -0.0382947251, -0.0373469144, -0.0106765879, -0.0508868545, -0.0590467453, 0.0391262285, 0.0243282355, -0.0172224790, 0.0367470868, 0.0457790084, -0.0178079028, -0.0535516068, 0.0186331049, -0.0175269283, 0.0166329928, -0.0015544123, -0.0535198972, 0.0374329984, 0.0439537987, -0.0046469113, -0.0006061245, 0.0273805186, -0.0511521325, -0.0413718931, 0.0044130660, 0.0033892670, -0.0666545630, -0.0084537696, 0.0123682097, 0.0168899056, 0.0482938401, -0.0336982831, -0.0056266361, 0.0325245187, -0.0363653712, 0.0160600785, 0.0299525186, -0.0309703387, -0.0046002497, -0.0021551496, 0.0134902690, 0.0186796244, -0.0314918309, -0.0364364907, 0.0370173417, 0.0558145940, 0.0537020937, 0.0516596437, -0.0395055115, 0.0201839898, 0.0242626034, -0.0125009045, -0.0016452685, 0.0025328170, 0.0374942087, -0.0522521585, 0.0339399017, -0.0381886140, 0.0082380092, 0.0266216043, 0.0220751893, 0.0284245331, -0.0560006239, -0.0073465393, -0.0382947251, -0.0373469144, -0.0106765879, -0.0508868545, -0.0590467453, 0.0391262285, 0.0243282355, -0.0172224790, 0.0367470868, 0.0457790084, -0.0178079028, -0.0535516068, 0.0186331049, -0.0175269283, 0.0166329928, -0.0015544123, -0.0535198972, 0.0374329984, 0.0439537987, -0.0046469113, -0.0006061245, 0.0273805186, -0.0511521325, -0.0413718931, 0.0044130660, 0.0033892670, -0.0666545630, -0.0084537696, 0.0123682097, 0.0168899056, 0.0482938401, -0.0336982831, -0.0056266361, 0.0325245187, -0.0363653712, 0.0160600785, 0.0299525186, -0.0309703387, -0.0046002497, -0.0021551496, 0.0134902690, 0.0186796244, -0.0314918309, -0.0364364907, 0.0370173417, 0.0558145940, 0.0537020937, 0.0516596437, -0.0395055115, 0.0201839898, 0.0242626034, -0.0125009045, -0.0016452685, 0.0025328170, 0.0374942087, -0.0522521585, 0.0339399017, -0.0381886140, 0.0082380092, 0.0266216043, 0.0220751893, 0.0284245331, -0.0560006239, -0.0073465393, -0.0382947251, -0.0373469144, -0.0106765879, -0.0508868545, -0.0590467453, 0.0391262285, 0.0243282355, -0.0172224790, 0.0367470868, 0.0457790084, -0.0178079028, -0.0535516068, 0.0186331049, -0.0175269283, 0.0166329928, -0.0015544123, -0.0535198972, 0.0374329984, 0.0439537987, -0.0046469113, -0.0006061245, 0.0273805186, -0.0511521325, -0.0413718931, 0.0044130660, 0.0033892670, -0.0666545630, -0.0084537696, 0.0123682097, 0.0168899056, 0.0482938401, -0.0336982831, -0.0056266361, 0.0325245187, -0.0363653712, 0.0160600785, 0.0299525186, -0.0309703387, -0.0046002497, -0.0021551496, 0.0134902690, 0.0186796244, -0.0314918309, -0.0364364907, 0.0370173417, 0.0558145940, 0.0537020937, 0.0516596437, -0.0395055115, 0.0201839898, 0.0242626034, -0.0125009045, -0.0016452685, 0.0025328170, 0.0374942087, -0.0522521585, 0.0339399017, -0.0381886140, 0.0082380092, 0.0266216043, 0.0220751893, 0.0284245331, -0.0560006239, -0.0073465393, -0.0382947251, -0.0373469144, -0.0106765879, -0.0508868545, -0.0590467453, 0.0391262285, 0.0243282355, -0.0172224790, 0.0367470868, 0.0457790084, -0.0178079028, -0.0535516068, 0.0186331049, -0.0175269283, 0.0166329928, -0.0015544123, -0.0535198972, 0.0374329984, 0.0439537987, -0.0046469113, -0.0006061245, 0.0273805186, -0.0511521325, -0.0413718931, 0.0044130660, 0.0033892670, -0.0666545630, -0.0084537696, 0.0123682097, 0.0168899056, 0.0482938401, -0.0336982831, -0.0056266361, 0.0325245187, -0.0363653712, 0.0160600785, 0.0299525186, -0.0309703387, -0.0046002497, -0.0021551496, 0.0134902690, 0.0186796244, -0.0314918309, -0.0364364907, 0.0370173417, 0.0558145940, 0.0537020937, 0.0516596437, -0.0395055115, 0.0201839898, 0.0242626034, -0.0125009045, -0.0016452685, 0.0025328170, 0.0374942087, -0.0522521585, 0.0339399017, -0.0381886140, 0.0082380092, 0.0266216043, 0.0220751893, 0.0284245331, -0.0560006239, -0.0073465393, -0.0382947251, -0.0373469144, -0.0106765879, -0.0508868545, -0.0590467453, 0.0391262285, 0.0243282355, -0.0172224790, 0.0367470868, 0.0457790084, -0.0178079028, -0.0535516068, 0.0186331049, -0.0175269283, 0.0166329928, -0.0015544123, -0.0535198972, 0.0374329984, 0.0439537987, -0.0046469113, -0.0006061245, 0.0273805186, -0.0511521325, -0.0413718931, 0.0044130660, 0.0033892670, -0.0666545630, -0.0084537696, 0.0123682097, 0.0168899056, 0.0482938401, -0.0336982831, -0.0056266361, 0.0325245187, -0.0363653712, 0.0160600785, 0.0299525186, -0.0309703387, -0.0046002497, -0.0021551496, 0.0134902690, 0.0186796244, -0.0314918309, -0.0364364907, 0.0370173417, 0.0558145940, 0.0537020937, 0.0516596437, -0.0395055115, 0.0201839898, 0.0242626034, -0.0125009045, -0.0016452685, 0.0025328170, 0.0374942087, -0.0522521585, 0.0339399017, -0.0381886140, 0.0082380092, 0.0266216043, 0.0220751893, 0.0284245331, -0.0560006239, -0.0073465393, -0.0382947251, -0.0373469144, -0.0106765879, -0.0508868545, -0.0590467453, 0.0391262285, 0.0243282355, -0.0172224790, 0.0367470868, 0.0457790084, -0.0178079028, -0.0535516068, 0.0186331049, -0.0175269283, 0.0166329928, -0.0015544123, -0.0535198972, 0.0374329984, 0.0439537987, -0.0046469113, -0.0006061245, 0.0273805186, -0.0511521325, -0.0413718931, 0.0044130660, 0.0033892670, -0.0666545630, -0.0084537696, 0.0123682097, 0.0168899056, 0.0482938401, -0.0336982831, -0.0056266361, 0.0325245187, -0.0363653712, 0.0160600785, 0.0299525186, -0.0309703387, -0.0046002497, -0.0021551496, 0.0134902690, 0.0186796244, -0.0314918309, -0.0364364907, 0.0370173417, 0.0558145940, 0.0537020937, 0.0516596437, -0.0395055115, 0.0201839898, 0.0242626034, -0.0125009045, -0.0016452685, 0.0025328170, 0.0374942087, -0.0522521585, 0.0339399017, -0.0381886140, 0.0082380092, 0.0266216043, 0.0220751893, 0.0284245331, -0.0560006239, -0.0073465393, -0.0382947251, -0.0373469144, -0.0106765879, -0.0508868545, -0.0590467453, 0.0391262285, 0.0243282355, -0.0172224790, 0.0367470868, 0.0457790084, -0.0178079028, -0.0535516068, 0.0186331049, -0.0175269283, 0.0166329928, -0.0015544123, -0.0535198972, 0.0374329984, 0.0439537987, -0.0046469113, -0.0006061245, 0.0273805186, -0.0511521325, -0.0413718931, 0.0044130660, 0.0033892670, -0.0666545630, -0.0084537696, 0.0123682097, 0.0168899056, 0.0482938401, -0.0336982831, -0.0056266361, 0.0325245187, -0.0363653712, 0.0160600785, 0.0299525186, -0.0309703387, -0.0046002497, -0.0021551496, 0.0134902690, 0.0186796244, -0.0314918309, -0.0364364907, 0.0370173417, 0.0558145940, 0.0537020937, 0.0516596437, -0.0395055115, 0.0201839898, 0.0242626034, -0.0125009045, -0.0016452685, 0.0025328170, 0.0374942087, -0.0522521585, 0.0339399017, -0.0381886140, 0.0082380092, 0.0266216043, 0.0220751893, 0.0284245331, -0.0560006239, -0.0073465393, -0.0382947251, -0.0373469144, -0.0106765879, -0.0508868545, -0.0590467453, 0.0391262285, 0.0243282355, -0.0172224790, 0.0367470868, 0.0457790084, -0.0178079028, -0.0535516068, 0.0186331049, -0.0175269283, 0.0166329928, -0.0015544123, -0.0535198972, 0.0374329984, 0.0439537987, -0.0046469113, -0.0006061245, 0.0273805186, -0.0511521325, -0.0413718931, 0.0044130660, 0.0033892670, -0.0666545630, -0.0084537696, 0.0123682097, 0.0168899056, 0.0482938401, -0.0336982831, -0.0056266361, 0.0325245187, -0.0363653712, 0.0160600785, 0.0299525186, -0.0309703387, -0.0046002497, -0.0021551496, 0.0134902690, 0.0186796244, -0.0314918309, -0.0364364907, 0.0370173417, 0.0558145940, 0.0537020937, 0.0516596437, -0.0395055115, 0.0201839898, 0.0242626034, -0.0125009045, -0.0016452685, 0.0025328170, 0.0374942087, -0.0522521585, 0.0339399017, -0.0381886140, 0.0082380092, 0.0266216043, 0.0220751893, 0.0284245331, -0.0560006239, -0.0073465393, -0.0382947251, -0.0373469144, -0.0106765879, -0.0508868545, -0.0590467453, 0.0391262285, 0.0243282355, -0.0172224790, 0.0367470868, 0.0457790084, -0.0178079028, -0.0535516068, 0.0186331049, -0.0175269283, 0.0166329928, -0.0015544123, -0.0535198972, 0.0374329984, 0.0439537987, -0.0046469113, -0.0006061245, 0.0273805186, -0.0511521325, -0.0413718931, 0.0044130660, 0.0033892670, -0.0666545630, -0.0084537696, 0.0123682097, 0.0168899056, 0.0482938401, -0.0336982831, -0.0056266361, 0.0325245187, -0.0363653712, 0.0160600785, 0.0299525186, -0.0309703387, -0.0046002497, -0.0021551496, 0.0134902690, 0.0186796244, -0.0314918309, -0.0364364907, 0.0370173417, 0.0558145940, 0.0537020937, 0.0516596437, -0.0395055115, 0.0201839898, 0.0242626034, -0.0125009045, -0.0016452685, 0.0025328170, 0.0374942087, -0.0522521585, 0.0339399017, -0.0381886140, 0.0082380092, 0.0266216043, 0.0220751893, 0.0284245331, -0.0560006239, -0.0073465393, -0.0382947251, -0.0373469144, -0.0106765879, -0.0508868545, -0.0590467453, 0.0391262285, 0.0243282355, -0.0172224790, 0.0367470868, 0.0457790084, -0.0178079028, -0.0535516068, 0.0186331049, -0.0175269283, 0.0166329928, -0.0015544123, -0.0535198972, 0.0374329984, 0.0439537987, -0.0046469113, -0.0006061245, 0.0273805186, -0.0511521325, -0.0413718931, 0.0044130660, 0.0033892670, -0.0666545630, -0.0084537696, 0.0123682097, 0.0168899056, 0.0482938401, -0.0336982831, -0.0056266361, 0.0325245187, -0.0363653712, 0.0160600785, 0.0299525186, -0.0309703387, -0.0046002497, -0.0021551496, 0.0134902690, 0.0186796244, -0.0314918309, -0.0364364907, 0.0370173417, 0.0558145940, 0.0537020937, 0.0516596437, -0.0395055115, 0.0201839898, 0.0242626034, -0.0125009045, -0.0016452685, 0.0025328170, 0.0374942087, -0.0522521585, 0.0339399017, -0.0381886140, 0.0082380092, 0.0266216043, 0.0220751893, 0.0284245331, -0.0560006239, -0.0073465393, -0.0382947251, -0.0373469144, -0.0106765879, -0.0508868545, -0.0590467453, 0.0391262285, 0.0243282355, -0.0172224790, 0.0367470868, 0.0457790084, -0.0178079028, -0.0535516068, 0.0186331049, -0.0175269283, 0.0166329928, -0.0015544123, -0.0535198972, 0.0374329984, 0.0439537987, -0.0046469113, -0.0006061245, 0.0273805186, -0.0511521325, -0.0413718931, 0.0044130660, 0.0033892670, -0.0666545630, -0.0084537696, 0.0123682097, 0.0168899056, 0.0482938401, -0.0336982831, -0.0056266361, 0.0325245187, -0.0363653712, 0.0160600785, 0.0299525186, -0.0309703387, -0.0046002497, -0.0021551496, 0.0134902690, 0.0186796244, -0.0314918309, -0.0364364907, 0.0370173417, 0.0558145940, 0.0537020937, 0.0516596437, -0.0395055115, 0.0201839898, 0.0242626034, -0.0125009045, -0.0016452685, 0.0025328170, 0.0374942087, -0.0522521585, 0.0339399017, -0.0381886140, 0.0082380092, 0.0266216043, 0.0220751893, 0.0284245331, -0.0560006239, -0.0073465393, -0.0382947251, -0.0373469144, -0.0106765879, -0.0508868545, -0.0590467453, 0.0391262285, 0.0243282355, -0.0172224790, 0.0367470868, 0.0457790084, -0.0178079028, -0.0535516068, 0.0186331049, -0.0175269283, 0.0166329928, -0.0015544123, -0.0535198972, 0.0374329984, 0.0439537987, -0.0046469113, -0.0006061245, 0.0273805186, -0.0511521325, -0.0413718931, 0.0044130660, 0.0033892670, -0.0666545630, -0.0084537696, 0.0123682097, 0.0168899056, 0.0482938401, -0.0336982831, -0.0056266361, 0.0325245187, -0.0363653712, 0.0160600785, 0.0299525186, -0.0309703387, -0.0046002497, -0.0021551496, 0.0134902690, 0.0186796244, -0.0314918309, -0.0364364907, 0.0370173417, 0.0558145940, 0.0537020937, 0.0516596437, -0.0395055115, 0.0201839898, 0.0242626034, -0.0125009045, -0.0016452685, 0.0025328170, 0.0374942087, -0.0522521585, 0.0339399017, -0.0381886140, 0.0082380092, 0.0266216043, 0.0220751893, 0.0284245331, -0.0560006239, -0.0073465393, -0.0382947251, -0.0373469144, -0.0106765879, -0.0508868545, -0.0590467453, 0.0391262285, 0.0243282355, -0.0172224790, 0.0367470868, 0.0457790084, -0.0178079028, -0.0535516068, 0.0186331049, -0.0175269283, 0.0166329928, -0.0015544123, -0.0535198972, 0.0374329984, 0.0439537987, -0.0046469113, -0.0006061245, 0.0273805186, -0.0511521325, -0.0413718931, 0.0044130660, 0.0033892670, -0.0666545630, -0.0084537696, 0.0123682097, 0.0168899056, 0.0482938401, -0.0336982831, -0.0056266361, 0.0325245187, -0.0363653712, 0.0160600785, 0.0299525186, -0.0309703387, -0.0046002497, -0.0021551496, 0.0134902690, 0.0186796244, -0.0314918309, -0.0364364907, 0.0370173417, 0.0558145940, 0.0537020937, 0.0516596437, -0.0395055115, 0.0201839898, 0.0242626034, -0.0125009045, -0.0016452685, 0.0025328170, 0.0374942087, -0.0522521585, 0.0339399017, -0.0381886140, 0.0082380092, 0.0266216043, 0.0220751893, 0.0284245331, -0.0560006239, -0.0073465393, -0.0382947251, -0.0373469144, -0.0106765879, -0.0508868545, -0.0590467453, 0.0391262285, 0.0243282355, -0.0172224790, 0.0367470868, 0.0457790084, -0.0178079028, -0.0535516068, 0.0186331049, -0.0175269283, 0.0166329928, -0.0015544123, -0.0535198972, 0.0374329984, 0.0439537987, -0.0046469113, -0.0006061245, 0.0273805186, -0.0511521325, -0.0413718931, 0.0044130660, 0.0033892670, -0.0666545630, -0.0084537696, 0.0123682097, 0.0168899056, 0.0482938401, -0.0336982831, -0.0056266361, 0.0325245187, -0.0363653712, 0.0160600785, 0.0299525186, -0.0309703387, -0.0046002497, -0.0021551496, 0.0134902690, 0.0186796244, -0.0314918309, -0.0364364907, 0.0370173417, 0.0558145940, 0.0537020937, 0.0516596437, -0.0395055115, 0.0201839898, 0.0242626034, -0.0125009045, -0.0016452685, 0.0025328170, 0.0374942087, -0.0522521585, 0.0339399017, -0.0381886140, 0.0082380092, 0.0266216043, 0.0220751893, 0.0284245331, -0.0560006239, -0.0073465393, -0.0382947251, -0.0373469144, -0.0106765879, -0.0508868545, -0.0590467453, 0.0391262285, 0.0243282355, -0.0172224790, 0.0367470868, 0.0457790084, -0.0178079028, -0.0535516068, 0.0186331049, -0.0175269283, 0.0166329928, -0.0015544123, -0.0535198972, 0.0374329984, 0.0439537987, -0.0046469113, -0.0006061245, 0.0273805186, -0.0511521325, -0.0413718931, 0.0044130660, 0.0033892670, -0.0666545630, -0.0084537696, 0.0123682097, 0.0168899056, 0.0482938401, -0.0336982831, -0.0056266361, 0.0325245187, -0.0363653712, 0.0160600785, 0.0299525186, -0.0309703387, -0.0046002497, -0.0021551496, 0.0134902690, 0.0186796244, -0.0314918309, -0.0364364907, 0.0370173417, 0.0558145940, 0.0537020937, 0.0516596437, -0.0395055115, 0.0201839898, 0.0242626034, -0.0125009045, -0.0016452685, 0.0025328170, 0.0374942087, -0.0522521585, 0.0339399017, -0.0381886140, 0.0082380092, 0.0266216043, 0.0220751893, 0.0284245331, -0.0560006239, -0.0073465393, -0.0382947251, -0.0373469144, -0.0106765879, -0.0508868545, -0.0590467453, 0.0391262285, 0.0243282355, -0.0172224790, 0.0367470868, 0.0457790084, -0.0178079028, -0.0535516068, 0.0186331049, -0.0175269283, 0.0166329928, -0.0015544123, -0.0535198972, 0.0374329984, 0.0439537987, -0.0046469113, -0.0006061245, 0.0273805186, -0.0511521325, -0.0413718931, 0.0044130660, 0.0033892670, -0.0666545630, -0.0084537696, 0.0123682097, 0.0168899056, 0.0482938401, -0.0336982831, -0.0056266361, 0.0325245187, -0.0363653712, 0.0160600785, 0.0299525186, -0.0309703387, -0.0046002497, -0.0021551496, 0.0134902690, 0.0186796244, -0.0314918309, -0.0364364907, 0.0370173417, 0.0558145940, 0.0537020937, 0.0516596437, -0.0395055115, 0.0201839898, 0.0242626034, -0.0125009045, -0.0016452685, 0.0025328170, 0.0374942087, -0.0522521585, 0.0339399017, -0.0381886140, 0.0082380092, 0.0266216043, 0.0220751893, 0.0284245331, -0.0560006239, -0.0073465393, -0.0382947251, -0.0373469144, -0.0106765879, -0.0508868545, -0.0590467453, 0.0391262285, 0.0243282355, -0.0172224790, 0.0367470868, 0.0457790084, -0.0178079028, -0.0535516068, 0.0186331049, -0.0175269283, 0.0166329928, -0.0015544123, -0.0535198972, 0.0374329984, 0.0439537987, -0.0046469113, -0.0006061245, 0.0273805186, -0.0511521325, -0.0413718931, 0.0044130660, 0.0033892670, -0.0666545630, -0.0084537696, 0.0123682097, 0.0168899056, 0.0482938401, -0.0336982831, -0.0056266361, 0.0325245187, -0.0363653712, 0.0160600785, 0.0299525186, -0.0309703387, -0.0046002497, -0.0021551496, 0.0134902690, 0.0186796244, -0.0314918309, -0.0364364907, 0.0370173417, 0.0558145940, 0.0537020937, 0.0516596437, -0.0395055115, 0.0201839898, 0.0242626034, -0.0125009045, -0.0016452685, 0.0025328170, 0.0374942087, -0.0522521585, 0.0339399017, -0.0381886140, 0.0082380092, 0.0266216043, 0.0220751893, 0.0284245331, -0.0560006239, -0.0073465393, -0.0382947251, -0.0373469144, -0.0106765879, -0.0508868545, -0.0590467453, 0.0391262285, 0.0243282355, -0.0172224790, 0.0367470868, 0.0457790084, -0.0178079028, -0.0535516068, 0.0186331049, -0.0175269283, 0.0166329928, -0.0015544123, -0.0535198972, 0.0374329984, 0.0439537987, -0.0046469113, -0.0006061245, 0.0273805186, -0.0511521325, -0.0413718931, 0.0044130660, 0.0033892670, -0.0666545630, -0.0084537696, 0.0123682097, 0.0168899056, 0.0482938401, -0.0336982831, -0.0056266361, 0.0325245187, -0.0363653712, 0.0160600785, 0.0299525186, -0.0309703387, -0.0046002497, -0.0021551496, 0.0134902690, 0.0186796244, -0.0314918309, -0.0364364907, 0.0370173417, 0.0558145940, 0.0537020937, 0.0516596437, -0.0395055115, 0.0201839898, 0.0242626034, -0.0125009045, -0.0016452685, 0.0025328170, 0.0374942087, -0.0522521585, 0.0339399017, -0.0381886140, 0.0082380092, 0.0266216043, 0.0220751893, 0.0284245331, -0.0560006239, -0.0073465393, -0.0382947251, -0.0373469144, -0.0106765879, -0.0508868545, -0.0590467453, 0.0391262285, 0.0243282355, -0.0172224790, 0.0367470868, 0.0457790084, -0.0178079028, -0.0535516068, 0.0186331049, -0.0175269283, 0.0166329928, -0.0015544123, -0.0535198972, 0.0374329984, 0.0439537987, -0.0046469113, -0.0006061245, 0.0273805186, -0.0511521325, -0.0413718931, 0.0044130660, 0.0033892670, -0.0666545630, -0.0084537696, 0.0123682097, 0.0168899056, 0.0482938401, -0.0336982831, -0.0056266361, 0.0325245187, -0.0363653712, 0.0160600785, 0.0299525186, -0.0309703387, -0.0046002497, -0.0021551496, 0.0134902690, 0.0186796244, -0.0314918309, -0.0364364907, 0.0370173417, 0.0558145940, 0.0537020937, 0.0516596437, -0.0395055115, 0.0201839898, 0.0242626034, -0.0125009045, -0.0016452685, 0.0025328170, 0.0374942087, -0.0522521585, 0.0339399017, -0.0381886140, 0.0082380092, 0.0266216043, 0.0220751893, 0.0284245331, -0.0560006239, -0.0073465393, -0.0382947251, -0.0373469144, -0.0106765879, -0.0508868545, -0.0590467453, 0.0391262285, 0.0243282355, -0.0172224790, 0.0367470868, 0.0457790084, -0.0178079028, -0.0535516068, 0.0186331049, -0.0175269283, 0.0166329928, -0.0015544123, -0.0535198972, 0.0374329984, 0.0439537987, -0.0046469113, -0.0006061245, 0.0273805186, -0.0511521325, -0.0413718931, 0.0044130660, 0.0033892670, -0.0666545630, -0.0084537696, 0.0123682097, 0.0168899056, 0.0482938401, -0.0336982831, -0.0056266361, 0.0325245187, -0.0363653712, 0.0160600785, 0.0299525186, -0.0309703387, -0.0046002497, -0.0021551496, 0.0134902690, 0.0186796244, -0.0314918309, -0.0364364907, 0.0370173417, 0.0558145940, 0.0537020937, 0.0516596437, -0.0395055115, 0.0201839898, 0.0242626034, -0.0125009045, -0.0016452685, 0.0025328170, 0.0374942087, -0.0522521585, 0.0339399017, -0.0381886140, 0.0082380092, 0.0266216043, 0.0220751893, 0.0284245331, -0.0560006239, -0.0073465393, -0.0382947251, -0.0373469144, -0.0106765879, -0.0508868545, -0.0590467453, 0.0391262285, 0.0243282355, -0.0172224790, 0.0367470868, 0.0457790084, -0.0178079028, -0.0535516068, 0.0186331049, -0.0175269283, 0.0166329928, -0.0015544123, -0.0535198972, 0.0374329984, 0.0439537987, -0.0046469113, -0.0006061245, 0.0273805186, -0.0511521325, -0.0413718931, 0.0044130660, 0.0033892670, -0.0666545630, -0.0084537696, 0.0123682097, 0.0168899056, 0.0482938401, -0.0336982831, -0.0056266361, 0.0325245187, -0.0363653712, 0.0160600785, 0.0299525186, -0.0309703387, -0.0046002497, -0.0021551496, 0.0134902690, 0.0186796244, -0.0314918309, -0.0364364907, 0.0370173417, 0.0558145940, 0.0537020937, 0.0516596437, -0.0395055115, 0.0201839898, 0.0242626034, -0.0125009045, -0.0016452685, 0.0025328170, 0.0374942087, -0.0522521585, 0.0339399017, -0.0381886140, 0.0082380092, 0.0266216043, 0.0220751893, 0.0284245331, -0.0560006239, -0.0073465393, -0.0382947251, -0.0373469144, -0.0106765879, -0.0508868545, -0.0590467453, 0.0391262285, 0.0243282355, -0.0172224790, 0.0367470868, 0.0457790084, -0.0178079028, -0.0535516068, 0.0186331049, -0.0175269283, 0.0166329928, -0.0015544123, -0.0535198972, 0.0374329984, 0.0439537987, -0.0046469113, -0.0006061245, 0.0273805186, -0.0511521325, -0.0413718931, 0.0044130660, 0.0033892670, -0.0666545630, -0.0084537696, 0.0123682097, 0.0168899056, 0.0482938401, -0.0336982831, -0.0056266361, 0.0325245187, -0.0363653712, 0.0160600785, 0.0299525186, -0.0309703387, -0.0046002497, -0.0021551496, 0.0134902690, 0.0186796244, -0.0314918309, -0.0364364907, 0.0370173417, 0.0558145940, 0.0537020937, 0.0516596437, -0.0395055115, 0.0201839898, 0.0242626034, -0.0125009045, -0.0016452685, 0.0025328170, 0.0374942087, -0.0522521585, 0.0339399017, -0.0381886140, 0.0082380092, 0.0266216043, 0.0220751893, 0.0284245331, -0.0560006239, -0.0073465393, -0.0382947251, -0.0373469144, -0.0106765879, -0.0508868545, -0.0590467453, 0.0391262285, 0.0243282355, -0.0172224790, 0.0367470868, 0.0457790084, -0.0178079028, -0.0535516068, 0.0186331049, -0.0175269283, 0.0166329928, -0.0015544123, -0.0535198972, 0.0374329984, 0.0439537987, -0.0046469113, -0.0006061245, 0.0273805186, -0.0511521325, -0.0413718931, 0.0044130660, 0.0033892670, -0.0666545630, -0.0084537696, 0.0123682097, 0.0168899056, 0.0482938401, -0.0336982831, -0.0056266361, 0.0325245187, -0.0363653712, 0.0160600785, 0.0299525186, -0.0309703387, -0.0046002497, -0.0021551496, 0.0134902690, 0.0186796244, -0.0314918309, -0.0364364907, 0.0370173417, 0.0558145940, 0.0537020937, 0.0516596437, -0.0395055115, 0.0201839898, 0.0242626034, -0.0125009045, -0.0016452685, 0.0025328170, 0.0374942087, -0.0522521585, 0.0339399017, -0.0381886140, 0.0082380092, 0.0266216043, 0.0220751893, 0.0284245331, -0.0560006239, -0.0073465393, -0.0382947251, -0.0373469144, -0.0106765879, -0.0508868545, -0.0590467453, 0.0391262285, 0.0243282355, -0.0172224790, 0.0367470868, 0.0457790084, -0.0178079028, -0.0535516068, 0.0186331049, -0.0175269283, 0.0166329928, -0.0015544123, -0.0535198972, 0.0374329984, 0.0439537987, -0.0046469113, -0.0006061245, 0.0273805186, -0.0511521325, -0.0413718931, 0.0044130660, 0.0033892670, -0.0666545630, -0.0084537696, 0.0123682097, 0.0168899056, 0.0482938401, -0.0336982831, -0.0056266361, 0.0325245187, -0.0363653712, 0.0160600785, 0.0299525186, -0.0309703387, -0.0046002497, -0.0021551496, 0.0134902690, 0.0186796244, -0.0314918309, -0.0364364907, 0.0370173417, 0.0558145940, 0.0537020937, 0.0516596437, -0.0395055115, 0.0201839898, 0.0242626034, -0.0125009045, -0.0016452685, 0.0025328170, 0.0374942087, -0.0522521585, 0.0339399017, -0.0381886140, 0.0082380092, 0.0266216043, 0.0220751893, 0.0284245331, -0.0560006239, -0.0073465393, -0.0382947251, -0.0373469144, -0.0106765879, -0.0508868545, -0.0590467453, 0.0391262285, 0.0243282355, -0.0172224790, 0.0367470868, 0.0457790084, -0.0178079028, -0.0535516068, 0.0186331049, -0.0175269283, 0.0166329928, -0.0015544123, -0.0535198972, 0.0374329984, 0.0439537987, -0.0046469113, -0.0006061245, 0.0273805186, -0.0511521325, -0.0413718931, 0.0044130660, 0.0033892670, -0.0666545630, -0.0084537696, 0.0123682097, 0.0168899056, 0.0482938401, -0.0336982831, -0.0056266361, 0.0325245187, -0.0363653712, 0.0160600785, 0.0299525186, -0.0309703387, -0.0046002497, -0.0021551496, 0.0134902690, 0.0186796244, -0.0314918309, -0.0364364907, 0.0370173417, 0.0558145940, 0.0537020937, 0.0516596437, -0.0395055115, 0.0201839898, 0.0242626034, -0.0125009045, -0.0016452685, 0.0025328170, 0.0374942087, -0.0522521585, 0.0339399017, -0.0381886140, 0.0082380092, 0.0266216043, 0.0220751893, 0.0284245331, -0.0560006239, -0.0073465393, -0.0382947251, -0.0373469144, -0.0106765879, -0.0508868545, -0.0590467453, 0.0391262285, 0.0243282355, -0.0172224790, 0.0367470868, 0.0457790084, -0.0178079028, -0.0535516068, 0.0186331049, -0.0175269283, 0.0166329928, -0.0015544123, -0.0535198972, 0.0374329984, 0.0439537987, -0.0046469113, -0.0006061245, 0.0273805186, -0.0511521325, -0.0413718931, 0.0044130660, 0.0033892670, -0.0666545630, -0.0084537696, 0.0123682097, 0.0168899056, 0.0482938401, -0.0336982831, -0.0056266361, 0.0325245187, -0.0363653712, 0.0160600785, 0.0299525186, -0.0309703387, -0.0046002497, -0.0021551496, 0.0134902690, 0.0186796244, -0.0314918309, -0.0364364907, 0.0370173417, 0.0558145940, 0.0537020937, 0.0516596437, -0.0395055115, 0.0201839898, 0.0242626034, -0.0125009045, -0.0016452685, 0.0025328170, 0.0374942087, -0.0522521585, 0.0339399017, -0.0381886140, 0.0082380092, 0.0266216043, 0.0220751893, 0.0284245331, -0.0560006239, -0.0073465393, -0.0382947251, -0.0373469144, -0.0106765879, -0.0508868545, -0.0590467453, 0.0391262285, 0.0243282355, -0.0172224790, 0.0367470868, 0.0457790084, -0.0178079028, -0.0535516068, 0.0186331049, -0.0175269283, 0.0166329928, -0.0015544123, -0.0535198972, 0.0374329984, 0.0439537987, -0.0046469113, -0.0006061245, 0.0273805186, -0.0511521325, -0.0413718931, 0.0044130660, 0.0033892670, -0.0666545630, -0.0084537696, 0.0123682097, 0.0168899056, 0.0482938401, -0.0336982831, -0.0056266361, 0.0325245187, -0.0363653712, 0.0160600785, 0.0299525186, -0.0309703387, -0.0046002497, -0.0021551496, 0.0134902690, 0.0186796244, -0.0314918309, -0.0364364907, 0.0370173417, 0.0558145940, 0.0537020937, 0.0516596437, -0.0395055115, 0.0201839898, 0.0242626034, -0.0125009045, -0.0016452685, 0.0025328170, 0.0374942087, -0.0522521585, 0.0339399017, -0.0381886140, 0.0082380092, 0.0266216043, 0.0220751893, 0.0284245331, -0.0560006239, -0.0073465393, -0.0382947251, -0.0373469144, -0.0106765879, -0.0508868545, -0.0590467453, 0.0391262285, 0.0243282355, -0.0172224790, 0.0367470868, 0.0457790084, -0.0178079028, -0.0535516068, 0.0186331049, -0.0175269283, 0.0166329928, -0.0015544123, -0.0535198972, 0.0374329984, 0.0439537987, -0.0046469113, -0.0006061245, 0.0273805186, -0.0511521325, -0.0413718931, 0.0044130660, 0.0033892670, -0.0666545630, -0.0084537696, 0.0123682097, 0.0168899056, 0.0482938401, -0.0336982831, -0.0056266361, 0.0325245187, -0.0363653712, 0.0160600785, 0.0299525186, -0.0309703387, -0.0046002497, -0.0021551496, 0.0134902690, 0.0186796244, -0.0314918309, -0.0364364907, 0.0370173417, 0.0558145940, 0.0537020937, 0.0516596437, -0.0395055115, 0.0201839898, 0.0242626034, -0.0125009045, -0.0016452685, 0.0025328170, 0.0374942087, -0.0522521585, 0.0339399017, -0.0381886140, 0.0082380092, 0.0266216043, 0.0220751893, 0.0284245331, -0.0560006239, -0.0073465393, -0.0382947251, -0.0373469144, -0.0106765879, -0.0508868545, -0.0590467453, 0.0391262285, 0.0243282355, -0.0172224790, 0.0367470868, 0.0457790084, -0.0178079028, -0.0535516068, 0.0186331049, -0.0175269283, 0.0166329928, -0.0015544123, -0.0535198972, 0.0374329984, 0.0439537987, -0.0046469113, -0.0006061245, 0.0273805186, -0.0511521325, -0.0413718931, 0.0044130660, 0.0033892670, -0.0666545630, -0.0084537696, 0.0123682097, 0.0168899056, 0.0482938401, -0.0336982831, -0.0056266361, 0.0325245187, -0.0363653712, 0.0160600785, 0.0299525186, -0.0309703387, -0.0046002497, -0.0021551496, 0.0134902690, 0.0186796244, -0.0314918309, -0.0364364907, 0.0370173417, 0.0558145940, 0.0537020937, 0.0516596437, -0.0395055115, 0.0201839898, 0.0242626034, -0.0125009045, -0.0016452685, 0.0025328170, 0.0374942087, -0.0522521585, 0.0339399017, -0.0381886140, 0.0082380092, 0.0266216043, 0.0220751893, 0.0284245331, -0.0560006239, -0.0073465393, -0.0382947251, -0.0373469144, -0.0106765879, -0.0508868545, -0.0590467453, 0.0391262285, 0.0243282355, -0.0172224790, 0.0367470868, 0.0457790084, -0.0178079028, -0.0535516068, 0.0186331049, -0.0175269283, 0.0166329928, -0.0015544123, -0.0535198972, 0.0374329984, 0.0439537987, -0.0046469113, -0.0006061245, 0.0273805186, -0.0511521325, -0.0413718931, 0.0044130660, 0.0033892670, -0.0666545630, -0.0084537696, 0.0123682097, 0.0168899056, 0.0482938401, -0.0336982831, -0.0056266361, 0.0325245187, -0.0363653712, 0.0160600785, 0.0299525186, -0.0309703387, -0.0046002497, -0.0021551496, 0.0134902690, 0.0186796244, -0.0314918309, -0.0364364907, 0.0370173417, 0.0558145940, 0.0537020937, 0.0516596437, -0.0395055115, 0.0201839898, 0.0242626034, -0.0125009045, -0.0016452685, 0.0025328170, 0.0374942087, -0.0522521585, 0.0339399017, -0.0381886140, 0.0082380092, 0.0266216043, 0.0220751893, 0.0284245331, -0.0560006239, -0.0073465393, -0.0382947251, -0.0373469144, -0.0106765879, -0.0508868545, -0.0590467453, 0.0391262285, 0.0243282355, -0.0172224790, 0.0367470868, 0.0457790084, -0.0178079028, -0.0535516068, 0.0186331049, -0.0175269283, 0.0166329928, -0.0015544123, -0.0535198972, 0.0374329984, 0.0439537987, -0.0046469113, -0.0006061245, 0.0273805186, -0.0511521325, -0.0413718931, 0.0044130660, 0.0033892670, -0.0666545630, -0.0084537696, 0.0123682097, 0.0168899056, 0.0482938401, -0.0336982831, -0.0056266361, 0.0325245187, -0.0363653712, 0.0160600785, 0.0299525186, -0.0309703387, -0.0046002497, -0.0021551496, 0.0134902690, 0.0186796244, -0.0314918309, -0.0364364907, 0.0370173417, 0.0558145940, 0.0537020937, 0.0516596437, -0.0395055115, 0.0201839898, 0.0242626034, -0.0125009045, -0.0016452685, 0.0025328170, 0.0374942087, -0.0522521585, 0.0339399017, -0.0381886140, 0.0082380092, 0.0266216043, 0.0220751893, 0.0284245331, -0.0560006239, -0.0073465393, -0.0382947251, -0.0373469144, -0.0106765879, -0.0508868545, -0.0590467453, 0.0391262285, 0.0243282355, -0.0172224790, 0.0367470868, 0.0457790084, -0.0178079028, -0.0535516068, 0.0186331049, -0.0175269283, 0.0166329928, -0.0015544123, -0.0535198972, 0.0374329984, 0.0439537987, -0.0046469113, -0.0006061245, 0.0273805186, -0.0511521325, -0.0413718931, 0.0044130660, 0.0033892670, -0.0666545630, -0.0084537696, 0.0123682097, 0.0168899056, 0.0482938401, -0.0336982831, -0.0056266361, 0.0325245187, -0.0363653712, 0.0160600785, 0.0299525186, -0.0309703387, -0.0046002497, -0.0021551496, 0.0134902690, 0.0186796244, -0.0314918309, -0.0364364907, 0.0370173417, 0.0558145940, 0.0537020937, 0.0516596437, -0.0395055115, 0.0201839898, 0.0242626034, -0.0125009045, -0.0016452685, 0.0025328170, 0.0374942087, -0.0522521585, 0.0339399017, -0.0381886140, 0.0082380092, 0.0266216043, 0.0220751893, 0.0284245331, -0.0560006239, -0.0073465393, -0.0382947251, -0.0373469144, -0.0106765879, -0.0508868545, -0.0590467453, 0.0391262285, 0.0243282355, -0.0172224790, 0.0367470868, 0.0457790084, -0.0178079028, -0.0535516068, 0.0186331049, -0.0175269283, 0.0166329928, -0.0015544123, -0.0535198972, 0.0374329984, 0.0439537987, -0.0046469113, -0.0006061245, 0.0273805186, -0.0511521325, -0.0413718931, 0.0044130660, 0.0033892670, -0.0666545630, -0.0084537696, 0.0123682097, 0.0168899056, 0.0482938401, -0.0336982831, -0.0056266361, 0.0325245187, -0.0363653712, 0.0160600785, 0.0299525186, -0.0309703387, -0.0046002497, -0.0021551496, 0.0134902690, 0.0186796244, -0.0314918309, -0.0364364907, 0.0370173417, 0.0558145940, 0.0537020937, 0.0516596437, -0.0395055115, 0.0201839898, 0.0242626034, -0.0125009045, -0.0016452685, 0.0025328170, 0.0374942087, -0.0522521585, 0.0339399017, -0.0381886140, 0.0082380092, 0.0266216043, 0.0220751893, 0.0284245331, -0.0560006239, -0.0073465393, -0.0382947251, -0.0373469144, -0.0106765879, -0.0508868545, -0.0590467453, 0.0391262285, 0.0243282355, -0.0172224790, 0.0367470868, 0.0457790084, -0.0178079028, -0.0535516068, 0.0186331049, -0.0175269283, 0.0166329928, -0.0015544123, -0.0535198972, 0.0374329984, 0.0439537987, -0.0046469113, -0.0006061245, 0.0273805186, -0.0511521325, -0.0413718931, 0.0044130660, 0.0033892670, -0.0666545630, -0.0084537696, 0.0123682097, 0.0168899056, 0.0482938401, -0.0336982831, -0.0056266361, 0.0325245187, -0.0363653712, 0.0160600785, 0.0299525186, -0.0309703387, -0.0046002497, -0.0021551496, 0.0134902690, 0.0186796244, -0.0314918309, -0.0364364907, 0.0370173417, 0.0558145940, 0.0537020937, 0.0516596437, -0.0395055115, 0.0201839898, 0.0242626034, -0.0125009045, -0.0016452685, 0.0025328170, 0.0374942087, -0.0522521585, 0.0339399017, -0.0381886140, 0.0082380092, 0.0266216043, 0.0220751893, 0.0284245331, -0.0560006239, -0.0073465393, -0.0382947251, -0.0373469144, -0.0106765879, -0.0508868545, -0.0590467453, 0.0391262285, 0.0243282355, -0.0172224790, 0.0367470868, 0.0457790084, -0.0178079028, -0.0535516068, 0.0186331049, -0.0175269283, 0.0166329928, -0.0015544123, -0.0535198972, 0.0374329984, 0.0439537987, -0.0046469113, -0.0006061245, 0.0273805186, -0.0511521325, -0.0413718931, 0.0044130660, 0.0033892670, -0.0666545630, -0.0084537696, 0.0123682097, 0.0168899056, 0.0482938401, -0.0336982831, -0.0056266361, 0.0325245187, -0.0363653712, 0.0160600785, 0.0299525186, -0.0309703387, -0.0046002497, -0.0021551496, 0.0134902690, 0.0186796244, -0.0314918309, -0.0364364907, 0.0370173417, 0.0558145940, 0.0537020937, 0.0516596437, -0.0395055115, 0.0201839898, 0.0242626034, -0.0125009045, -0.0016452685, 0.0025328170, 0.0374942087, -0.0522521585, 0.0339399017, -0.0381886140, 0.0082380092, 0.0266216043, 0.0220751893, 0.0284245331, -0.0560006239, -0.0073465393, -0.0382947251, -0.0373469144, -0.0106765879, -0.0508868545, -0.0590467453, 0.0391262285, 0.0243282355, -0.0172224790, 0.0367470868, 0.0457790084, -0.0178079028, -0.0535516068, 0.0186331049, -0.0175269283, 0.0166329928, -0.0015544123, -0.0535198972, 0.0374329984, 0.0439537987, -0.0046469113, -0.0006061245, 0.0273805186, -0.0511521325, -0.0413718931, 0.0044130660, 0.0033892670, -0.0666545630, -0.0084537696, 0.0123682097, 0.0168899056, 0.0482938401, -0.0336982831, -0.0056266361, 0.0325245187, -0.0363653712, 0.0160600785, 0.0299525186, -0.0309703387, -0.0046002497, -0.0021551496, 0.0134902690, 0.0186796244, -0.0314918309, -0.0364364907, 0.0370173417, 0.0558145940, 0.0537020937, 0.0516596437, -0.0395055115, 0.0201839898, 0.0242626034, -0.0125009045, -0.0016452685, 0.0025328170, 0.0374942087, -0.0522521585, 0.0339399017, -0.0381886140, 0.0082380092, 0.0266216043, 0.0220751893, 0.0284245331, -0.0560006239, -0.0073465393, -0.0382947251, -0.0373469144, -0.0106765879, -0.0508868545, -0.0590467453, 0.0391262285, 0.0243282355, -0.0172224790, 0.0367470868, 0.0457790084, -0.0178079028, -0.0535516068, 0.0186331049, -0.0175269283, 0.0166329928, -0.0015544123, -0.0535198972, 0.0374329984, 0.0439537987, -0.0046469113, -0.0006061245, 0.0273805186, -0.0511521325, -0.0413718931, 0.0044130660, 0.0033892670, -0.0666545630, -0.0084537696, 0.0123682097, 0.0168899056, 0.0482938401, -0.0336982831, -0.0056266361, 0.0325245187, -0.0363653712, 0.0160600785, 0.0299525186, -0.0309703387, -0.0046002497, -0.0021551496, 0.0134902690, 0.0186796244, -0.0314918309, -0.0364364907, 0.0370173417, 0.0558145940, 0.0537020937, 0.0516596437, -0.0395055115, 0.0201839898, 0.0242626034, -0.0125009045, -0.0016452685, 0.0025328170, 0.0374942087, -0.0522521585, 0.0339399017, -0.0381886140, 0.0082380092, 0.0266216043, 0.0220751893, 0.0284245331, -0.0560006239, -0.0073465393, -0.0382947251, -0.0373469144, -0.0106765879, -0.0508868545, -0.0590467453, 0.0391262285, 0.0243282355, -0.0172224790, 0.0367470868, 0.0457790084, -0.0178079028, -0.0535516068, 0.0186331049, -0.0175269283, 0.0166329928, -0.0015544123, -0.0535198972, 0.0374329984, 0.0439537987, -0.0046469113, -0.0006061245, 0.0273805186, -0.0511521325, -0.0413718931, 0.0044130660, 0.0033892670, -0.0666545630, -0.0084537696, 0.0123682097, 0.0168899056, 0.0482938401, -0.0336982831, -0.0056266361, 0.0325245187, -0.0363653712, 0.0160600785, 0.0299525186, -0.0309703387, -0.0046002497, -0.0021551496, 0.0134902690, 0.0186796244, -0.0314918309, -0.0364364907, 0.0370173417, 0.0558145940, 0.0537020937, 0.0516596437, -0.0395055115, 0.0201839898, 0.0242626034, -0.0125009045, -0.0016452685, 0.0025328170, 0.0374942087, -0.0522521585, 0.0339399017, -0.0381886140, 0.0082380092, 0.0266216043, 0.0220751893, 0.0284245331, -0.0560006239, -0.0073465393, -0.0382947251, -0.0373469144, -0.0106765879, -0.0508868545, -0.0590467453, 0.0391262285, 0.0243282355, -0.0172224790, 0.0367470868, 0.0457790084, -0.0178079028, -0.0535516068, 0.0186331049, -0.0175269283, 0.0166329928, -0.0015544123, -0.0535198972, 0.0374329984, 0.0439537987, -0.0046469113, -0.0006061245, 0.0273805186, -0.0511521325, -0.0413718931, 0.0044130660, 0.0033892670, -0.0666545630, -0.0084537696, 0.0123682097, 0.0168899056, 0.0482938401, -0.0336982831, -0.0056266361, 0.0325245187, -0.0363653712, 0.0160600785, 0.0299525186, -0.0309703387, -0.0046002497, -0.0021551496, 0.0134902690, 0.0186796244, -0.0314918309, -0.0364364907, 0.0370173417, 0.0558145940, 0.0537020937, 0.0516596437, -0.0395055115, 0.0201839898, 0.0242626034, -0.0125009045, -0.0016452685, 0.0025328170, 0.0374942087, -0.0522521585, 0.0339399017, -0.0381886140, 0.0082380092, 0.0266216043, 0.0220751893, 0.0284245331, -0.0560006239, -0.0073465393, -0.0382947251, -0.0373469144, -0.0106765879, -0.0508868545, -0.0590467453, 0.0391262285, 0.0243282355, -0.0172224790, 0.0367470868, 0.0457790084, -0.0178079028, -0.0535516068, 0.0186331049, -0.0175269283, 0.0166329928, -0.0015544123, -0.0535198972, 0.0374329984, 0.0439537987, -0.0046469113, -0.0006061245, 0.0273805186, -0.0511521325, -0.0413718931, 0.0044130660, 0.0033892670, -0.0666545630, -0.0084537696, 0.0123682097, 0.0168899056, 0.0482938401, -0.0336982831, -0.0056266361, 0.0325245187, -0.0363653712, 0.0160600785, 0.0299525186, -0.0309703387, -0.0046002497, -0.0021551496, 0.0134902690, 0.0186796244, -0.0314918309, -0.0364364907, 0.0370173417, 0.0558145940, 0.0537020937, 0.0516596437, -0.0395055115, 0.0201839898, 0.0242626034, -0.0125009045, -0.0016452685, 0.0025328170, 0.0374942087, -0.0522521585, 0.0339399017, -0.0381886140, 0.0082380092, 0.0266216043, 0.0220751893, 0.0284245331, -0.0560006239, -0.0073465393, -0.0382947251, -0.0373469144, -0.0106765879, -0.0508868545, -0.0590467453, 0.0391262285, 0.0243282355, -0.0172224790, 0.0367470868, 0.0457790084, -0.0178079028, -0.0535516068, 0.0186331049, -0.0175269283, 0.0166329928, -0.0015544123, -0.0535198972, 0.0374329984, 0.0439537987, -0.0046469113, -0.0006061245, 0.0273805186, -0.0511521325, -0.0413718931, 0.0044130660, 0.0033892670, -0.0666545630, -0.0084537696, 0.0123682097, 0.0168899056, 0.0482938401, -0.0336982831, -0.0056266361, 0.0325245187, -0.0363653712, 0.0160600785, 0.0299525186, -0.0309703387, -0.0046002497, -0.0021551496, 0.0134902690, 0.0186796244, -0.0314918309, -0.0364364907, 0.0370173417, 0.0558145940, 0.0537020937, 0.0516596437, -0.0395055115, 0.0201839898, 0.0242626034, -0.0125009045, -0.0016452685, 0.0025328170, 0.0374942087, -0.0522521585, 0.0339399017, -0.0381886140, 0.0082380092, 0.0266216043, 0.0220751893, 0.0284245331, -0.0560006239, -0.0073465393, -0.0382947251, -0.0373469144, -0.0106765879, -0.0508868545, -0.0590467453, 0.0391262285, 0.0243282355, -0.0172224790, 0.0367470868, 0.0457790084, -0.0178079028, -0.0535516068, 0.0186331049, -0.0175269283, 0.0166329928, -0.0015544123, -0.0535198972, 0.0374329984, 0.0439537987, -0.0046469113, -0.0006061245, 0.0273805186, -0.0511521325, -0.0413718931, 0.0044130660, 0.0033892670, -0.0666545630, -0.0084537696, 0.0123682097, 0.0168899056, 0.0482938401, -0.0336982831, -0.0056266361, 0.0325245187, -0.0363653712, 0.0160600785, 0.0299525186, -0.0309703387, -0.0046002497, -0.0021551496, 0.0134902690, 0.0186796244, -0.0314918309, -0.0364364907, 0.0370173417, 0.0558145940, 0.0537020937, 0.0516596437, -0.0395055115, 0.0201839898, 0.0242626034, -0.0125009045, -0.0016452685, 0.0025328170, 0.0374942087, -0.0522521585, 0.0339399017, -0.0381886140, 0.0082380092, 0.0266216043, 0.0220751893, 0.0284245331, -0.0560006239, -0.0073465393, -0.0382947251, -0.0373469144, -0.0106765879, -0.0508868545, -0.0590467453, 0.0391262285, 0.0243282355, -0.0172224790, 0.0367470868, 0.0457790084, -0.0178079028, -0.0535516068, 0.0186331049, -0.0175269283, 0.0166329928, -0.0015544123, -0.0535198972, 0.0374329984, 0.0439537987, -0.0046469113, -0.0006061245, 0.0273805186, -0.0511521325, -0.0413718931, 0.0044130660, 0.0033892670, -0.0666545630, -0.0084537696, 0.0123682097, 0.0168899056, 0.0482938401, -0.0336982831, -0.0056266361, 0.0325245187, -0.0363653712, 0.0160600785, 0.0299525186, -0.0309703387, -0.0046002497, -0.0021551496, 0.0134902690, 0.0186796244, -0.0314918309, -0.0364364907, 0.0370173417, 0.0558145940, 0.0537020937, 0.0516596437, -0.0395055115, 0.0201839898, 0.0242626034, -0.0125009045, -0.0016452685, 0.0025328170, 0.0374942087, -0.0522521585, 0.0339399017, -0.0381886140, 0.0082380092, 0.0266216043, 0.0220751893, 0.0284245331, -0.0560006239, -0.0073465393, -0.0382947251, -0.0373469144, -0.0106765879, -0.0508868545, -0.0590467453, 0.0391262285, 0.0243282355, -0.0172224790, 0.0367470868, 0.0457790084, -0.0178079028, -0.0535516068, 0.0186331049, -0.0175269283, 0.0166329928, -0.0015544123, -0.0535198972, 0.0374329984, 0.0439537987, -0.0046469113, -0.0006061245, 0.0273805186, -0.0511521325, -0.0413718931, 0.0044130660, 0.0033892670, -0.0666545630, -0.0084537696, 0.0123682097, 0.0168899056, 0.0482938401, -0.0336982831, -0.0056266361, 0.0325245187, -0.0363653712, 0.0160600785, 0.0299525186, -0.0309703387, -0.0046002497, -0.0021551496, 0.0134902690, 0.0186796244, -0.0314918309, -0.0364364907, 0.0370173417, 0.0558145940, 0.0537020937, 0.0516596437, -0.0395055115, 0.0201839898, 0.0242626034, -0.0125009045, -0.0016452685, 0.0025328170, 0.0374942087, -0.0522521585, 0.0339399017, -0.0381886140, 0.0082380092, 0.0266216043, 0.0220751893, 0.0284245331, -0.0560006239, -0.0073465393, -0.0382947251, -0.0373469144, -0.0106765879, -0.0508868545, -0.0590467453, 0.0391262285, 0.0243282355, -0.0172224790, 0.0367470868, 0.0457790084, -0.0178079028, -0.0535516068, 0.0186331049, -0.0175269283, 0.0166329928, -0.0015544123, -0.0535198972, 0.0374329984, 0.0439537987, -0.0046469113, -0.0006061245, 0.0273805186, -0.0511521325, -0.0413718931, 0.0044130660, 0.0033892670, -0.0666545630, -0.0084537696, 0.0123682097, 0.0168899056, 0.0482938401, -0.0336982831, -0.0056266361, 0.0325245187, -0.0363653712, 0.0160600785, 0.0299525186, -0.0309703387, -0.0046002497, -0.0021551496, 0.0134902690, 0.0186796244, -0.0314918309, -0.0364364907, 0.0370173417, 0.0558145940, 0.0537020937, 0.0516596437, -0.0395055115, 0.0201839898, 0.0242626034, -0.0125009045, -0.0016452685, 0.0025328170, 0.0374942087, -0.0522521585, 0.0339399017, -0.0381886140, 0.0082380092, 0.0266216043, 0.0220751893, 0.0284245331, -0.0560006239, -0.0073465393, -0.0382947251, -0.0373469144, -0.0106765879, -0.0508868545, -0.0590467453, 0.0391262285, 0.0243282355, -0.0172224790, 0.0367470868, 0.0457790084, -0.0178079028, -0.0535516068, 0.0186331049, -0.0175269283, 0.0166329928, -0.0015544123, -0.0535198972, 0.0374329984, 0.0439537987, -0.0046469113, -0.0006061245, 0.0273805186, -0.0511521325, -0.0413718931, 0.0044130660, 0.0033892670, -0.0666545630, -0.0084537696, 0.0123682097, 0.0168899056, 0.0482938401, -0.0336982831, -0.0056266361, 0.0325245187, -0.0363653712, 0.0160600785, 0.0299525186, -0.0309703387, -0.0046002497, -0.0021551496, 0.0134902690, 0.0186796244, -0.0314918309, -0.0364364907, 0.0370173417, 0.0558145940, 0.0537020937, 0.0516596437, -0.0395055115, 0.0201839898, 0.0242626034, -0.0125009045, -0.0016452685, 0.0025328170, 0.0374942087, -0.0522521585, 0.0339399017, -0.0381886140, 0.0082380092, 0.0266216043, 0.0220751893, 0.0284245331, -0.0560006239, -0.0073465393, -0.0382947251, -0.0373469144, -0.0106765879, -0.0508868545, -0.0590467453, 0.0391262285, 0.0243282355, -0.0172224790, 0.0367470868, 0.0457790084, -0.0178079028, -0.0535516068, 0.0186331049, -0.0175269283, 0.0166329928, -0.0015544123, -0.0535198972, 0.0374329984, 0.0439537987, -0.0046469113, -0.0006061245, 0.0273805186, -0.0511521325, -0.0413718931, 0.0044130660, 0.0033892670, -0.0666545630, -0.0084537696, 0.0123682097, 0.0168899056, 0.0482938401, -0.0336982831, -0.0056266361, 0.0325245187, -0.0363653712, 0.0160600785, 0.0299525186, -0.0309703387, -0.0046002497, -0.0021551496, 0.0134902690, 0.0186796244, -0.0314918309, -0.0364364907, 0.0370173417, 0.0558145940, 0.0537020937, 0.0516596437, -0.0395055115, 0.0201839898, 0.0242626034, -0.0125009045, -0.0016452685, 0.0025328170, 0.0374942087, -0.0522521585, 0.0339399017, -0.0381886140, 0.0082380092, 0.0266216043, 0.0220751893, 0.0284245331, -0.0560006239, -0.0073465393, -0.0382947251, -0.0373469144, -0.0106765879, -0.0508868545, -0.0590467453, 0.0391262285, 0.0243282355, -0.0172224790, 0.0367470868, 0.0457790084, -0.0178079028, -0.0535516068, 0.0186331049, -0.0175269283, 0.0166329928, -0.0015544123, -0.0535198972, 0.0374329984, 0.0439537987, -0.0046469113, -0.0006061245, 0.0273805186, -0.0511521325, -0.0413718931, 0.0044130660, 0.0033892670, -0.0666545630, -0.0084537696, 0.0123682097, 0.0168899056, 0.0482938401, -0.0336982831, -0.0056266361, 0.0325245187, -0.0363653712, 0.0160600785, 0.0299525186, -0.0309703387, -0.0046002497, -0.0021551496, 0.0134902690, 0.0186796244, -0.0314918309, -0.0364364907, 0.0370173417, 0.0558145940, 0.0537020937, 0.0516596437, -0.0395055115, 0.0201839898, 0.0242626034, -0.0125009045, -0.0016452685, 0.0025328170, 0.0374942087, -0.0522521585, 0.0339399017, -0.0381886140, 0.0082380092, 0.0266216043, 0.0220751893, 0.0284245331, -0.0560006239, -0.0073465393, -0.0382947251, -0.0373469144, -0.0106765879, -0.0508868545, -0.0590467453, 0.0391262285, 0.0243282355, -0.0172224790, 0.0367470868, 0.0457790084, -0.0178079028, -0.0535516068, 0.0186331049, -0.0175269283, 0.0166329928, -0.0015544123, -0.0535198972, 0.0374329984, 0.0439537987, -0.0046469113, -0.0006061245, 0.0273805186, -0.0511521325, -0.0413718931, 0.0044130660, 0.0033892670, -0.0666545630, -0.0084537696, 0.0123682097, 0.0168899056, 0.0482938401, -0.0336982831, -0.0056266361, 0.0325245187, -0.0363653712, 0.0160600785, 0.0299525186, -0.0309703387, -0.0046002497, -0.0021551496, 0.0134902690, 0.0186796244, -0.0314918309, -0.0364364907, 0.0370173417, 0.0558145940, 0.0537020937, 0.0516596437, -0.0395055115, 0.0201839898, 0.0242626034, -0.0125009045, -0.0016452685, 0.0025328170, 0.0374942087, -0.0522521585, 0.0339399017, -0.0381886140, 0.0082380092, 0.0266216043, 0.0220751893, 0.0284245331, -0.0560006239, -0.0073465393, -0.0382947251, -0.0373469144, -0.0106765879, -0.0508868545, -0.0590467453, 0.0391262285, 0.0243282355, -0.0172224790, 0.0367470868, 0.0457790084, -0.0178079028, -0.0535516068, 0.0186331049, -0.0175269283, 0.0166329928, -0.0015544123, -0.0535198972, 0.0374329984, 0.0439537987, -0.0046469113, -0.0006061245, 0.0273805186, -0.0511521325, -0.0413718931, 0.0044130660, 0.0033892670, -0.0666545630, -0.0084537696, 0.0123682097, 0.0168899056, 0.0482938401, -0.0336982831, -0.0056266361, 0.0325245187, -0.0363653712, 0.0160600785, 0.0299525186, -0.0309703387, -0.0046002497, -0.0021551496, 0.0134902690, 0.0186796244, -0.0314918309, -0.0364364907, 0.0370173417, 0.0558145940, 0.0537020937, 0.0516596437, -0.0395055115, 0.0201839898, 0.0242626034, -0.0125009045, -0.0016452685, 0.0025328170, 0.0374942087, -0.0522521585, 0.0339399017, -0.0381886140, 0.0082380092, 0.0266216043, 0.0220751893, 0.0284245331, -0.0560006239, -0.0073465393, -0.0382947251, -0.0373469144, -0.0106765879, -0.0508868545, -0.0590467453, 0.0391262285, 0.0243282355, -0.0172224790, 0.0367470868, 0.0457790084, -0.0178079028, -0.0535516068, 0.0186331049, -0.0175269283, 0.0166329928, -0.0015544123, -0.0535198972, 0.0374329984, 0.0439537987, -0.0046469113, -0.0006061245, 0.0273805186, -0.0511521325, -0.0413718931, 0.0044130660, 0.0033892670, -0.0666545630, -0.0084537696, 0.0123682097, 0.0168899056, 0.0482938401, -0.0336982831, -0.0056266361, 0.0325245187, -0.0363653712, 0.0160600785, 0.0299525186, -0.0309703387, -0.0046002497, -0.0021551496, 0.0134902690, 0.0186796244, -0.0314918309, -0.0364364907, 0.0370173417, 0.0558145940, 0.0537020937, 0.0516596437, -0.0395055115, 0.0201839898, 0.0242626034, -0.0125009045, -0.0016452685, 0.0025328170, 0.0374942087, -0.0522521585, 0.0339399017, -0.0381886140, 0.0082380092, 0.0266216043, 0.0220751893, 0.0284245331, -0.0560006239, -0.0073465393, -0.0382947251, -0.0373469144, -0.0106765879, -0.0508868545, -0.0590467453, 0.0391262285, 0.0243282355, -0.0172224790, 0.0367470868, 0.0457790084, -0.0178079028, -0.0535516068, 0.0186331049, -0.0175269283, 0.0166329928, -0.0015544123, -0.0535198972, 0.0374329984, 0.0439537987, -0.0046469113, -0.0006061245, 0.0273805186, -0.0511521325, -0.0413718931, 0.0044130660, 0.0033892670, -0.0666545630, -0.0084537696, 0.0123682097, 0.0168899056, 0.0482938401, -0.0336982831, -0.0056266361, 0.0325245187, -0.0363653712, 0.0160600785, 0.0299525186, -0.0309703387, -0.0046002497, -0.0021551496, 0.0134902690, 0.0186796244, -0.0314918309, -0.0364364907, 0.0370173417, 0.0558145940, 0.0537020937, 0.0516596437, -0.0395055115, 0.0201839898, 0.0242626034, -0.0125009045, -0.0016452685, 0.0025328170, 0.0374942087, -0.0522521585, 0.0339399017, -0.0381886140, 0.0082380092, 0.0266216043, 0.0220751893, 0.0284245331, -0.0560006239, -0.0073465393, -0.0382947251, -0.0373469144, -0.0106765879, -0.0508868545, -0.0590467453, 0.0391262285, 0.0243282355, -0.0172224790, 0.0367470868, 0.0457790084, -0.0178079028, -0.0535516068, 0.0186331049, -0.0175269283, 0.0166329928, -0.0015544123, -0.0535198972, 0.0374329984, 0.0439537987, -0.0046469113, -0.0006061245, 0.0273805186, -0.0511521325, -0.0413718931, 0.0044130660, 0.0033892670, -0.0666545630, -0.0084537696, 0.0123682097, 0.0168899056, 0.0482938401, -0.0336982831, -0.0056266361, 0.0325245187, -0.0363653712, 0.0160600785, 0.0299525186, -0.0309703387, -0.0046002497, -0.0021551496, 0.0134902690, 0.0186796244, -0.0314918309, -0.0364364907, 0.0370173417, 0.0558145940, 0.0537020937, 0.0516596437, -0.0395055115, 0.0201839898, 0.0242626034, -0.0125009045, -0.0016452685, 0.0025328170, 0.0374942087, -0.0522521585, 0.0339399017, -0.0381886140, 0.0082380092, 0.0266216043, 0.0220751893, 0.0284245331, -0.0560006239, -0.0073465393, -0.0382947251, -0.0373469144, -0.0106765879, -0.0508868545, -0.0590467453, 0.0391262285, 0.0243282355, -0.0172224790, 0.0367470868, 0.0457790084, -0.0178079028, -0.0535516068, 0.0186331049, -0.0175269283, 0.0166329928, -0.0015544123, -0.0535198972, 0.0374329984, 0.0439537987, -0.0046469113, -0.0006061245, 0.0273805186, -0.0511521325, -0.0413718931, 0.0044130660, 0.0033892670, -0.0666545630, -0.0084537696, 0.0123682097, 0.0168899056, 0.0482938401, -0.0336982831, -0.0056266361, 0.0325245187, -0.0363653712, 0.0160600785, 0.0299525186, -0.0309703387, -0.0046002497, -0.0021551496, 0.0134902690, 0.0186796244, -0.0314918309, -0.0364364907, 0.0370173417, 0.0558145940, 0.0537020937, 0.0516596437, -0.0395055115, 0.0201839898, 0.0242626034, -0.0125009045, -0.0016452685, 0.0025328170, 0.0374942087, -0.0522521585, 0.0339399017, -0.0381886140, 0.0082380092, 0.0266216043, 0.0220751893, 0.0284245331, -0.0560006239, -0.0073465393, -0.0382947251, -0.0373469144, -0.0106765879, -0.0508868545, -0.0590467453, 0.0391262285, 0.0243282355, -0.0172224790, 0.0367470868, 0.0457790084, -0.0178079028, -0.0535516068, 0.0186331049, -0.0175269283, 0.0166329928, -0.0015544123, -0.0535198972, 0.0374329984, 0.0439537987, -0.0046469113, -0.0006061245, 0.0273805186, -0.0511521325, -0.0413718931, 0.0044130660, 0.0033892670, -0.0666545630, -0.0084537696, 0.0123682097, 0.0168899056, 0.0482938401, -0.0336982831, -0.0056266361, 0.0325245187, -0.0363653712, 0.0160600785, 0.0299525186, -0.0309703387, -0.0046002497, -0.0021551496, 0.0134902690, 0.0186796244, -0.0314918309, -0.0364364907, 0.0370173417, 0.0558145940, 0.0537020937, 0.0516596437, -0.0395055115, 0.0201839898, 0.0242626034, -0.0125009045, -0.0016452685, 0.0025328170, 0.0374942087, -0.0522521585, 0.0339399017, -0.0381886140, 0.0082380092, 0.0266216043, 0.0220751893, 0.0284245331, -0.0560006239, -0.0073465393, -0.0382947251, -0.0373469144, -0.0106765879, -0.0508868545, -0.0590467453, 0.0391262285, 0.0243282355, -0.0172224790, 0.0367470868, 0.0457790084, -0.0178079028, -0.0535516068, 0.0186331049, -0.0175269283, 0.0166329928, -0.0015544123, -0.0535198972, 0.0374329984, 0.0439537987, -0.0046469113, -0.0006061245, 0.0273805186, -0.0511521325, -0.0413718931, 0.0044130660, 0.0033892670, -0.0666545630, -0.0084537696, 0.0123682097, 0.0168899056, 0.0482938401, -0.0336982831, -0.0056266361, 0.0325245187, -0.0363653712, 0.0160600785, 0.0299525186, -0.0309703387, -0.0046002497, -0.0021551496, 0.0134902690, 0.0186796244, -0.0314918309, -0.0364364907, 0.0370173417, 0.0558145940, 0.0537020937, 0.0516596437, -0.0395055115, 0.0201839898, 0.0242626034, -0.0125009045, -0.0016452685, 0.0025328170, 0.0374942087, -0.0522521585, 0.0339399017, -0.0381886140, 0.0082380092, 0.0266216043, 0.0220751893, 0.0284245331, -0.0560006239, -0.0073465393, -0.0382947251, -0.0373469144, -0.0106765879, -0.0508868545, -0.0590467453, 0.0391262285, 0.0243282355, -0.0172224790, 0.0367470868, 0.0457790084, -0.0178079028, -0.0535516068, 0.0186331049, -0.0175269283, 0.0166329928, -0.0015544123, -0.0535198972, 0.0374329984, 0.0439537987, -0.0046469113, -0.0006061245, 0.0273805186, -0.0511521325, -0.0413718931, 0.0044130660, 0.0033892670, -0.0666545630, -0.0084537696, 0.0123682097, 0.0168899056, 0.0482938401, -0.0336982831, -0.0056266361, 0.0325245187, -0.0363653712, 0.0160600785, 0.0299525186, -0.0309703387, -0.0046002497, -0.0021551496, 0.0134902690, 0.0186796244, -0.0314918309, -0.0364364907, 0.0370173417, 0.0558145940, 0.0537020937, 0.0516596437, -0.0395055115, 0.0201839898, 0.0242626034, -0.0125009045, -0.0016452685, 0.0025328170, 0.0374942087, -0.0522521585, 0.0339399017, -0.0381886140, 0.0082380092, 0.0266216043, 0.0220751893, 0.0284245331, -0.0560006239, -0.0073465393, -0.0382947251, -0.0373469144, -0.0106765879, -0.0508868545, -0.0590467453, 0.0391262285, 0.0243282355, -0.0172224790, 0.0367470868, 0.0457790084, -0.0178079028, -0.0535516068, 0.0186331049, -0.0175269283, 0.0166329928, -0.0015544123, -0.0535198972, 0.0374329984, 0.0439537987, -0.0046469113, -0.0006061245, 0.0273805186, -0.0511521325, -0.0413718931, 0.0044130660, 0.0033892670, -0.0666545630, -0.0084537696, 0.0123682097, 0.0168899056, 0.0482938401, -0.0336982831, -0.0056266361, 0.0325245187, -0.0363653712, 0.0160600785, 0.0299525186, -0.0309703387, -0.0046002497, -0.0021551496, 0.0134902690, 0.0186796244, -0.0314918309, -0.0364364907, 0.0370173417, 0.0558145940, 0.0537020937, 0.0516596437, -0.0395055115, 0.0201839898, 0.0242626034, -0.0125009045, -0.0016452685, 0.0025328170, 0.0374942087, -0.0522521585, 0.0339399017, -0.0381886140, 0.0082380092, 0.0266216043, 0.0220751893, 0.0284245331, -0.0560006239, -0.0073465393, -0.0382947251, -0.0373469144, -0.0106765879, -0.0508868545, -0.0590467453, 0.0391262285, 0.0243282355, -0.0172224790, 0.0367470868, 0.0457790084, -0.0178079028, -0.0535516068, 0.0186331049, -0.0175269283, 0.0166329928, -0.0015544123, -0.0535198972, 0.0374329984, 0.0439537987, -0.0046469113, -0.0006061245, 0.0273805186, -0.0511521325, -0.0413718931, 0.0044130660, 0.0033892670, -0.0666545630, -0.0084537696, 0.0123682097, 0.0168899056, 0.0482938401, -0.0336982831, -0.0056266361, 0.0325245187, -0.0363653712, 0.0160600785, 0.0299525186, -0.0309703387, -0.0046002497, -0.0021551496, 0.0134902690, 0.0186796244, -0.0314918309, -0.0364364907, 0.0370173417, 0.0558145940, 0.0537020937, 0.0516596437, -0.0395055115, 0.0201839898, 0.0242626034, -0.0125009045, -0.0016452685, 0.0025328170, 0.0374942087, -0.0522521585, 0.0339399017, -0.0381886140, 0.0082380092, 0.0266216043, 0.0220751893, 0.0284245331, -0.0560006239, -0.0073465393, -0.0382947251, -0.0373469144, -0.0106765879, -0.0508868545, -0.0590467453, 0.0391262285, 0.0243282355, -0.0172224790, 0.0367470868, 0.0457790084, -0.0178079028, -0.0535516068, 0.0186331049, -0.0175269283, 0.0166329928, -0.0015544123, -0.0535198972, 0.0374329984, 0.0439537987, -0.0046469113, -0.0006061245, 0.0273805186, -0.0511521325, -0.0413718931, 0.0044130660, 0.0033892670, -0.0666545630, -0.0084537696, 0.0123682097, 0.0168899056, 0.0482938401, -0.0336982831, -0.0056266361, 0.0325245187, -0.0363653712, 0.0160600785, 0.0299525186, -0.0309703387, -0.0046002497, -0.0021551496, 0.0134902690, 0.0186796244, -0.0314918309, -0.0364364907, 0.0370173417, 0.0558145940, 0.0537020937, 0.0516596437, -0.0395055115, 0.0201839898, 0.0242626034, -0.0125009045, -0.0016452685, 0.0025328170, 0.0374942087, -0.0522521585, 0.0339399017, -0.0381886140, 0.0082380092, 0.0266216043, 0.0220751893, 0.0284245331, -0.0560006239, -0.0073465393, -0.0382947251, -0.0373469144, -0.0106765879, -0.0508868545, -0.0590467453, 0.0391262285, 0.0243282355, -0.0172224790, 0.0367470868, 0.0457790084, -0.0178079028, -0.0535516068, 0.0186331049, -0.0175269283, 0.0166329928, -0.0015544123, -0.0535198972, 0.0374329984, 0.0439537987, -0.0046469113, -0.0006061245, 0.0273805186, -0.0511521325, -0.0413718931, 0.0044130660, 0.0033892670, -0.0666545630, -0.0084537696, 0.0123682097, 0.0168899056, 0.0482938401, -0.0336982831, -0.0056266361, 0.0325245187, -0.0363653712, 0.0160600785, 0.0299525186, -0.0309703387, -0.0046002497, -0.0021551496, 0.0134902690, 0.0186796244, -0.0314918309, -0.0364364907, 0.0370173417, 0.0558145940, 0.0537020937, 0.0516596437, -0.0395055115, 0.0201839898, 0.0242626034, -0.0125009045, -0.0016452685, 0.0025328170, 0.0374942087, -0.0522521585, 0.0339399017, -0.0381886140, 0.0082380092, 0.0266216043, 0.0220751893, 0.0284245331, -0.0560006239, -0.0073465393, -0.0382947251, -0.0373469144, -0.0106765879, -0.0508868545, -0.0590467453, 0.0391262285, 0.0243282355, -0.0172224790, 0.0367470868, 0.0457790084, -0.0178079028, -0.0535516068, 0.0186331049, -0.0175269283, 0.0166329928, -0.0015544123, -0.0535198972, 0.0374329984, 0.0439537987, -0.0046469113, -0.0006061245, 0.0273805186, -0.0511521325, -0.0413718931, 0.0044130660, 0.0033892670, -0.0666545630, -0.0084537696, 0.0123682097, 0.0168899056, 0.0482938401, -0.0336982831, -0.0056266361, 0.0325245187, -0.0363653712, 0.0160600785, 0.0299525186, -0.0309703387, -0.0046002497, -0.0021551496, 0.0134902690, 0.0186796244, -0.0314918309, -0.0364364907, 0.0370173417, 0.0558145940, 0.0537020937, 0.0516596437, -0.0395055115, 0.0201839898, 0.0242626034, -0.0125009045, -0.0016452685, 0.0025328170, 0.0374942087, -0.0522521585, 0.0339399017, -0.0381886140, 0.0082380092, 0.0266216043, 0.0220751893, 0.0284245331, -0.0560006239, -0.0073465393, -0.0382947251, -0.0373469144, -0.0106765879, -0.0508868545, -0.0590467453, 0.0391262285, 0.0243282355, -0.0172224790, 0.0367470868, 0.0457790084, -0.0178079028, -0.0535516068, 0.0186331049, -0.0175269283, 0.0166329928, -0.0015544123, -0.0535198972, 0.0374329984, 0.0439537987, -0.0046469113, -0.0006061245, 0.0273805186, -0.0511521325, -0.0413718931, 0.0044130660, 0.0033892670, -0.0666545630, -0.0084537696, 0.0123682097, 0.0168899056, 0.0482938401, -0.0336982831, -0.0056266361, 0.0325245187, -0.0363653712, 0.0160600785, 0.0299525186, -0.0309703387, -0.0046002497, -0.0021551496, 0.0134902690, 0.0186796244, -0.0314918309, -0.0364364907, 0.0370173417, 0.0558145940, 0.0537020937, 0.0516596437, -0.0395055115, 0.0201839898, 0.0242626034, -0.0125009045, -0.0016452685, 0.0025328170, 0.0374942087, -0.0522521585, 0.0339399017, -0.0381886140, 0.0082380092, 0.0266216043, 0.0220751893, 0.0284245331, -0.0560006239, -0.0073465393, -0.0382947251, -0.0373469144, -0.0106765879, -0.0508868545, -0.0590467453, 0.0391262285, 0.0243282355, -0.0172224790, 0.0367470868, 0.0457790084, -0.0178079028, -0.0535516068, 0.0186331049, -0.0175269283, 0.0166329928, -0.0015544123, -0.0535198972, 0.0374329984, 0.0439537987, -0.0046469113, -0.0006061245, 0.0273805186, -0.0511521325, -0.0413718931, 0.0044130660, 0.0033892670, -0.0666545630, -0.0084537696, 0.0123682097, 0.0168899056, 0.0482938401, -0.0336982831, -0.0056266361, 0.0325245187, -0.0363653712, 0.0160600785, 0.0299525186, -0.0309703387, -0.0046002497, -0.0021551496, 0.0134902690, 0.0186796244, -0.0314918309, -0.0364364907, 0.0370173417, 0.0558145940, 0.0537020937, 0.0516596437, -0.0395055115, 0.0201839898, 0.0242626034, -0.0125009045, -0.0016452685, 0.0025328170, 0.0374942087, -0.0522521585, 0.0339399017, -0.0381886140, 0.0082380092, 0.0266216043, 0.0220751893, 0.0284245331, -0.0560006239, -0.0073465393, -0.0382947251, -0.0373469144, -0.0106765879, -0.0508868545, -0.0590467453, 0.0391262285, 0.0243282355, -0.0172224790, 0.0367470868, 0.0457790084, -0.0178079028, -0.0535516068, 0.0186331049, -0.0175269283, 0.0166329928, -0.0015544123, -0.0535198972, 0.0374329984, 0.0439537987, -0.0046469113, -0.0006061245, 0.0273805186, -0.0511521325, -0.0413718931, 0.0044130660, 0.0033892670, -0.0666545630, -0.0084537696, 0.0123682097, 0.0168899056, 0.0482938401, -0.0336982831, -0.0056266361, 0.0325245187, -0.0363653712, 0.0160600785, 0.0299525186, -0.0309703387, -0.0046002497, -0.0021551496, 0.0134902690, 0.0186796244, -0.0314918309, -0.0364364907, 0.0370173417, 0.0558145940, 0.0537020937, 0.0516596437, -0.0395055115, 0.0201839898, 0.0242626034, -0.0125009045, -0.0016452685, 0.0025328170, 0.0374942087, -0.0522521585, 0.0339399017, -0.0381886140, 0.0082380092, 0.0266216043, 0.0220751893, 0.0284245331, -0.0560006239, -0.0073465393, -0.0382947251, -0.0373469144, -0.0106765879, -0.0508868545, -0.0590467453, 0.0391262285, 0.0243282355, -0.0172224790, 0.0367470868, 0.0457790084, -0.0178079028, -0.0535516068, 0.0186331049, -0.0175269283, 0.0166329928, -0.0015544123, -0.0535198972, 0.0374329984, 0.0439537987, -0.0046469113, -0.0006061245, 0.0273805186, -0.0511521325, -0.0413718931, 0.0044130660, 0.0033892670, -0.0666545630, -0.0084537696, 0.0123682097, 0.0168899056, 0.0482938401, -0.0336982831, -0.0056266361, 0.0325245187, -0.0363653712, 0.0160600785, 0.0299525186, -0.0309703387, -0.0046002497, -0.0021551496, 0.0134902690, 0.0186796244, -0.0314918309, -0.0364364907, 0.0370173417, 0.0558145940, 0.0537020937, 0.0516596437, -0.0395055115, 0.0201839898, 0.0242626034, -0.0125009045, -0.0016452685, 0.0025328170, 0.0374942087, -0.0522521585, 0.0339399017, -0.0381886140, 0.0082380092, 0.0266216043, 0.0220751893, 0.0284245331, -0.0560006239, -0.0073465393, -0.0382947251, -0.0373469144, -0.0106765879, -0.0508868545, -0.0590467453, 0.0391262285, 0.0243282355, -0.0172224790, 0.0367470868, 0.0457790084, -0.0178079028, -0.0535516068, 0.0186331049, -0.0175269283, 0.0166329928, -0.0015544123, -0.0535198972, 0.0374329984, 0.0439537987, -0.0046469113, -0.0006061245, 0.0273805186, -0.0511521325, -0.0413718931, 0.0044130660, 0.0033892670, -0.0666545630, -0.0084537696, 0.0123682097, 0.0168899056, 0.0482938401, -0.0336982831, -0.0056266361, 0.0325245187, -0.0363653712, 0.0160600785, 0.0299525186, -0.0309703387, -0.0046002497, -0.0021551496, 0.0134902690, 0.0186796244, -0.0314918309, -0.0364364907, 0.0370173417, 0.0558145940, 0.0537020937, 0.0516596437, -0.0395055115, 0.0201839898, 0.0242626034, -0.0125009045, -0.0016452685, 0.0025328170, 0.0374942087, -0.0522521585, 0.0339399017, -0.0381886140, 0.0082380092, 0.0266216043, 0.0220751893, 0.0284245331, -0.0560006239, -0.0073465393, -0.0382947251, -0.0373469144, -0.0106765879, -0.0508868545, -0.0590467453, 0.0391262285, 0.0243282355, -0.0172224790, 0.0367470868, 0.0457790084, -0.0178079028, -0.0535516068, 0.0186331049, -0.0175269283, 0.0166329928, -0.0015544123, -0.0535198972, 0.0374329984, 0.0439537987, -0.0046469113, -0.0006061245, 0.0273805186, -0.0511521325, -0.0413718931, 0.0044130660, 0.0033892670, -0.0666545630, -0.0084537696, 0.0123682097, 0.0168899056, 0.0482938401, -0.0336982831, -0.0056266361, 0.0325245187, -0.0363653712, 0.0160600785, 0.0299525186, -0.0309703387, -0.0046002497, -0.0021551496, 0.0134902690, 0.0186796244, -0.0314918309, -0.0364364907, 0.0370173417, 0.0558145940, 0.0537020937, 0.0516596437, -0.0395055115, 0.0201839898, 0.0242626034, -0.0125009045, -0.0016452685, 0.0025328170, 0.0374942087, -0.0522521585, 0.0339399017, -0.0381886140, 0.0082380092, 0.0266216043, 0.0220751893, 0.0284245331, -0.0560006239, -0.0073465393, -0.0382947251, -0.0373469144, -0.0106765879, -0.0508868545, -0.0590467453, 0.0391262285, 0.0243282355, -0.0172224790, 0.0367470868, 0.0457790084, -0.0178079028, -0.0535516068, 0.0186331049, -0.0175269283, 0.0166329928, -0.0015544123, -0.0535198972, 0.0374329984, 0.0439537987, -0.0046469113, -0.0006061245, 0.0273805186, -0.0511521325, -0.0413718931, 0.0044130660, 0.0033892670, -0.0666545630, -0.0084537696, 0.0123682097, 0.0168899056, 0.0482938401, -0.0336982831, -0.0056266361, 0.0325245187, -0.0363653712, 0.0160600785, 0.0299525186, -0.0309703387, -0.0046002497, -0.0021551496, 0.0134902690, 0.0186796244, -0.0314918309, -0.0364364907, 0.0370173417, 0.0558145940, 0.0537020937, 0.0516596437, -0.0395055115, 0.0201839898, 0.0242626034, -0.0125009045, -0.0016452685, 0.0025328170, 0.0374942087, -0.0522521585, 0.0339399017, -0.0381886140, 0.0082380092, 0.0266216043, 0.0220751893, 0.0284245331, -0.0560006239, -0.0073465393, -0.0382947251, -0.0373469144, -0.0106765879, -0.0508868545, -0.0590467453, 0.0391262285, 0.0243282355, -0.0172224790, 0.0367470868, 0.0457790084, -0.0178079028, -0.0535516068, 0.0186331049, -0.0175269283, 0.0166329928, -0.0015544123, -0.0535198972, 0.0374329984, 0.0439537987, -0.0046469113, -0.0006061245, 0.0273805186, -0.0511521325, -0.0413718931, 0.0044130660, 0.0033892670, -0.0666545630, -0.0084537696, 0.0123682097, 0.0168899056, 0.0482938401, -0.0336982831, -0.0056266361, 0.0325245187, -0.0363653712, 0.0160600785, 0.0299525186, -0.0309703387, -0.0046002497, -0.0021551496, 0.0134902690, 0.0186796244, -0.0314918309, -0.0364364907, 0.0370173417, 0.0558145940, 0.0537020937, 0.0516596437, -0.0395055115, 0.0201839898, 0.0242626034, -0.0125009045, -0.0016452685, 0.0025328170, 0.0374942087, -0.0522521585, 0.0339399017, -0.0381886140, 0.0082380092, 0.0266216043, 0.0220751893, 0.0284245331, -0.0560006239, -0.0073465393, -0.0382947251, -0.0373469144, -0.0106765879, -0.0508868545, -0.0590467453, 0.0391262285, 0.0243282355, -0.0172224790, 0.0367470868, 0.0457790084, -0.0178079028, -0.0535516068, 0.0186331049, -0.0175269283, 0.0166329928, -0.0015544123, -0.0535198972, 0.0374329984, 0.0439537987, -0.0046469113, -0.0006061245, 0.0273805186, -0.0511521325, -0.0413718931, 0.0044130660, 0.0033892670, -0.0666545630, -0.0084537696, 0.0123682097, 0.0168899056, 0.0482938401, -0.0336982831, -0.0056266361, 0.0325245187, -0.0363653712, 0.0160600785, 0.0299525186, -0.0309703387, -0.0046002497, -0.0021551496, 0.0134902690, 0.0186796244, -0.0314918309, -0.0364364907, 0.0370173417, 0.0558145940, 0.0537020937, 0.0516596437, -0.0395055115, 0.0201839898, 0.0242626034, -0.0125009045, -0.0016452685, 0.0025328170, 0.0374942087, -0.0522521585, 0.0339399017, -0.0381886140, 0.0082380092, 0.0266216043, 0.0220751893, 0.0284245331, -0.0560006239, -0.0073465393, -0.0382947251, -0.0373469144, -0.0106765879, -0.0508868545, -0.0590467453, 0.0391262285, 0.0243282355, -0.0172224790, 0.0367470868, 0.0457790084, -0.0178079028, -0.0535516068, 0.0186331049, -0.0175269283, 0.0166329928, -0.0015544123, -0.0535198972, 0.0374329984, 0.0439537987, -0.0046469113, -0.0006061245, 0.0273805186, -0.0511521325, -0.0413718931, 0.0044130660, 0.0033892670, -0.0666545630, -0.0084537696, 0.0123682097, 0.0168899056, 0.0482938401, -0.0336982831, -0.0056266361, 0.0325245187, -0.0363653712, 0.0160600785, 0.0299525186, -0.0309703387, -0.0046002497, -0.0021551496, 0.0134902690, 0.0186796244, -0.0314918309, -0.0364364907, 0.0370173417, 0.0558145940, 0.0537020937, 0.0516596437, -0.0395055115, 0.0201839898, 0.0242626034, -0.0125009045, -0.0016452685, 0.0025328170, 0.0374942087, -0.0522521585, 0.0339399017, -0.0381886140, 0.0082380092, 0.0266216043, 0.0220751893, 0.0284245331, -0.0560006239, -0.0073465393, -0.0382947251, -0.0373469144, -0.0106765879, -0.0508868545, -0.0590467453, 0.0391262285, 0.0243282355, -0.0172224790, 0.0367470868, 0.0457790084, -0.0178079028, -0.0535516068, 0.0186331049, -0.0175269283, 0.0166329928, -0.0015544123, -0.0535198972, 0.0374329984, 0.0439537987, -0.0046469113, -0.0006061245, 0.0273805186, -0.0511521325, -0.0413718931, 0.0044130660, 0.0033892670, -0.0666545630, -0.0084537696, 0.0123682097, 0.0168899056, 0.0482938401, -0.0336982831, -0.0056266361, 0.0325245187, -0.0363653712, 0.0160600785, 0.0299525186, -0.0309703387, -0.0046002497, -0.0021551496, 0.0134902690, 0.0186796244, -0.0314918309, -0.0364364907, 0.0370173417, 0.0558145940, 0.0537020937, 0.0516596437, -0.0395055115, 0.0201839898, 0.0242626034, -0.0125009045, -0.0016452685, 0.0025328170, 0.0374942087, -0.0522521585, 0.0339399017, -0.0381886140, 0.0082380092, 0.0266216043, 0.0220751893, 0.0284245331, -0.0560006239, -0.0073465393, -0.0382947251, -0.0373469144, -0.0106765879, -0.0508868545, -0.0590467453, 0.0391262285, 0.0243282355, -0.0172224790, 0.0367470868, 0.0457790084, -0.0178079028, -0.0535516068, 0.0186331049, -0.0175269283, 0.0166329928, -0.0015544123, -0.0535198972, 0.0374329984, 0.0439537987, -0.0046469113, -0.0006061245, 0.0273805186, -0.0511521325, -0.0413718931, 0.0044130660, 0.0033892670, -0.0666545630, -0.0084537696, 0.0123682097, 0.0168899056, 0.0482938401, -0.0336982831, -0.0056266361, 0.0325245187, -0.0363653712, 0.0160600785, 0.0299525186, -0.0309703387, -0.0046002497, -0.0021551496, 0.0134902690, 0.0186796244, -0.0314918309, -0.0364364907, 0.0370173417, 0.0558145940, 0.0537020937, 0.0516596437, -0.0395055115, 0.0201839898, 0.0242626034, -0.0125009045, -0.0016452685, 0.0025328170, 0.0374942087, -0.0522521585, 0.0339399017, -0.0381886140, 0.0082380092, 0.0266216043, 0.0220751893, 0.0284245331, -0.0560006239, -0.0073465393, -0.0382947251, -0.0373469144, -0.0106765879, -0.0508868545, -0.0590467453, 0.0391262285, 0.0243282355, -0.0172224790, 0.0367470868, 0.0457790084, -0.0178079028, -0.0535516068, 0.0186331049, -0.0175269283, 0.0166329928, -0.0015544123, -0.0535198972, 0.0374329984, 0.0439537987, -0.0046469113, -0.0006061245, 0.0273805186, -0.0511521325, -0.0413718931, 0.0044130660, 0.0033892670, -0.0666545630, -0.0084537696, 0.0123682097, 0.0168899056, 0.0482938401, -0.0336982831, -0.0056266361, 0.0325245187, -0.0363653712, 0.0160600785, 0.0299525186, -0.0309703387, -0.0046002497, -0.0021551496, 0.0134902690, 0.0186796244, -0.0314918309, -0.0364364907, 0.0370173417, 0.0558145940, 0.0537020937, 0.0516596437, -0.0395055115, 0.0201839898, 0.0242626034, -0.0125009045, -0.0016452685, 0.0025328170, 0.0374942087, -0.0522521585, 0.0339399017, -0.0381886140, 0.0082380092, 0.0266216043, 0.0220751893, 0.0284245331, -0.0560006239, -0.0073465393, -0.0382947251, -0.0373469144, -0.0106765879, -0.0508868545, -0.0590467453, 0.0391262285, 0.0243282355, -0.0172224790, 0.0367470868, 0.0457790084, -0.0178079028, -0.0535516068, 0.0186331049, -0.0175269283, 0.0166329928, -0.0015544123, -0.0535198972, 0.0374329984, 0.0439537987, -0.0046469113, -0.0006061245, 0.0273805186, -0.0511521325, -0.0413718931, 0.0044130660, 0.0033892670, -0.0666545630, -0.0084537696, 0.0123682097, 0.0168899056, 0.0482938401, -0.0336982831, -0.0056266361, 0.0325245187, -0.0363653712, 0.0160600785, 0.0299525186, -0.0309703387, -0.0046002497, -0.0021551496, 0.0134902690, 0.0186796244, -0.0314918309, -0.0364364907, 0.0370173417, 0.0558145940, 0.0537020937, 0.0516596437, -0.0395055115, 0.0201839898, 0.0242626034, -0.0125009045, -0.0016452685, 0.0025328170, 0.0374942087, -0.0522521585, 0.0339399017, -0.0381886140, 0.0082380092, 0.0266216043, 0.0220751893, 0.0284245331, -0.0560006239, -0.0073465393, -0.0382947251, -0.0373469144, -0.0106765879, -0.0508868545, -0.0590467453, 0.0391262285, 0.0243282355, -0.0172224790, 0.0367470868, 0.0457790084, -0.0178079028, -0.0535516068, 0.0186331049, -0.0175269283, 0.0166329928, -0.0015544123, -0.0535198972, 0.0374329984, 0.0439537987, -0.0046469113, -0.0006061245, 0.0273805186, -0.0511521325, -0.0413718931, 0.0044130660, 0.0033892670, -0.0666545630, -0.0084537696, 0.0123682097, 0.0168899056, 0.0482938401, -0.0336982831, -0.0056266361, 0.0325245187, -0.0363653712, 0.0160600785, 0.0299525186, -0.0309703387, -0.0046002497, -0.0021551496, 0.0134902690, 0.0186796244, -0.0314918309, -0.0364364907, 0.0370173417, 0.0558145940, 0.0537020937, 0.0516596437, -0.0395055115, 0.0201839898, 0.0242626034, -0.0125009045, -0.0016452685, 0.0025328170, 0.0374942087, -0.0522521585, 0.0339399017, -0.0381886140, 0.0082380092, 0.0266216043, 0.0220751893, 0.0284245331, -0.0560006239, -0.0073465393, -0.0382947251, -0.0373469144, -0.0106765879, -0.0508868545, -0.0590467453, 0.0391262285, 0.0243282355, -0.0172224790, 0.0367470868, 0.0457790084, -0.0178079028, -0.0535516068, 0.0186331049, -0.0175269283, 0.0166329928, -0.0015544123, -0.0535198972, 0.0374329984, 0.0439537987, -0.0046469113, -0.0006061245, 0.0273805186, -0.0511521325, -0.0413718931, 0.0044130660, 0.0033892670, -0.0666545630, -0.0084537696, 0.0123682097, 0.0168899056, 0.0482938401, -0.0336982831, -0.0056266361, 0.0325245187, -0.0363653712, 0.0160600785, 0.0299525186, -0.0309703387, -0.0046002497, -0.0021551496, 0.0134902690, 0.0186796244, -0.0314918309, -0.0364364907, 0.0370173417, 0.0558145940, 0.0537020937, 0.0516596437, -0.0395055115, 0.0201839898, 0.0242626034, -0.0125009045, -0.0016452685, 0.0025328170, 0.0374942087, -0.0522521585, 0.0339399017, -0.0381886140, 0.0082380092, 0.0266216043, 0.0220751893, 0.0284245331, -0.0560006239, -0.0073465393, -0.0382947251, -0.0373469144, -0.0106765879, -0.0508868545, -0.0590467453, 0.0391262285, 0.0243282355, -0.0172224790, 0.0367470868, 