//Numpy array shape [32, 32, 128]
//Min -0.064917273819
//Max 0.056406386197
//Number of zeros 0

#ifndef B87_H_
#define B87_H_

#ifndef __SYNTHESIS__
model_default_t b87[131072];
#else
model_default_t b87[131072] = {-0.0048570363, -0.0536909439, 0.0185034126, 0.0248977542, 0.0281656403, 0.0134638241, -0.0083544329, -0.0098285703, 0.0273743756, 0.0261461865, 0.0399328619, 0.0435234085, -0.0112456046, -0.0088290907, 0.0564063862, -0.0076692211, 0.0210254788, -0.0400834605, -0.0583165511, -0.0187651925, 0.0040867254, -0.0035358663, -0.0427085236, 0.0146305989, 0.0232436862, -0.0082065780, 0.0212013200, -0.0317489356, 0.0152350198, -0.0156809036, -0.0073381877, -0.0422475152, -0.0431198925, -0.0235576294, 0.0147551093, 0.0179398190, -0.0201468263, -0.0427987762, 0.0294346530, 0.0160333682, -0.0050099636, -0.0473949723, 0.0391200818, -0.0264164843, -0.0013698767, -0.0426708795, 0.0184231345, -0.0548050292, -0.0602773204, -0.0407960154, -0.0312118363, -0.0397013836, 0.0079380358, -0.0244728196, 0.0278124362, -0.0426743068, 0.0029362766, -0.0252016522, 0.0084172133, -0.0188440476, 0.0223938134, -0.0393317975, 0.0184334107, -0.0396825597, -0.0083997641, -0.0292497426, -0.0252283812, -0.0130022736, 0.0246006232, 0.0117195379, -0.0290823281, -0.0227191113, 0.0003043410, 0.0061490173, -0.0039772852, 0.0246963184, -0.0134708425, -0.0077722506, 0.0247221626, -0.0333797596, -0.0112457722, -0.0025525284, 0.0036720089, 0.0056941197, -0.0051597282, 0.0059126788, 0.0115706567, 0.0261070095, -0.0224563945, -0.0185160134, 0.0006636604, -0.0135538047, 0.0093024625, -0.0050495090, -0.0037244761, 0.0147722950, -0.0393538326, 0.0141392797, -0.0481046103, -0.0507624894, 0.0113055939, 0.0166283362, -0.0306520835, -0.0649172738, -0.0277935322, 0.0001900703, 0.0180197489, -0.0476167686, 0.0067699859, -0.0216692612, 0.0183024127, 0.0299051125, 0.0024636199, -0.0045034257, 0.0320259854, -0.0225214306, -0.0103744166, 0.0043845875, -0.0326805599, -0.0590869598, -0.0241436213, -0.0323259868, 0.0109907985, 0.0045947260, -0.0372230560, 0.0138532761, 0.0268268622, 0.0126656312, -0.0048570363, -0.0536909439, 0.0185034126, 0.0248977542, 0.0281656403, 0.0134638241, -0.0083544329, -0.0098285703, 0.0273743756, 0.0261461865, 0.0399328619, 0.0435234085, -0.0112456046, -0.0088290907, 0.0564063862, -0.0076692211, 0.0210254788, -0.0400834605, -0.0583165511, -0.0187651925, 0.0040867254, -0.0035358663, -0.0427085236, 0.0146305989, 0.0232436862, -0.0082065780, 0.0212013200, -0.0317489356, 0.0152350198, -0.0156809036, -0.0073381877, -0.0422475152, -0.0431198925, -0.0235576294, 0.0147551093, 0.0179398190, -0.0201468263, -0.0427987762, 0.0294346530, 0.0160333682, -0.0050099636, -0.0473949723, 0.0391200818, -0.0264164843, -0.0013698767, -0.0426708795, 0.0184231345, -0.0548050292, -0.0602773204, -0.0407960154, -0.0312118363, -0.0397013836, 0.0079380358, -0.0244728196, 0.0278124362, -0.0426743068, 0.0029362766, -0.0252016522, 0.0084172133, -0.0188440476, 0.0223938134, -0.0393317975, 0.0184334107, -0.0396825597, -0.0083997641, -0.0292497426, -0.0252283812, -0.0130022736, 0.0246006232, 0.0117195379, -0.0290823281, -0.0227191113, 0.0003043410, 0.0061490173, -0.0039772852, 0.0246963184, -0.0134708425, -0.0077722506, 0.0247221626, -0.0333797596, -0.0112457722, -0.0025525284, 0.0036720089, 0.0056941197, -0.0051597282, 0.0059126788, 0.0115706567, 0.0261070095, -0.0224563945, -0.0185160134, 0.0006636604, -0.0135538047, 0.0093024625, -0.0050495090, -0.0037244761, 0.0147722950, -0.0393538326, 0.0141392797, -0.0481046103, -0.0507624894, 0.0113055939, 0.0166283362, -0.0306520835, -0.0649172738, -0.0277935322, 0.0001900703, 0.0180197489, -0.0476167686, 0.0067699859, -0.0216692612, 0.0183024127, 0.0299051125, 0.0024636199, -0.0045034257, 0.0320259854, -0.0225214306, -0.0103744166, 0.0043845875, -0.0326805599, -0.0590869598, -0.0241436213, -0.0323259868, 0.0109907985, 0.0045947260, -0.0372230560, 0.0138532761, 0.0268268622, 0.0126656312, -0.0048570363, -0.0536909439, 0.0185034126, 0.0248977542, 0.0281656403, 0.0134638241, -0.0083544329, -0.0098285703, 0.0273743756, 0.0261461865, 0.0399328619, 0.0435234085, -0.0112456046, -0.0088290907, 0.0564063862, -0.0076692211, 0.0210254788, -0.0400834605, -0.0583165511, -0.0187651925, 0.0040867254, -0.0035358663, -0.0427085236, 0.0146305989, 0.0232436862, -0.0082065780, 0.0212013200, -0.0317489356, 0.0152350198, -0.0156809036, -0.0073381877, -0.0422475152, -0.0431198925, -0.0235576294, 0.0147551093, 0.0179398190, -0.0201468263, -0.0427987762, 0.0294346530, 0.0160333682, -0.0050099636, -0.0473949723, 0.0391200818, -0.0264164843, -0.0013698767, -0.0426708795, 0.0184231345, -0.0548050292, -0.0602773204, -0.0407960154, -0.0312118363, -0.0397013836, 0.0079380358, -0.0244728196, 0.0278124362, -0.0426743068, 0.0029362766, -0.0252016522, 0.0084172133, -0.0188440476, 0.0223938134, -0.0393317975, 0.0184334107, -0.0396825597, -0.0083997641, -0.0292497426, -0.0252283812, -0.0130022736, 0.0246006232, 0.0117195379, -0.0290823281, -0.0227191113, 0.0003043410, 0.0061490173, -0.0039772852, 0.0246963184, -0.0134708425, -0.0077722506, 0.0247221626, -0.0333797596, -0.0112457722, -0.0025525284, 0.0036720089, 0.0056941197, -0.0051597282, 0.0059126788, 0.0115706567, 0.0261070095, -0.0224563945, -0.0185160134, 0.0006636604, -0.0135538047, 0.0093024625, -0.0050495090, -0.0037244761, 0.0147722950, -0.0393538326, 0.0141392797, -0.0481046103, -0.0507624894, 0.0113055939, 0.0166283362, -0.0306520835, -0.0649172738, -0.0277935322, 0.0001900703, 0.0180197489, -0.0476167686, 0.0067699859, -0.0216692612, 0.0183024127, 0.0299051125, 0.0024636199, -0.0045034257, 0.0320259854, -0.0225214306, -0.0103744166, 0.0043845875, -0.0326805599, -0.0590869598, -0.0241436213, -0.0323259868, 0.0109907985, 0.0045947260, -0.0372230560, 0.0138532761, 0.0268268622, 0.0126656312, -0.0048570363, -0.0536909439, 0.0185034126, 0.0248977542, 0.0281656403, 0.0134638241, -0.0083544329, -0.0098285703, 0.0273743756, 0.0261461865, 0.0399328619, 0.0435234085, -0.0112456046, -0.0088290907, 0.0564063862, -0.0076692211, 0.0210254788, -0.0400834605, -0.0583165511, -0.0187651925, 0.0040867254, -0.0035358663, -0.0427085236, 0.0146305989, 0.0232436862, -0.0082065780, 0.0212013200, -0.0317489356, 0.0152350198, -0.0156809036, -0.0073381877, -0.0422475152, -0.0431198925, -0.0235576294, 0.0147551093, 0.0179398190, -0.0201468263, -0.0427987762, 0.0294346530, 0.0160333682, -0.0050099636, -0.0473949723, 0.0391200818, -0.0264164843, -0.0013698767, -0.0426708795, 0.0184231345, -0.0548050292, -0.0602773204, -0.0407960154, -0.0312118363, -0.0397013836, 0.0079380358, -0.0244728196, 0.0278124362, -0.0426743068, 0.0029362766, -0.0252016522, 0.0084172133, -0.0188440476, 0.0223938134, -0.0393317975, 0.0184334107, -0.0396825597, -0.0083997641, -0.0292497426, -0.0252283812, -0.0130022736, 0.0246006232, 0.0117195379, -0.0290823281, -0.0227191113, 0.0003043410, 0.0061490173, -0.0039772852, 0.0246963184, -0.0134708425, -0.0077722506, 0.0247221626, -0.0333797596, -0.0112457722, -0.0025525284, 0.0036720089, 0.0056941197, -0.0051597282, 0.0059126788, 0.0115706567, 0.0261070095, -0.0224563945, -0.0185160134, 0.0006636604, -0.0135538047, 0.0093024625, -0.0050495090, -0.0037244761, 0.0147722950, -0.0393538326, 0.0141392797, -0.0481046103, -0.0507624894, 0.0113055939, 0.0166283362, -0.0306520835, -0.0649172738, -0.0277935322, 0.0001900703, 0.0180197489, -0.0476167686, 0.0067699859, -0.0216692612, 0.0183024127, 0.0299051125, 0.0024636199, -0.0045034257, 0.0320259854, -0.0225214306, -0.0103744166, 0.0043845875, -0.0326805599, -0.0590869598, -0.0241436213, -0.0323259868, 0.0109907985, 0.0045947260, -0.0372230560, 0.0138532761, 0.0268268622, 0.0126656312, -0.0048570363, -0.0536909439, 0.0185034126, 0.0248977542, 0.0281656403, 0.0134638241, -0.0083544329, -0.0098285703, 0.0273743756, 0.0261461865, 0.0399328619, 0.0435234085, -0.0112456046, -0.0088290907, 0.0564063862, -0.0076692211, 0.0210254788, -0.0400834605, -0.0583165511, -0.0187651925, 0.0040867254, -0.0035358663, -0.0427085236, 0.0146305989, 0.0232436862, -0.0082065780, 0.0212013200, -0.0317489356, 0.0152350198, -0.0156809036, -0.0073381877, -0.0422475152, -0.0431198925, -0.0235576294, 0.0147551093, 0.0179398190, -0.0201468263, -0.0427987762, 0.0294346530, 0.0160333682, -0.0050099636, -0.0473949723, 0.0391200818, -0.0264164843, -0.0013698767, -0.0426708795, 0.0184231345, -0.0548050292, -0.0602773204, -0.0407960154, -0.0312118363, -0.0397013836, 0.0079380358, -0.0244728196, 0.0278124362, -0.0426743068, 0.0029362766, -0.0252016522, 0.0084172133, -0.0188440476, 0.0223938134, -0.0393317975, 0.0184334107, -0.0396825597, -0.0083997641, -0.0292497426, -0.0252283812, -0.0130022736, 0.0246006232, 0.0117195379, -0.0290823281, -0.0227191113, 0.0003043410, 0.0061490173, -0.0039772852, 0.0246963184, -0.0134708425, -0.0077722506, 0.0247221626, -0.0333797596, -0.0112457722, -0.0025525284, 0.0036720089, 0.0056941197, -0.0051597282, 0.0059126788, 0.0115706567, 0.0261070095, -0.0224563945, -0.0185160134, 0.0006636604, -0.0135538047, 0.0093024625, -0.0050495090, -0.0037244761, 0.0147722950, -0.0393538326, 0.0141392797, -0.0481046103, -0.0507624894, 0.0113055939, 0.0166283362, -0.0306520835, -0.0649172738, -0.0277935322, 0.0001900703, 0.0180197489, -0.0476167686, 0.0067699859, -0.0216692612, 0.0183024127, 0.0299051125, 0.0024636199, -0.0045034257, 0.0320259854, -0.0225214306, -0.0103744166, 0.0043845875, -0.0326805599, -0.0590869598, -0.0241436213, -0.0323259868, 0.0109907985, 0.0045947260, -0.0372230560, 0.0138532761, 0.0268268622, 0.0126656312, -0.0048570363, -0.0536909439, 0.0185034126, 0.0248977542, 0.0281656403, 0.0134638241, -0.0083544329, -0.0098285703, 0.0273743756, 0.0261461865, 0.0399328619, 0.0435234085, -0.0112456046, -0.0088290907, 0.0564063862, -0.0076692211, 0.0210254788, -0.0400834605, -0.0583165511, -0.0187651925, 0.0040867254, -0.0035358663, -0.0427085236, 0.0146305989, 0.0232436862, -0.0082065780, 0.0212013200, -0.0317489356, 0.0152350198, -0.0156809036, -0.0073381877, -0.0422475152, -0.0431198925, -0.0235576294, 0.0147551093, 0.0179398190, -0.0201468263, -0.0427987762, 0.0294346530, 0.0160333682, -0.0050099636, -0.0473949723, 0.0391200818, -0.0264164843, -0.0013698767, -0.0426708795, 0.0184231345, -0.0548050292, -0.0602773204, -0.0407960154, -0.0312118363, -0.0397013836, 0.0079380358, -0.0244728196, 0.0278124362, -0.0426743068, 0.0029362766, -0.0252016522, 0.0084172133, -0.0188440476, 0.0223938134, -0.0393317975, 0.0184334107, -0.0396825597, -0.0083997641, -0.0292497426, -0.0252283812, -0.0130022736, 0.0246006232, 0.0117195379, -0.0290823281, -0.0227191113, 0.0003043410, 0.0061490173, -0.0039772852, 0.0246963184, -0.0134708425, -0.0077722506, 0.0247221626, -0.0333797596, -0.0112457722, -0.0025525284, 0.0036720089, 0.0056941197, -0.0051597282, 0.0059126788, 0.0115706567, 0.0261070095, -0.0224563945, -0.0185160134, 0.0006636604, -0.0135538047, 0.0093024625, -0.0050495090, -0.0037244761, 0.0147722950, -0.0393538326, 0.0141392797, -0.0481046103, -0.0507624894, 0.0113055939, 0.0166283362, -0.0306520835, -0.0649172738, -0.0277935322, 0.0001900703, 0.0180197489, -0.0476167686, 0.0067699859, -0.0216692612, 0.0183024127, 0.0299051125, 0.0024636199, -0.0045034257, 0.0320259854, -0.0225214306, -0.0103744166, 0.0043845875, -0.0326805599, -0.0590869598, -0.0241436213, -0.0323259868, 0.0109907985, 0.0045947260, -0.0372230560, 0.0138532761, 0.0268268622, 0.0126656312, -0.0048570363, -0.0536909439, 0.0185034126, 0.0248977542, 0.0281656403, 0.0134638241, -0.0083544329, -0.0098285703, 0.0273743756, 0.0261461865, 0.0399328619, 0.0435234085, -0.0112456046, -0.0088290907, 0.0564063862, -0.0076692211, 0.0210254788, -0.0400834605, -0.0583165511, -0.0187651925, 0.0040867254, -0.0035358663, -0.0427085236, 0.0146305989, 0.0232436862, -0.0082065780, 0.0212013200, -0.0317489356, 0.0152350198, -0.0156809036, -0.0073381877, -0.0422475152, -0.0431198925, -0.0235576294, 0.0147551093, 0.0179398190, -0.0201468263, -0.0427987762, 0.0294346530, 0.0160333682, -0.0050099636, -0.0473949723, 0.0391200818, -0.0264164843, -0.0013698767, -0.0426708795, 0.0184231345, -0.0548050292, -0.0602773204, -0.0407960154, -0.0312118363, -0.0397013836, 0.0079380358, -0.0244728196, 0.0278124362, -0.0426743068, 0.0029362766, -0.0252016522, 0.0084172133, -0.0188440476, 0.0223938134, -0.0393317975, 0.0184334107, -0.0396825597, -0.0083997641, -0.0292497426, -0.0252283812, -0.0130022736, 0.0246006232, 0.0117195379, -0.0290823281, -0.0227191113, 0.0003043410, 0.0061490173, -0.0039772852, 0.0246963184, -0.0134708425, -0.0077722506, 0.0247221626, -0.0333797596, -0.0112457722, -0.0025525284, 0.0036720089, 0.0056941197, -0.0051597282, 0.0059126788, 0.0115706567, 0.0261070095, -0.0224563945, -0.0185160134, 0.0006636604, -0.0135538047, 0.0093024625, -0.0050495090, -0.0037244761, 0.0147722950, -0.0393538326, 0.0141392797, -0.0481046103, -0.0507624894, 0.0113055939, 0.0166283362, -0.0306520835, -0.0649172738, -0.0277935322, 0.0001900703, 0.0180197489, -0.0476167686, 0.0067699859, -0.0216692612, 0.0183024127, 0.0299051125, 0.0024636199, -0.0045034257, 0.0320259854, -0.0225214306, -0.0103744166, 0.0043845875, -0.0326805599, -0.0590869598, -0.0241436213, -0.0323259868, 0.0109907985, 0.0045947260, -0.0372230560, 0.0138532761, 0.0268268622, 0.0126656312, -0.0048570363, -0.0536909439, 0.0185034126, 0.0248977542, 0.0281656403, 0.0134638241, -0.0083544329, -0.0098285703, 0.0273743756, 0.0261461865, 0.0399328619, 0.0435234085, -0.0112456046, -0.0088290907, 0.0564063862, -0.0076692211, 0.0210254788, -0.0400834605, -0.0583165511, -0.0187651925, 0.0040867254, -0.0035358663, -0.0427085236, 0.0146305989, 0.0232436862, -0.0082065780, 0.0212013200, -0.0317489356, 0.0152350198, -0.0156809036, -0.0073381877, -0.0422475152, -0.0431198925, -0.0235576294, 0.0147551093, 0.0179398190, -0.0201468263, -0.0427987762, 0.0294346530, 0.0160333682, -0.0050099636, -0.0473949723, 0.0391200818, -0.0264164843, -0.0013698767, -0.0426708795, 0.0184231345, -0.0548050292, -0.0602773204, -0.0407960154, -0.0312118363, -0.0397013836, 0.0079380358, -0.0244728196, 0.0278124362, -0.0426743068, 0.0029362766, -0.0252016522, 0.0084172133, -0.0188440476, 0.0223938134, -0.0393317975, 0.0184334107, -0.0396825597, -0.0083997641, -0.0292497426, -0.0252283812, -0.0130022736, 0.0246006232, 0.0117195379, -0.0290823281, -0.0227191113, 0.0003043410, 0.0061490173, -0.0039772852, 0.0246963184, -0.0134708425, -0.0077722506, 0.0247221626, -0.0333797596, -0.0112457722, -0.0025525284, 0.0036720089, 0.0056941197, -0.0051597282, 0.0059126788, 0.0115706567, 0.0261070095, -0.0224563945, -0.0185160134, 0.0006636604, -0.0135538047, 0.0093024625, -0.0050495090, -0.0037244761, 0.0147722950, -0.0393538326, 0.0141392797, -0.0481046103, -0.0507624894, 0.0113055939, 0.0166283362, -0.0306520835, -0.0649172738, -0.0277935322, 0.0001900703, 0.0180197489, -0.0476167686, 0.0067699859, -0.0216692612, 0.0183024127, 0.0299051125, 0.0024636199, -0.0045034257, 0.0320259854, -0.0225214306, -0.0103744166, 0.0043845875, -0.0326805599, -0.0590869598, -0.0241436213, -0.0323259868, 0.0109907985, 0.0045947260, -0.0372230560, 0.0138532761, 0.0268268622, 0.0126656312, -0.0048570363, -0.0536909439, 0.0185034126, 0.0248977542, 0.0281656403, 0.0134638241, -0.0083544329, -0.0098285703, 0.0273743756, 0.0261461865, 0.0399328619, 0.0435234085, -0.0112456046, -0.0088290907, 0.0564063862, -0.0076692211, 0.0210254788, -0.0400834605, -0.0583165511, -0.0187651925, 0.0040867254, -0.0035358663, -0.0427085236, 0.0146305989, 0.0232436862, -0.0082065780, 0.0212013200, -0.0317489356, 0.0152350198, -0.0156809036, -0.0073381877, -0.0422475152, -0.0431198925, -0.0235576294, 0.0147551093, 0.0179398190, -0.0201468263, -0.0427987762, 0.0294346530, 0.0160333682, -0.0050099636, -0.0473949723, 0.0391200818, -0.0264164843, -0.0013698767, -0.0426708795, 0.0184231345, -0.0548050292, -0.0602773204, -0.0407960154, -0.0312118363, -0.0397013836, 0.0079380358, -0.0244728196, 0.0278124362, -0.0426743068, 0.0029362766, -0.0252016522, 0.0084172133, -0.0188440476, 0.0223938134, -0.0393317975, 0.0184334107, -0.0396825597, -0.0083997641, -0.0292497426, -0.0252283812, -0.0130022736, 0.0246006232, 0.0117195379, -0.0290823281, -0.0227191113, 0.0003043410, 0.0061490173, -0.0039772852, 0.0246963184, -0.0134708425, -0.0077722506, 0.0247221626, -0.0333797596, -0.0112457722, -0.0025525284, 0.0036720089, 0.0056941197, -0.0051597282, 0.0059126788, 0.0115706567, 0.0261070095, -0.0224563945, -0.0185160134, 0.0006636604, -0.0135538047, 0.0093024625, -0.0050495090, -0.0037244761, 0.0147722950, -0.0393538326, 0.0141392797, -0.0481046103, -0.0507624894, 0.0113055939, 0.0166283362, -0.0306520835, -0.0649172738, -0.0277935322, 0.0001900703, 0.0180197489, -0.0476167686, 0.0067699859, -0.0216692612, 0.0183024127, 0.0299051125, 0.0024636199, -0.0045034257, 0.0320259854, -0.0225214306, -0.0103744166, 0.0043845875, -0.0326805599, -0.0590869598, -0.0241436213, -0.0323259868, 0.0109907985, 0.0045947260, -0.0372230560, 0.0138532761, 0.0268268622, 0.0126656312, -0.0048570363, -0.0536909439, 0.0185034126, 0.0248977542, 0.0281656403, 0.0134638241, -0.0083544329, -0.0098285703, 0.0273743756, 0.0261461865, 0.0399328619, 0.0435234085, -0.0112456046, -0.0088290907, 0.0564063862, -0.0076692211, 0.0210254788, -0.0400834605, -0.0583165511, -0.0187651925, 0.0040867254, -0.0035358663, -0.0427085236, 0.0146305989, 0.0232436862, -0.0082065780, 0.0212013200, -0.0317489356, 0.0152350198, -0.0156809036, -0.0073381877, -0.0422475152, -0.0431198925, -0.0235576294, 0.0147551093, 0.0179398190, -0.0201468263, -0.0427987762, 0.0294346530, 0.0160333682, -0.0050099636, -0.0473949723, 0.0391200818, -0.0264164843, -0.0013698767, -0.0426708795, 0.0184231345, -0.0548050292, -0.0602773204, -0.0407960154, -0.0312118363, -0.0397013836, 0.0079380358, -0.0244728196, 0.0278124362, -0.0426743068, 0.0029362766, -0.0252016522, 0.0084172133, -0.0188440476, 0.0223938134, -0.0393317975, 0.0184334107, -0.0396825597, -0.0083997641, -0.0292497426, -0.0252283812, -0.0130022736, 0.0246006232, 0.0117195379, -0.0290823281, -0.0227191113, 0.0003043410, 0.0061490173, -0.0039772852, 0.0246963184, -0.0134708425, -0.0077722506, 0.0247221626, -0.0333797596, -0.0112457722, -0.0025525284, 0.0036720089, 0.0056941197, -0.0051597282, 0.0059126788, 0.0115706567, 0.0261070095, -0.0224563945, -0.0185160134, 0.0006636604, -0.0135538047, 0.0093024625, -0.0050495090, -0.0037244761, 0.0147722950, -0.0393538326, 0.0141392797, -0.0481046103, -0.0507624894, 0.0113055939, 0.0166283362, -0.0306520835, -0.0649172738, -0.0277935322, 0.0001900703, 0.0180197489, -0.0476167686, 0.0067699859, -0.0216692612, 0.0183024127, 0.0299051125, 0.0024636199, -0.0045034257, 0.0320259854, -0.0225214306, -0.0103744166, 0.0043845875, -0.0326805599, -0.0590869598, -0.0241436213, -0.0323259868, 0.0109907985, 0.0045947260, -0.0372230560, 0.0138532761, 0.0268268622, 0.0126656312, -0.0048570363, -0.0536909439, 0.0185034126, 0.0248977542, 0.0281656403, 0.0134638241, -0.0083544329, -0.0098285703, 0.0273743756, 0.0261461865, 0.0399328619, 0.0435234085, -0.0112456046, -0.0088290907, 0.0564063862, -0.0076692211, 0.0210254788, -0.0400834605, -0.0583165511, -0.0187651925, 0.0040867254, -0.0035358663, -0.0427085236, 0.0146305989, 0.0232436862, -0.0082065780, 0.0212013200, -0.0317489356, 0.0152350198, -0.0156809036, -0.0073381877, -0.0422475152, -0.0431198925, -0.0235576294, 0.0147551093, 0.0179398190, -0.0201468263, -0.0427987762, 0.0294346530, 0.0160333682, -0.0050099636, -0.0473949723, 0.0391200818, -0.0264164843, -0.0013698767, -0.0426708795, 0.0184231345, -0.0548050292, -0.0602773204, -0.0407960154, -0.0312118363, -0.0397013836, 0.0079380358, -0.0244728196, 0.0278124362, -0.0426743068, 0.0029362766, -0.0252016522, 0.0084172133, -0.0188440476, 0.0223938134, -0.0393317975, 0.0184334107, -0.0396825597, -0.0083997641, -0.0292497426, -0.0252283812, -0.0130022736, 0.0246006232, 0.0117195379, -0.0290823281, -0.0227191113, 0.0003043410, 0.0061490173, -0.0039772852, 0.0246963184, -0.0134708425, -0.0077722506, 0.0247221626, -0.0333797596, -0.0112457722, -0.0025525284, 0.0036720089, 0.0056941197, -0.0051597282, 0.0059126788, 0.0115706567, 0.0261070095, -0.0224563945, -0.0185160134, 0.0006636604, -0.0135538047, 0.0093024625, -0.0050495090, -0.0037244761, 0.0147722950, -0.0393538326, 0.0141392797, -0.0481046103, -0.0507624894, 0.0113055939, 0.0166283362, -0.0306520835, -0.0649172738, -0.0277935322, 0.0001900703, 0.0180197489, -0.0476167686, 0.0067699859, -0.0216692612, 0.0183024127, 0.0299051125, 0.0024636199, -0.0045034257, 0.0320259854, -0.0225214306, -0.0103744166, 0.0043845875, -0.0326805599, -0.0590869598, -0.0241436213, -0.0323259868, 0.0109907985, 0.0045947260, -0.0372230560, 0.0138532761, 0.0268268622, 0.0126656312, -0.0048570363, -0.0536909439, 0.0185034126, 0.0248977542, 0.0281656403, 0.0134638241, -0.0083544329, -0.0098285703, 0.0273743756, 0.0261461865, 0.0399328619, 0.0435234085, -0.0112456046, -0.0088290907, 0.0564063862, -0.0076692211, 0.0210254788, -0.0400834605, -0.0583165511, -0.0187651925, 0.0040867254, -0.0035358663, -0.0427085236, 0.0146305989, 0.0232436862, -0.0082065780, 0.0212013200, -0.0317489356, 0.0152350198, -0.0156809036, -0.0073381877, -0.0422475152, -0.0431198925, -0.0235576294, 0.0147551093, 0.0179398190, -0.0201468263, -0.0427987762, 0.0294346530, 0.0160333682, -0.0050099636, -0.0473949723, 0.0391200818, -0.0264164843, -0.0013698767, -0.0426708795, 0.0184231345, -0.0548050292, -0.0602773204, -0.0407960154, -0.0312118363, -0.0397013836, 0.0079380358, -0.0244728196, 0.0278124362, -0.0426743068, 0.0029362766, -0.0252016522, 0.0084172133, -0.0188440476, 0.0223938134, -0.0393317975, 0.0184334107, -0.0396825597, -0.0083997641, -0.0292497426, -0.0252283812, -0.0130022736, 0.0246006232, 0.0117195379, -0.0290823281, -0.0227191113, 0.0003043410, 0.0061490173, -0.0039772852, 0.0246963184, -0.0134708425, -0.0077722506, 0.0247221626, -0.0333797596, -0.0112457722, -0.0025525284, 0.0036720089, 0.0056941197, -0.0051597282, 0.0059126788, 0.0115706567, 0.0261070095, -0.0224563945, -0.0185160134, 0.0006636604, -0.0135538047, 0.0093024625, -0.0050495090, -0.0037244761, 0.0147722950, -0.0393538326, 0.0141392797, -0.0481046103, -0.0507624894, 0.0113055939, 0.0166283362, -0.0306520835, -0.0649172738, -0.0277935322, 0.0001900703, 0.0180197489, -0.0476167686, 0.0067699859, -0.0216692612, 0.0183024127, 0.0299051125, 0.0024636199, -0.0045034257, 0.0320259854, -0.0225214306, -0.0103744166, 0.0043845875, -0.0326805599, -0.0590869598, -0.0241436213, -0.0323259868, 0.0109907985, 0.0045947260, -0.0372230560, 0.0138532761, 0.0268268622, 0.0126656312, -0.0048570363, -0.0536909439, 0.0185034126, 0.0248977542, 0.0281656403, 0.0134638241, -0.0083544329, -0.0098285703, 0.0273743756, 0.0261461865, 0.0399328619, 0.0435234085, -0.0112456046, -0.0088290907, 0.0564063862, -0.0076692211, 0.0210254788, -0.0400834605, -0.0583165511, -0.0187651925, 0.0040867254, -0.0035358663, -0.0427085236, 0.0146305989, 0.0232436862, -0.0082065780, 0.0212013200, -0.0317489356, 0.0152350198, -0.0156809036, -0.0073381877, -0.0422475152, -0.0431198925, -0.0235576294, 0.0147551093, 0.0179398190, -0.0201468263, -0.0427987762, 0.0294346530, 0.0160333682, -0.0050099636, -0.0473949723, 0.0391200818, -0.0264164843, -0.0013698767, -0.0426708795, 0.0184231345, -0.0548050292, -0.0602773204, -0.0407960154, -0.0312118363, -0.0397013836, 0.0079380358, -0.0244728196, 0.0278124362, -0.0426743068, 0.0029362766, -0.0252016522, 0.0084172133, -0.0188440476, 0.0223938134, -0.0393317975, 0.0184334107, -0.0396825597, -0.0083997641, -0.0292497426, -0.0252283812, -0.0130022736, 0.0246006232, 0.0117195379, -0.0290823281, -0.0227191113, 0.0003043410, 0.0061490173, -0.0039772852, 0.0246963184, -0.0134708425, -0.0077722506, 0.0247221626, -0.0333797596, -0.0112457722, -0.0025525284, 0.0036720089, 0.0056941197, -0.0051597282, 0.0059126788, 0.0115706567, 0.0261070095, -0.0224563945, -0.0185160134, 0.0006636604, -0.0135538047, 0.0093024625, -0.0050495090, -0.0037244761, 0.0147722950, -0.0393538326, 0.0141392797, -0.0481046103, -0.0507624894, 0.0113055939, 0.0166283362, -0.0306520835, -0.0649172738, -0.0277935322, 0.0001900703, 0.0180197489, -0.0476167686, 0.0067699859, -0.0216692612, 0.0183024127, 0.0299051125, 0.0024636199, -0.0045034257, 0.0320259854, -0.0225214306, -0.0103744166, 0.0043845875, -0.0326805599, -0.0590869598, -0.0241436213, -0.0323259868, 0.0109907985, 0.0045947260, -0.0372230560, 0.0138532761, 0.0268268622, 0.0126656312, -0.0048570363, -0.0536909439, 0.0185034126, 0.0248977542, 0.0281656403, 0.0134638241, -0.0083544329, -0.0098285703, 0.0273743756, 0.0261461865, 0.0399328619, 0.0435234085, -0.0112456046, -0.0088290907, 0.0564063862, -0.0076692211, 0.0210254788, -0.0400834605, -0.0583165511, -0.0187651925, 0.0040867254, -0.0035358663, -0.0427085236, 0.0146305989, 0.0232436862, -0.0082065780, 0.0212013200, -0.0317489356, 0.0152350198, -0.0156809036, -0.0073381877, -0.0422475152, -0.0431198925, -0.0235576294, 0.0147551093, 0.0179398190, -0.0201468263, -0.0427987762, 0.0294346530, 0.0160333682, -0.0050099636, -0.0473949723, 0.0391200818, -0.0264164843, -0.0013698767, -0.0426708795, 0.0184231345, -0.0548050292, -0.0602773204, -0.0407960154, -0.0312118363, -0.0397013836, 0.0079380358, -0.0244728196, 0.0278124362, -0.0426743068, 0.0029362766, -0.0252016522, 0.0084172133, -0.0188440476, 0.0223938134, -0.0393317975, 0.0184334107, -0.0396825597, -0.0083997641, -0.0292497426, -0.0252283812, -0.0130022736, 0.0246006232, 0.0117195379, -0.0290823281, -0.0227191113, 0.0003043410, 0.0061490173, -0.0039772852, 0.0246963184, -0.0134708425, -0.0077722506, 0.0247221626, -0.0333797596, -0.0112457722, -0.0025525284, 0.0036720089, 0.0056941197, -0.0051597282, 0.0059126788, 0.0115706567, 0.0261070095, -0.0224563945, -0.0185160134, 0.0006636604, -0.0135538047, 0.0093024625, -0.0050495090, -0.0037244761, 0.0147722950, -0.0393538326, 0.0141392797, -0.0481046103, -0.0507624894, 0.0113055939, 0.0166283362, -0.0306520835, -0.0649172738, -0.0277935322, 0.0001900703, 0.0180197489, -0.0476167686, 0.0067699859, -0.0216692612, 0.0183024127, 0.0299051125, 0.0024636199, -0.0045034257, 0.0320259854, -0.0225214306, -0.0103744166, 0.0043845875, -0.0326805599, -0.0590869598, -0.0241436213, -0.0323259868, 0.0109907985, 0.0045947260, -0.0372230560, 0.0138532761, 0.0268268622, 0.0126656312, -0.0048570363, -0.0536909439, 0.0185034126, 0.0248977542, 0.0281656403, 0.0134638241, -0.0083544329, -0.0098285703, 0.0273743756, 0.0261461865, 0.0399328619, 0.0435234085, -0.0112456046, -0.0088290907, 0.0564063862, -0.0076692211, 0.0210254788, -0.0400834605, -0.0583165511, -0.0187651925, 0.0040867254, -0.0035358663, -0.0427085236, 0.0146305989, 0.0232436862, -0.0082065780, 0.0212013200, -0.0317489356, 0.0152350198, -0.0156809036, -0.0073381877, -0.0422475152, -0.0431198925, -0.0235576294, 0.0147551093, 0.0179398190, -0.0201468263, -0.0427987762, 0.0294346530, 0.0160333682, -0.0050099636, -0.0473949723, 0.0391200818, -0.0264164843, -0.0013698767, -0.0426708795, 0.0184231345, -0.0548050292, -0.0602773204, -0.0407960154, -0.0312118363, -0.0397013836, 0.0079380358, -0.0244728196, 0.0278124362, -0.0426743068, 0.0029362766, -0.0252016522, 0.0084172133, -0.0188440476, 0.0223938134, -0.0393317975, 0.0184334107, -0.0396825597, -0.0083997641, -0.0292497426, -0.0252283812, -0.0130022736, 0.0246006232, 0.0117195379, -0.0290823281, -0.0227191113, 0.0003043410, 0.0061490173, -0.0039772852, 0.0246963184, -0.0134708425, -0.0077722506, 0.0247221626, -0.0333797596, -0.0112457722, -0.0025525284, 0.0036720089, 0.0056941197, -0.0051597282, 0.0059126788, 0.0115706567, 0.0261070095, -0.0224563945, -0.0185160134, 0.0006636604, -0.0135538047, 0.0093024625, -0.0050495090, -0.0037244761, 0.0147722950, -0.0393538326, 0.0141392797, -0.0481046103, -0.0507624894, 0.0113055939, 0.0166283362, -0.0306520835, -0.0649172738, -0.0277935322, 0.0001900703, 0.0180197489, -0.0476167686, 0.0067699859, -0.0216692612, 0.0183024127, 0.0299051125, 0.0024636199, -0.0045034257, 0.0320259854, -0.0225214306, -0.0103744166, 0.0043845875, -0.0326805599, -0.0590869598, -0.0241436213, -0.0323259868, 0.0109907985, 0.0045947260, -0.0372230560, 0.0138532761, 0.0268268622, 0.0126656312, -0.0048570363, -0.0536909439, 0.0185034126, 0.0248977542, 0.0281656403, 0.0134638241, -0.0083544329, -0.0098285703, 0.0273743756, 0.0261461865, 0.0399328619, 0.0435234085, -0.0112456046, -0.0088290907, 0.0564063862, -0.0076692211, 0.0210254788, -0.0400834605, -0.0583165511, -0.0187651925, 0.0040867254, -0.0035358663, -0.0427085236, 0.0146305989, 0.0232436862, -0.0082065780, 0.0212013200, -0.0317489356, 0.0152350198, -0.0156809036, -0.0073381877, -0.0422475152, -0.0431198925, -0.0235576294, 0.0147551093, 0.0179398190, -0.0201468263, -0.0427987762, 0.0294346530, 0.0160333682, -0.0050099636, -0.0473949723, 0.0391200818, -0.0264164843, -0.0013698767, -0.0426708795, 0.0184231345, -0.0548050292, -0.0602773204, -0.0407960154, -0.0312118363, -0.0397013836, 0.0079380358, -0.0244728196, 0.0278124362, -0.0426743068, 0.0029362766, -0.0252016522, 0.0084172133, -0.0188440476, 0.0223938134, -0.0393317975, 0.0184334107, -0.0396825597, -0.0083997641, -0.0292497426, -0.0252283812, -0.0130022736, 0.0246006232, 0.0117195379, -0.0290823281, -0.0227191113, 0.0003043410, 0.0061490173, -0.0039772852, 0.0246963184, -0.0134708425, -0.0077722506, 0.0247221626, -0.0333797596, -0.0112457722, -0.0025525284, 0.0036720089, 0.0056941197, -0.0051597282, 0.0059126788, 0.0115706567, 0.0261070095, -0.0224563945, -0.0185160134, 0.0006636604, -0.0135538047, 0.0093024625, -0.0050495090, -0.0037244761, 0.0147722950, -0.0393538326, 0.0141392797, -0.0481046103, -0.0507624894, 0.0113055939, 0.0166283362, -0.0306520835, -0.0649172738, -0.0277935322, 0.0001900703, 0.0180197489, -0.0476167686, 0.0067699859, -0.0216692612, 0.0183024127, 0.0299051125, 0.0024636199, -0.0045034257, 0.0320259854, -0.0225214306, -0.0103744166, 0.0043845875, -0.0326805599, -0.0590869598, -0.0241436213, -0.0323259868, 0.0109907985, 0.0045947260, -0.0372230560, 0.0138532761, 0.0268268622, 0.0126656312, -0.0048570363, -0.0536909439, 0.0185034126, 0.0248977542, 0.0281656403, 0.0134638241, -0.0083544329, -0.0098285703, 0.0273743756, 0.0261461865, 0.0399328619, 0.0435234085, -0.0112456046, -0.0088290907, 0.0564063862, -0.0076692211, 0.0210254788, -0.0400834605, -0.0583165511, -0.0187651925, 0.0040867254, -0.0035358663, -0.0427085236, 0.0146305989, 0.0232436862, -0.0082065780, 0.0212013200, -0.0317489356, 0.0152350198, -0.0156809036, -0.0073381877, -0.0422475152, -0.0431198925, -0.0235576294, 0.0147551093, 0.0179398190, -0.0201468263, -0.0427987762, 0.0294346530, 0.0160333682, -0.0050099636, -0.0473949723, 0.0391200818, -0.0264164843, -0.0013698767, -0.0426708795, 0.0184231345, -0.0548050292, -0.0602773204, -0.0407960154, -0.0312118363, -0.0397013836, 0.0079380358, -0.0244728196, 0.0278124362, -0.0426743068, 0.0029362766, -0.0252016522, 0.0084172133, -0.0188440476, 0.0223938134, -0.0393317975, 0.0184334107, -0.0396825597, -0.0083997641, -0.0292497426, -0.0252283812, -0.0130022736, 0.0246006232, 0.0117195379, -0.0290823281, -0.0227191113, 0.0003043410, 0.0061490173, -0.0039772852, 0.0246963184, -0.0134708425, -0.0077722506, 0.0247221626, -0.0333797596, -0.0112457722, -0.0025525284, 0.0036720089, 0.0056941197, -0.0051597282, 0.0059126788, 0.0115706567, 0.0261070095, -0.0224563945, -0.0185160134, 0.0006636604, -0.0135538047, 0.0093024625, -0.0050495090, -0.0037244761, 0.0147722950, -0.0393538326, 0.0141392797, -0.0481046103, -0.0507624894, 0.0113055939, 0.0166283362, -0.0306520835, -0.0649172738, -0.0277935322, 0.0001900703, 0.0180197489, -0.0476167686, 0.0067699859, -0.0216692612, 0.0183024127, 0.0299051125, 0.0024636199, -0.0045034257, 0.0320259854, -0.0225214306, -0.0103744166, 0.0043845875, -0.0326805599, -0.0590869598, -0.0241436213, -0.0323259868, 0.0109907985, 0.0045947260, -0.0372230560, 0.0138532761, 0.0268268622, 0.0126656312, -0.0048570363, -0.0536909439, 0.0185034126, 0.0248977542, 0.0281656403, 0.0134638241, -0.0083544329, -0.0098285703, 0.0273743756, 0.0261461865, 0.0399328619, 0.0435234085, -0.0112456046, -0.0088290907, 0.0564063862, -0.0076692211, 0.0210254788, -0.0400834605, -0.0583165511, -0.0187651925, 0.0040867254, -0.0035358663, -0.0427085236, 0.0146305989, 0.0232436862, -0.0082065780, 0.0212013200, -0.0317489356, 0.0152350198, -0.0156809036, -0.0073381877, -0.0422475152, -0.0431198925, -0.0235576294, 0.0147551093, 0.0179398190, -0.0201468263, -0.0427987762, 0.0294346530, 0.0160333682, -0.0050099636, -0.0473949723, 0.0391200818, -0.0264164843, -0.0013698767, -0.0426708795, 0.0184231345, -0.0548050292, -0.0602773204, -0.0407960154, -0.0312118363, -0.0397013836, 0.0079380358, -0.0244728196, 0.0278124362, -0.0426743068, 0.0029362766, -0.0252016522, 0.0084172133, -0.0188440476, 0.0223938134, -0.0393317975, 0.0184334107, -0.0396825597, -0.0083997641, -0.0292497426, -0.0252283812, -0.0130022736, 0.0246006232, 0.0117195379, -0.0290823281, -0.0227191113, 0.0003043410, 0.0061490173, -0.0039772852, 0.0246963184, -0.0134708425, -0.0077722506, 0.0247221626, -0.0333797596, -0.0112457722, -0.0025525284, 0.0036720089, 0.0056941197, -0.0051597282, 0.0059126788, 0.0115706567, 0.0261070095, -0.0224563945, -0.0185160134, 0.0006636604, -0.0135538047, 0.0093024625, -0.0050495090, -0.0037244761, 0.0147722950, -0.0393538326, 0.0141392797, -0.0481046103, -0.0507624894, 0.0113055939, 0.0166283362, -0.0306520835, -0.0649172738, -0.0277935322, 0.0001900703, 0.0180197489, -0.0476167686, 0.0067699859, -0.0216692612, 0.0183024127, 0.0299051125, 0.0024636199, -0.0045034257, 0.0320259854, -0.0225214306, -0.0103744166, 0.0043845875, -0.0326805599, -0.0590869598, -0.0241436213, -0.0323259868, 0.0109907985, 0.0045947260, -0.0372230560, 0.0138532761, 0.0268268622, 0.0126656312, -0.0048570363, -0.0536909439, 0.0185034126, 0.0248977542, 0.0281656403, 0.0134638241, -0.0083544329, -0.0098285703, 0.0273743756, 0.0261461865, 0.0399328619, 0.0435234085, -0.0112456046, -0.0088290907, 0.0564063862, -0.0076692211, 0.0210254788, -0.0400834605, -0.0583165511, -0.0187651925, 0.0040867254, -0.0035358663, -0.0427085236, 0.0146305989, 0.0232436862, -0.0082065780, 0.0212013200, -0.0317489356, 0.0152350198, -0.0156809036, -0.0073381877, -0.0422475152, -0.0431198925, -0.0235576294, 0.0147551093, 0.0179398190, -0.0201468263, -0.0427987762, 0.0294346530, 0.0160333682, -0.0050099636, -0.0473949723, 0.0391200818, -0.0264164843, -0.0013698767, -0.0426708795, 0.0184231345, -0.0548050292, -0.0602773204, -0.0407960154, -0.0312118363, -0.0397013836, 0.0079380358, -0.0244728196, 0.0278124362, -0.0426743068, 0.0029362766, -0.0252016522, 0.0084172133, -0.0188440476, 0.0223938134, -0.0393317975, 0.0184334107, -0.0396825597, -0.0083997641, -0.0292497426, -0.0252283812, -0.0130022736, 0.0246006232, 0.0117195379, -0.0290823281, -0.0227191113, 0.0003043410, 0.0061490173, -0.0039772852, 0.0246963184, -0.0134708425, -0.0077722506, 0.0247221626, -0.0333797596, -0.0112457722, -0.0025525284, 0.0036720089, 0.0056941197, -0.0051597282, 0.0059126788, 0.0115706567, 0.0261070095, -0.0224563945, -0.0185160134, 0.0006636604, -0.0135538047, 0.0093024625, -0.0050495090, -0.0037244761, 0.0147722950, -0.0393538326, 0.0141392797, -0.0481046103, -0.0507624894, 0.0113055939, 0.0166283362, -0.0306520835, -0.0649172738, -0.0277935322, 0.0001900703, 0.0180197489, -0.0476167686, 0.0067699859, -0.0216692612, 0.0183024127, 0.0299051125, 0.0024636199, -0.0045034257, 0.0320259854, -0.0225214306, -0.0103744166, 0.0043845875, -0.0326805599, -0.0590869598, -0.0241436213, -0.0323259868, 0.0109907985, 0.0045947260, -0.0372230560, 0.0138532761, 0.0268268622, 0.0126656312, -0.0048570363, -0.0536909439, 0.0185034126, 0.0248977542, 0.0281656403, 0.0134638241, -0.0083544329, -0.0098285703, 0.0273743756, 0.0261461865, 0.0399328619, 0.0435234085, -0.0112456046, -0.0088290907, 0.0564063862, -0.0076692211, 0.0210254788, -0.0400834605, -0.0583165511, -0.0187651925, 0.0040867254, -0.0035358663, -0.0427085236, 0.0146305989, 0.0232436862, -0.0082065780, 0.0212013200, -0.0317489356, 0.0152350198, -0.0156809036, -0.0073381877, -0.0422475152, -0.0431198925, -0.0235576294, 0.0147551093, 0.0179398190, -0.0201468263, -0.0427987762, 0.0294346530, 0.0160333682, -0.0050099636, -0.0473949723, 0.0391200818, -0.0264164843, -0.0013698767, -0.0426708795, 0.0184231345, -0.0548050292, -0.0602773204, -0.0407960154, -0.0312118363, -0.0397013836, 0.0079380358, -0.0244728196, 0.0278124362, -0.0426743068, 0.0029362766, -0.0252016522, 0.0084172133, -0.0188440476, 0.0223938134, -0.0393317975, 0.0184334107, -0.0396825597, -0.0083997641, -0.0292497426, -0.0252283812, -0.0130022736, 0.0246006232, 0.0117195379, -0.0290823281, -0.0227191113, 0.0003043410, 0.0061490173, -0.0039772852, 0.0246963184, -0.0134708425, -0.0077722506, 0.0247221626, -0.0333797596, -0.0112457722, -0.0025525284, 0.0036720089, 0.0056941197, -0.0051597282, 0.0059126788, 0.0115706567, 0.0261070095, -0.0224563945, -0.0185160134, 0.0006636604, -0.0135538047, 0.0093024625, -0.0050495090, -0.0037244761, 0.0147722950, -0.0393538326, 0.0141392797, -0.0481046103, -0.0507624894, 0.0113055939, 0.0166283362, -0.0306520835, -0.0649172738, -0.0277935322, 0.0001900703, 0.0180197489, -0.0476167686, 0.0067699859, -0.0216692612, 0.0183024127, 0.0299051125, 0.0024636199, -0.0045034257, 0.0320259854, -0.0225214306, -0.0103744166, 0.0043845875, -0.0326805599, -0.0590869598, -0.0241436213, -0.0323259868, 0.0109907985, 0.0045947260, -0.0372230560, 0.0138532761, 0.0268268622, 0.0126656312, -0.0048570363, -0.0536909439, 0.0185034126, 0.0248977542, 0.0281656403, 0.0134638241, -0.0083544329, -0.0098285703, 0.0273743756, 0.0261461865, 0.0399328619, 0.0435234085, -0.0112456046, -0.0088290907, 0.0564063862, -0.0076692211, 0.0210254788, -0.0400834605, -0.0583165511, -0.0187651925, 0.0040867254, -0.0035358663, -0.0427085236, 0.0146305989, 0.0232436862, -0.0082065780, 0.0212013200, -0.0317489356, 0.0152350198, -0.0156809036, -0.0073381877, -0.0422475152, -0.0431198925, -0.0235576294, 0.0147551093, 0.0179398190, -0.0201468263, -0.0427987762, 0.0294346530, 0.0160333682, -0.0050099636, -0.0473949723, 0.0391200818, -0.0264164843, -0.0013698767, -0.0426708795, 0.0184231345, -0.0548050292, -0.0602773204, -0.0407960154, -0.0312118363, -0.0397013836, 0.0079380358, -0.0244728196, 0.0278124362, -0.0426743068, 0.0029362766, -0.0252016522, 0.0084172133, -0.0188440476, 0.0223938134, -0.0393317975, 0.0184334107, -0.0396825597, -0.0083997641, -0.0292497426, -0.0252283812, -0.0130022736, 0.0246006232, 0.0117195379, -0.0290823281, -0.0227191113, 0.0003043410, 0.0061490173, -0.0039772852, 0.0246963184, -0.0134708425, -0.0077722506, 0.0247221626, -0.0333797596, -0.0112457722, -0.0025525284, 0.0036720089, 0.0056941197, -0.0051597282, 0.0059126788, 0.0115706567, 0.0261070095, -0.0224563945, -0.0185160134, 0.0006636604, -0.0135538047, 0.0093024625, -0.0050495090, -0.0037244761, 0.0147722950, -0.0393538326, 0.0141392797, -0.0481046103, -0.0507624894, 0.0113055939, 0.0166283362, -0.0306520835, -0.0649172738, -0.0277935322, 0.0001900703, 0.0180197489, -0.0476167686, 0.0067699859, -0.0216692612, 0.0183024127, 0.0299051125, 0.0024636199, -0.0045034257, 0.0320259854, -0.0225214306, -0.0103744166, 0.0043845875, -0.0326805599, -0.0590869598, -0.0241436213, -0.0323259868, 0.0109907985, 0.0045947260, -0.0372230560, 0.0138532761, 0.0268268622, 0.0126656312, -0.0048570363, -0.0536909439, 0.0185034126, 0.0248977542, 0.0281656403, 0.0134638241, -0.0083544329, -0.0098285703, 0.0273743756, 0.0261461865, 0.0399328619, 0.0435234085, -0.0112456046, -0.0088290907, 0.0564063862, -0.0076692211, 0.0210254788, -0.0400834605, -0.0583165511, -0.0187651925, 0.0040867254, -0.0035358663, -0.0427085236, 0.0146305989, 0.0232436862, -0.0082065780, 0.0212013200, -0.0317489356, 0.0152350198, -0.0156809036, -0.0073381877, -0.0422475152, -0.0431198925, -0.0235576294, 0.0147551093, 0.0179398190, -0.0201468263, -0.0427987762, 0.0294346530, 0.0160333682, -0.0050099636, -0.0473949723, 0.0391200818, -0.0264164843, -0.0013698767, -0.0426708795, 0.0184231345, -0.0548050292, -0.0602773204, -0.0407960154, -0.0312118363, -0.0397013836, 0.0079380358, -0.0244728196, 0.0278124362, -0.0426743068, 0.0029362766, -0.0252016522, 0.0084172133, -0.0188440476, 0.0223938134, -0.0393317975, 0.0184334107, -0.0396825597, -0.0083997641, -0.0292497426, -0.0252283812, -0.0130022736, 0.0246006232, 0.0117195379, -0.0290823281, -0.0227191113, 0.0003043410, 0.0061490173, -0.0039772852, 0.0246963184, -0.0134708425, -0.0077722506, 0.0247221626, -0.0333797596, -0.0112457722, -0.0025525284, 0.0036720089, 0.0056941197, -0.0051597282, 0.0059126788, 0.0115706567, 0.0261070095, -0.0224563945, -0.0185160134, 0.0006636604, -0.0135538047, 0.0093024625, -0.0050495090, -0.0037244761, 0.0147722950, -0.0393538326, 0.0141392797, -0.0481046103, -0.0507624894, 0.0113055939, 0.0166283362, -0.0306520835, -0.0649172738, -0.0277935322, 0.0001900703, 0.0180197489, -0.0476167686, 0.0067699859, -0.0216692612, 0.0183024127, 0.0299051125, 0.0024636199, -0.0045034257, 0.0320259854, -0.0225214306, -0.0103744166, 0.0043845875, -0.0326805599, -0.0590869598, -0.0241436213, -0.0323259868, 0.0109907985, 0.0045947260, -0.0372230560, 0.0138532761, 0.0268268622, 0.0126656312, -0.0048570363, -0.0536909439, 0.0185034126, 0.0248977542, 0.0281656403, 0.0134638241, -0.0083544329, -0.0098285703, 0.0273743756, 0.0261461865, 0.0399328619, 0.0435234085, -0.0112456046, -0.0088290907, 0.0564063862, -0.0076692211, 0.0210254788, -0.0400834605, -0.0583165511, -0.0187651925, 0.0040867254, -0.0035358663, -0.0427085236, 0.0146305989, 0.0232436862, -0.0082065780, 0.0212013200, -0.0317489356, 0.0152350198, -0.0156809036, -0.0073381877, -0.0422475152, -0.0431198925, -0.0235576294, 0.0147551093, 0.0179398190, -0.0201468263, -0.0427987762, 0.0294346530, 0.0160333682, -0.0050099636, -0.0473949723, 0.0391200818, -0.0264164843, -0.0013698767, -0.0426708795, 0.0184231345, -0.0548050292, -0.0602773204, -0.0407960154, -0.0312118363, -0.0397013836, 0.0079380358, -0.0244728196, 0.0278124362, -0.0426743068, 0.0029362766, -0.0252016522, 0.0084172133, -0.0188440476, 0.0223938134, -0.0393317975, 0.0184334107, -0.0396825597, -0.0083997641, -0.0292497426, -0.0252283812, -0.0130022736, 0.0246006232, 0.0117195379, -0.0290823281, -0.0227191113, 0.0003043410, 0.0061490173, -0.0039772852, 0.0246963184, -0.0134708425, -0.0077722506, 0.0247221626, -0.0333797596, -0.0112457722, -0.0025525284, 0.0036720089, 0.0056941197, -0.0051597282, 0.0059126788, 0.0115706567, 0.0261070095, -0.0224563945, -0.0185160134, 0.0006636604, -0.0135538047, 0.0093024625, -0.0050495090, -0.0037244761, 0.0147722950, -0.0393538326, 0.0141392797, -0.0481046103, -0.0507624894, 0.0113055939, 0.0166283362, -0.0306520835, -0.0649172738, -0.0277935322, 0.0001900703, 0.0180197489, -0.0476167686, 0.0067699859, -0.0216692612, 0.0183024127, 0.0299051125, 0.0024636199, -0.0045034257, 0.0320259854, -0.0225214306, -0.0103744166, 0.0043845875, -0.0326805599, -0.0590869598, -0.0241436213, -0.0323259868, 0.0109907985, 0.0045947260, -0.0372230560, 0.0138532761, 0.0268268622, 0.0126656312, -0.0048570363, -0.0536909439, 0.0185034126, 0.0248977542, 0.0281656403, 0.0134638241, -0.0083544329, -0.0098285703, 0.0273743756, 0.0261461865, 0.0399328619, 0.0435234085, -0.0112456046, -0.0088290907, 0.0564063862, -0.0076692211, 0.0210254788, -0.0400834605, -0.0583165511, -0.0187651925, 0.0040867254, -0.0035358663, -0.0427085236, 0.0146305989, 0.0232436862, -0.0082065780, 0.0212013200, -0.0317489356, 0.0152350198, -0.0156809036, -0.0073381877, -0.0422475152, -0.0431198925, -0.0235576294, 0.0147551093, 0.0179398190, -0.0201468263, -0.0427987762, 0.0294346530, 0.0160333682, -0.0050099636, -0.0473949723, 0.0391200818, -0.0264164843, -0.0013698767, -0.0426708795, 0.0184231345, -0.0548050292, -0.0602773204, -0.0407960154, -0.0312118363, -0.0397013836, 0.0079380358, -0.0244728196, 0.0278124362, -0.0426743068, 0.0029362766, -0.0252016522, 0.0084172133, -0.0188440476, 0.0223938134, -0.0393317975, 0.0184334107, -0.0396825597, -0.0083997641, -0.0292497426, -0.0252283812, -0.0130022736, 0.0246006232, 0.0117195379, -0.0290823281, -0.0227191113, 0.0003043410, 0.0061490173, -0.0039772852, 0.0246963184, -0.0134708425, -0.0077722506, 0.0247221626, -0.0333797596, -0.0112457722, -0.0025525284, 0.0036720089, 0.0056941197, -0.0051597282, 0.0059126788, 0.0115706567, 0.0261070095, -0.0224563945, -0.0185160134, 0.0006636604, -0.0135538047, 0.0093024625, -0.0050495090, -0.0037244761, 0.0147722950, -0.0393538326, 0.0141392797, -0.0481046103, -0.0507624894, 0.0113055939, 0.0166283362, -0.0306520835, -0.0649172738, -0.0277935322, 0.0001900703, 0.0180197489, -0.0476167686, 0.0067699859, -0.0216692612, 0.0183024127, 0.0299051125, 0.0024636199, -0.0045034257, 0.0320259854, -0.0225214306, -0.0103744166, 0.0043845875, -0.0326805599, -0.0590869598, -0.0241436213, -0.0323259868, 0.0109907985, 0.0045947260, -0.0372230560, 0.0138532761, 0.0268268622, 0.0126656312, -0.0048570363, -0.0536909439, 0.0185034126, 0.0248977542, 0.0281656403, 0.0134638241, -0.0083544329, -0.0098285703, 0.0273743756, 0.0261461865, 0.0399328619, 0.0435234085, -0.0112456046, -0.0088290907, 0.0564063862, -0.0076692211, 0.0210254788, -0.0400834605, -0.0583165511, -0.0187651925, 0.0040867254, -0.0035358663, -0.0427085236, 0.0146305989, 0.0232436862, -0.0082065780, 0.0212013200, -0.0317489356, 0.0152350198, -0.0156809036, -0.0073381877, -0.0422475152, -0.0431198925, -0.0235576294, 0.0147551093, 0.0179398190, -0.0201468263, -0.0427987762, 0.0294346530, 0.0160333682, -0.0050099636, -0.0473949723, 0.0391200818, -0.0264164843, -0.0013698767, -0.0426708795, 0.0184231345, -0.0548050292, -0.0602773204, -0.0407960154, -0.0312118363, -0.0397013836, 0.0079380358, -0.0244728196, 0.0278124362, -0.0426743068, 0.0029362766, -0.0252016522, 0.0084172133, -0.0188440476, 0.0223938134, -0.0393317975, 0.0184334107, -0.0396825597, -0.0083997641, -0.0292497426, -0.0252283812, -0.0130022736, 0.0246006232, 0.0117195379, -0.0290823281, -0.0227191113, 0.0003043410, 0.0061490173, -0.0039772852, 0.0246963184, -0.0134708425, -0.0077722506, 0.0247221626, -0.0333797596, -0.0112457722, -0.0025525284, 0.0036720089, 0.0056941197, -0.0051597282, 0.0059126788, 0.0115706567, 0.0261070095, -0.0224563945, -0.0185160134, 0.0006636604, -0.0135538047, 0.0093024625, -0.0050495090, -0.0037244761, 0.0147722950, -0.0393538326, 0.0141392797, -0.0481046103, -0.0507624894, 0.0113055939, 0.0166283362, -0.0306520835, -0.0649172738, -0.0277935322, 0.0001900703, 0.0180197489, -0.0476167686, 0.0067699859, -0.0216692612, 0.0183024127, 0.0299051125, 0.0024636199, -0.0045034257, 0.0320259854, -0.0225214306, -0.0103744166, 0.0043845875, -0.0326805599, -0.0590869598, -0.0241436213, -0.0323259868, 0.0109907985, 0.0045947260, -0.0372230560, 0.0138532761, 0.0268268622, 0.0126656312, -0.0048570363, -0.0536909439, 0.0185034126, 0.0248977542, 0.0281656403, 0.0134638241, -0.0083544329, -0.0098285703, 0.0273743756, 0.0261461865, 0.0399328619, 0.0435234085, -0.0112456046, -0.0088290907, 0.0564063862, -0.0076692211, 0.0210254788, -0.0400834605, -0.0583165511, -0.0187651925, 0.0040867254, -0.0035358663, -0.0427085236, 0.0146305989, 0.0232436862, -0.0082065780, 0.0212013200, -0.0317489356, 0.0152350198, -0.0156809036, -0.0073381877, -0.0422475152, -0.0431198925, -0.0235576294, 0.0147551093, 0.0179398190, -0.0201468263, -0.0427987762, 0.0294346530, 0.0160333682, -0.0050099636, -0.0473949723, 0.0391200818, -0.0264164843, -0.0013698767, -0.0426708795, 0.0184231345, -0.0548050292, -0.0602773204, -0.0407960154, -0.0312118363, -0.0397013836, 0.0079380358, -0.0244728196, 0.0278124362, -0.0426743068, 0.0029362766, -0.0252016522, 0.0084172133, -0.0188440476, 0.0223938134, -0.0393317975, 0.0184334107, -0.0396825597, -0.0083997641, -0.0292497426, -0.0252283812, -0.0130022736, 0.0246006232, 0.0117195379, -0.0290823281, -0.0227191113, 0.0003043410, 0.0061490173, -0.0039772852, 0.0246963184, -0.0134708425, -0.0077722506, 0.0247221626, -0.0333797596, -0.0112457722, -0.0025525284, 0.0036720089, 0.0056941197, -0.0051597282, 0.0059126788, 0.0115706567, 0.0261070095, -0.0224563945, -0.0185160134, 0.0006636604, -0.0135538047, 0.0093024625, -0.0050495090, -0.0037244761, 0.0147722950, -0.0393538326, 0.0141392797, -0.0481046103, -0.0507624894, 0.0113055939, 0.0166283362, -0.0306520835, -0.0649172738, -0.0277935322, 0.0001900703, 0.0180197489, -0.0476167686, 0.0067699859, -0.0216692612, 0.0183024127, 0.0299051125, 0.0024636199, -0.0045034257, 0.0320259854, -0.0225214306, -0.0103744166, 0.0043845875, -0.0326805599, -0.0590869598, -0.0241436213, -0.0323259868, 0.0109907985, 0.0045947260, -0.0372230560, 0.0138532761, 0.0268268622, 0.0126656312, -0.0048570363, -0.0536909439, 0.0185034126, 0.0248977542, 0.0281656403, 0.0134638241, -0.0083544329, -0.0098285703, 0.0273743756, 0.0261461865, 0.0399328619, 0.0435234085, -0.0112456046, -0.0088290907, 0.0564063862, -0.0076692211, 0.0210254788, -0.0400834605, -0.0583165511, -0.0187651925, 0.0040867254, -0.0035358663, -0.0427085236, 0.0146305989, 0.0232436862, -0.0082065780, 0.0212013200, -0.0317489356, 0.0152350198, -0.0156809036, -0.0073381877, -0.0422475152, -0.0431198925, -0.0235576294, 0.0147551093, 0.0179398190, -0.0201468263, -0.0427987762, 0.0294346530, 0.0160333682, -0.0050099636, -0.0473949723, 0.0391200818, -0.0264164843, -0.0013698767, -0.0426708795, 0.0184231345, -0.0548050292, -0.0602773204, -0.0407960154, -0.0312118363, -0.0397013836, 0.0079380358, -0.0244728196, 0.0278124362, -0.0426743068, 0.0029362766, -0.0252016522, 0.0084172133, -0.0188440476, 0.0223938134, -0.0393317975, 0.0184334107, -0.0396825597, -0.0083997641, -0.0292497426, -0.0252283812, -0.0130022736, 0.0246006232, 0.0117195379, -0.0290823281, -0.0227191113, 0.0003043410, 0.0061490173, -0.0039772852, 0.0246963184, -0.0134708425, -0.0077722506, 0.0247221626, -0.0333797596, -0.0112457722, -0.0025525284, 0.0036720089, 0.0056941197, -0.0051597282, 0.0059126788, 0.0115706567, 0.0261070095, -0.0224563945, -0.0185160134, 0.0006636604, -0.0135538047, 0.0093024625, -0.0050495090, -0.0037244761, 0.0147722950, -0.0393538326, 0.0141392797, -0.0481046103, -0.0507624894, 0.0113055939, 0.0166283362, -0.0306520835, -0.0649172738, -0.0277935322, 0.0001900703, 0.0180197489, -0.0476167686, 0.0067699859, -0.0216692612, 0.0183024127, 0.0299051125, 0.0024636199, -0.0045034257, 0.0320259854, -0.0225214306, -0.0103744166, 0.0043845875, -0.0326805599, -0.0590869598, -0.0241436213, -0.0323259868, 0.0109907985, 0.0045947260, -0.0372230560, 0.0138532761, 0.0268268622, 0.0126656312, -0.0048570363, -0.0536909439, 0.0185034126, 0.0248977542, 0.0281656403, 0.0134638241, -0.0083544329, -0.0098285703, 0.0273743756, 0.0261461865, 0.0399328619, 0.0435234085, -0.0112456046, -0.0088290907, 0.0564063862, -0.0076692211, 0.0210254788, -0.0400834605, -0.0583165511, -0.0187651925, 0.0040867254, -0.0035358663, -0.0427085236, 0.0146305989, 0.0232436862, -0.0082065780, 0.0212013200, -0.0317489356, 0.0152350198, -0.0156809036, -0.0073381877, -0.0422475152, -0.0431198925, -0.0235576294, 0.0147551093, 0.0179398190, -0.0201468263, -0.0427987762, 0.0294346530, 0.0160333682, -0.0050099636, -0.0473949723, 0.0391200818, -0.0264164843, -0.0013698767, -0.0426708795, 0.0184231345, -0.0548050292, -0.0602773204, -0.0407960154, -0.0312118363, -0.0397013836, 0.0079380358, -0.0244728196, 0.0278124362, -0.0426743068, 0.0029362766, -0.0252016522, 0.0084172133, -0.0188440476, 0.0223938134, -0.0393317975, 0.0184334107, -0.0396825597, -0.0083997641, -0.0292497426, -0.0252283812, -0.0130022736, 0.0246006232, 0.0117195379, -0.0290823281, -0.0227191113, 0.0003043410, 0.0061490173, -0.0039772852, 0.0246963184, -0.0134708425, -0.0077722506, 0.0247221626, -0.0333797596, -0.0112457722, -0.0025525284, 0.0036720089, 0.0056941197, -0.0051597282, 0.0059126788, 0.0115706567, 0.0261070095, -0.0224563945, -0.0185160134, 0.0006636604, -0.0135538047, 0.0093024625, -0.0050495090, -0.0037244761, 0.0147722950, -0.0393538326, 0.0141392797, -0.0481046103, -0.0507624894, 0.0113055939, 0.0166283362, -0.0306520835, -0.0649172738, -0.0277935322, 0.0001900703, 0.0180197489, -0.0476167686, 0.0067699859, -0.0216692612, 0.0183024127, 0.0299051125, 0.0024636199, -0.0045034257, 0.0320259854, -0.0225214306, -0.0103744166, 0.0043845875, -0.0326805599, -0.0590869598, -0.0241436213, -0.0323259868, 0.0109907985, 0.0045947260, -0.0372230560, 0.0138532761, 0.0268268622, 0.0126656312, -0.0048570363, -0.0536909439, 0.0185034126, 0.0248977542, 0.0281656403, 0.0134638241, -0.0083544329, -0.0098285703, 0.0273743756, 0.0261461865, 0.0399328619, 0.0435234085, -0.0112456046, -0.0088290907, 0.0564063862, -0.0076692211, 0.0210254788, -0.0400834605, -0.0583165511, -0.0187651925, 0.0040867254, -0.0035358663, -0.0427085236, 0.0146305989, 0.0232436862, -0.0082065780, 0.0212013200, -0.0317489356, 0.0152350198, -0.0156809036, -0.0073381877, -0.0422475152, -0.0431198925, -0.0235576294, 0.0147551093, 0.0179398190, -0.0201468263, -0.0427987762, 0.0294346530, 0.0160333682, -0.0050099636, -0.0473949723, 0.0391200818, -0.0264164843, -0.0013698767, -0.0426708795, 0.0184231345, -0.0548050292, -0.0602773204, -0.0407960154, -0.0312118363, -0.0397013836, 0.0079380358, -0.0244728196, 0.0278124362, -0.0426743068, 0.0029362766, -0.0252016522, 0.0084172133, -0.0188440476, 0.0223938134, -0.0393317975, 0.0184334107, -0.0396825597, -0.0083997641, -0.0292497426, -0.0252283812, -0.0130022736, 0.0246006232, 0.0117195379, -0.0290823281, -0.0227191113, 0.0003043410, 0.0061490173, -0.0039772852, 0.0246963184, -0.0134708425, -0.0077722506, 0.0247221626, -0.0333797596, -0.0112457722, -0.0025525284, 0.0036720089, 0.0056941197, -0.0051597282, 0.0059126788, 0.0115706567, 0.0261070095, -0.0224563945, -0.0185160134, 0.0006636604, -0.0135538047, 0.0093024625, -0.0050495090, -0.0037244761, 0.0147722950, -0.0393538326, 0.0141392797, -0.0481046103, -0.0507624894, 0.0113055939, 0.0166283362, -0.0306520835, -0.0649172738, -0.0277935322, 0.0001900703, 0.0180197489, -0.0476167686, 0.0067699859, -0.0216692612, 0.0183024127, 0.0299051125, 0.0024636199, -0.0045034257, 0.0320259854, -0.0225214306, -0.0103744166, 0.0043845875, -0.0326805599, -0.0590869598, -0.0241436213, -0.0323259868, 0.0109907985, 0.0045947260, -0.0372230560, 0.0138532761, 0.0268268622, 0.0126656312, -0.0048570363, -0.0536909439, 0.0185034126, 0.0248977542, 0.0281656403, 0.0134638241, -0.0083544329, -0.0098285703, 0.0273743756, 0.0261461865, 0.0399328619, 0.0435234085, -0.0112456046, -0.0088290907, 0.0564063862, -0.0076692211, 0.0210254788, -0.0400834605, -0.0583165511, -0.0187651925, 0.0040867254, -0.0035358663, -0.0427085236, 0.0146305989, 0.0232436862, -0.0082065780, 0.0212013200, -0.0317489356, 0.0152350198, -0.0156809036, -0.0073381877, -0.0422475152, -0.0431198925, -0.0235576294, 0.0147551093, 0.0179398190, -0.0201468263, -0.0427987762, 0.0294346530, 0.0160333682, -0.0050099636, -0.0473949723, 0.0391200818, -0.0264164843, -0.0013698767, -0.0426708795, 0.0184231345, -0.0548050292, -0.0602773204, -0.0407960154, -0.0312118363, -0.0397013836, 0.0079380358, -0.0244728196, 0.0278124362, -0.0426743068, 0.0029362766, -0.0252016522, 0.0084172133, -0.0188440476, 0.0223938134, -0.0393317975, 0.0184334107, -0.0396825597, -0.0083997641, -0.0292497426, -0.0252283812, -0.0130022736, 0.0246006232, 0.0117195379, -0.0290823281, -0.0227191113, 0.0003043410, 0.0061490173, -0.0039772852, 0.0246963184, -0.0134708425, -0.0077722506, 0.0247221626, -0.0333797596, -0.0112457722, -0.0025525284, 0.0036720089, 0.0056941197, -0.0051597282, 0.0059126788, 0.0115706567, 0.0261070095, -0.0224563945, -0.0185160134, 0.0006636604, -0.0135538047, 0.0093024625, -0.0050495090, -0.0037244761, 0.0147722950, -0.0393538326, 0.0141392797, -0.0481046103, -0.0507624894, 0.0113055939, 0.0166283362, -0.0306520835, -0.0649172738, -0.0277935322, 0.0001900703, 0.0180197489, -0.0476167686, 0.0067699859, -0.0216692612, 0.0183024127, 0.0299051125, 0.0024636199, -0.0045034257, 0.0320259854, -0.0225214306, -0.0103744166, 0.0043845875, -0.0326805599, -0.0590869598, -0.0241436213, -0.0323259868, 0.0109907985, 0.0045947260, -0.0372230560, 0.0138532761, 0.0268268622, 0.0126656312, -0.0048570363, -0.0536909439, 0.0185034126, 0.0248977542, 0.0281656403, 0.0134638241, -0.0083544329, -0.0098285703, 0.0273743756, 0.0261461865, 0.0399328619, 0.0435234085, -0.0112456046, -0.0088290907, 0.0564063862, -0.0076692211, 0.0210254788, -0.0400834605, -0.0583165511, -0.0187651925, 0.0040867254, -0.0035358663, -0.0427085236, 0.0146305989, 0.0232436862, -0.0082065780, 0.0212013200, -0.0317489356, 0.0152350198, -0.0156809036, -0.0073381877, -0.0422475152, -0.0431198925, -0.0235576294, 0.0147551093, 0.0179398190, -0.0201468263, -0.0427987762, 0.0294346530, 0.0160333682, -0.0050099636, -0.0473949723, 0.0391200818, -0.0264164843, -0.0013698767, -0.0426708795, 0.0184231345, -0.0548050292, -0.0602773204, -0.0407960154, -0.0312118363, -0.0397013836, 0.0079380358, -0.0244728196, 0.0278124362, -0.0426743068, 0.0029362766, -0.0252016522, 0.0084172133, -0.0188440476, 0.0223938134, -0.0393317975, 0.0184334107, -0.0396825597, -0.0083997641, -0.0292497426, -0.0252283812, -0.0130022736, 0.0246006232, 0.0117195379, -0.0290823281, -0.0227191113, 0.0003043410, 0.0061490173, -0.0039772852, 0.0246963184, -0.0134708425, -0.0077722506, 0.0247221626, -0.0333797596, -0.0112457722, -0.0025525284, 0.0036720089, 0.0056941197, -0.0051597282, 0.0059126788, 0.0115706567, 0.0261070095, -0.0224563945, -0.0185160134, 0.0006636604, -0.0135538047, 0.0093024625, -0.0050495090, -0.0037244761, 0.0147722950, -0.0393538326, 0.0141392797, -0.0481046103, -0.0507624894, 0.0113055939, 0.0166283362, -0.0306520835, -0.0649172738, -0.0277935322, 0.0001900703, 0.0180197489, -0.0476167686, 0.0067699859, -0.0216692612, 0.0183024127, 0.0299051125, 0.0024636199, -0.0045034257, 0.0320259854, -0.0225214306, -0.0103744166, 0.0043845875, -0.0326805599, -0.0590869598, -0.0241436213, -0.0323259868, 0.0109907985, 0.0045947260, -0.0372230560, 0.0138532761, 0.0268268622, 0.0126656312, -0.0048570363, -0.0536909439, 0.0185034126, 0.0248977542, 0.0281656403, 0.0134638241, -0.0083544329, -0.0098285703, 0.0273743756, 0.0261461865, 0.0399328619, 0.0435234085, -0.0112456046, -0.0088290907, 0.0564063862, -0.0076692211, 0.0210254788, -0.0400834605, -0.0583165511, -0.0187651925, 0.0040867254, -0.0035358663, -0.0427085236, 0.0146305989, 0.0232436862, -0.0082065780, 0.0212013200, -0.0317489356, 0.0152350198, -0.0156809036, -0.0073381877, -0.0422475152, -0.0431198925, -0.0235576294, 0.0147551093, 0.0179398190, -0.0201468263, -0.0427987762, 0.0294346530, 0.0160333682, -0.0050099636, -0.0473949723, 0.0391200818, -0.0264164843, -0.0013698767, -0.0426708795, 0.0184231345, -0.0548050292, -0.0602773204, -0.0407960154, -0.0312118363, -0.0397013836, 0.0079380358, -0.0244728196, 0.0278124362, -0.0426743068, 0.0029362766, -0.0252016522, 0.0084172133, -0.0188440476, 0.0223938134, -0.0393317975, 0.0184334107, -0.0396825597, -0.0083997641, -0.0292497426, -0.0252283812, -0.0130022736, 0.0246006232, 0.0117195379, -0.0290823281, -0.0227191113, 0.0003043410, 0.0061490173, -0.0039772852, 0.0246963184, -0.0134708425, -0.0077722506, 0.0247221626, -0.0333797596, -0.0112457722, -0.0025525284, 0.0036720089, 0.0056941197, -0.0051597282, 0.0059126788, 0.0115706567, 0.0261070095, -0.0224563945, -0.0185160134, 0.0006636604, -0.0135538047, 0.0093024625, -0.0050495090, -0.0037244761, 0.0147722950, -0.0393538326, 0.0141392797, -0.0481046103, -0.0507624894, 0.0113055939, 0.0166283362, -0.0306520835, -0.0649172738, -0.0277935322, 0.0001900703, 0.0180197489, -0.0476167686, 0.0067699859, -0.0216692612, 0.0183024127, 0.0299051125, 0.0024636199, -0.0045034257, 0.0320259854, -0.0225214306, -0.0103744166, 0.0043845875, -0.0326805599, -0.0590869598, -0.0241436213, -0.0323259868, 0.0109907985, 0.0045947260, -0.0372230560, 0.0138532761, 0.0268268622, 0.0126656312, -0.0048570363, -0.0536909439, 0.0185034126, 0.0248977542, 0.0281656403, 0.0134638241, -0.0083544329, -0.0098285703, 0.0273743756, 0.0261461865, 0.0399328619, 0.0435234085, -0.0112456046, -0.0088290907, 0.0564063862, -0.0076692211, 0.0210254788, -0.0400834605, -0.0583165511, -0.0187651925, 0.0040867254, -0.0035358663, -0.0427085236, 0.0146305989, 0.0232436862, -0.0082065780, 0.0212013200, -0.0317489356, 0.0152350198, -0.0156809036, -0.0073381877, -0.0422475152, -0.0431198925, -0.0235576294, 0.0147551093, 0.0179398190, -0.0201468263, -0.0427987762, 0.0294346530, 0.0160333682, -0.0050099636, -0.0473949723, 0.0391200818, -0.0264164843, -0.0013698767, -0.0426708795, 0.0184231345, -0.0548050292, -0.0602773204, -0.0407960154, -0.0312118363, -0.0397013836, 0.0079380358, -0.0244728196, 0.0278124362, -0.0426743068, 0.0029362766, -0.0252016522, 0.0084172133, -0.0188440476, 0.0223938134, -0.0393317975, 0.0184334107, -0.0396825597, -0.0083997641, -0.0292497426, -0.0252283812, -0.0130022736, 0.0246006232, 0.0117195379, -0.0290823281, -0.0227191113, 0.0003043410, 0.0061490173, -0.0039772852, 0.0246963184, -0.0134708425, -0.0077722506, 0.0247221626, -0.0333797596, -0.0112457722, -0.0025525284, 0.0036720089, 0.0056941197, -0.0051597282, 0.0059126788, 0.0115706567, 0.0261070095, -0.0224563945, -0.0185160134, 0.0006636604, -0.0135538047, 0.0093024625, -0.0050495090, -0.0037244761, 0.0147722950, -0.0393538326, 0.0141392797, -0.0481046103, -0.0507624894, 0.0113055939, 0.0166283362, -0.0306520835, -0.0649172738, -0.0277935322, 0.0001900703, 0.0180197489, -0.0476167686, 0.0067699859, -0.0216692612, 0.0183024127, 0.0299051125, 0.0024636199, -0.0045034257, 0.0320259854, -0.0225214306, -0.0103744166, 0.0043845875, -0.0326805599, -0.0590869598, -0.0241436213, -0.0323259868, 0.0109907985, 0.0045947260, -0.0372230560, 0.0138532761, 0.0268268622, 0.0126656312, -0.0048570363, -0.0536909439, 0.0185034126, 0.0248977542, 0.0281656403, 0.0134638241, -0.0083544329, -0.0098285703, 0.0273743756, 0.0261461865, 0.0399328619, 0.0435234085, -0.0112456046, -0.0088290907, 0.0564063862, -0.0076692211, 0.0210254788, -0.0400834605, -0.0583165511, -0.0187651925, 0.0040867254, -0.0035358663, -0.0427085236, 0.0146305989, 0.0232436862, -0.0082065780, 0.0212013200, -0.0317489356, 0.0152350198, -0.0156809036, -0.0073381877, -0.0422475152, -0.0431198925, -0.0235576294, 0.0147551093, 0.0179398190, -0.0201468263, -0.0427987762, 0.0294346530, 0.0160333682, -0.0050099636, -0.0473949723, 0.0391200818, -0.0264164843, -0.0013698767, -0.0426708795, 0.0184231345, -0.0548050292, -0.0602773204, -0.0407960154, -0.0312118363, -0.0397013836, 0.0079380358, -0.0244728196, 0.0278124362, -0.0426743068, 0.0029362766, -0.0252016522, 0.0084172133, -0.0188440476, 0.0223938134, -0.0393317975, 0.0184334107, -0.0396825597, -0.0083997641, -0.0292497426, -0.0252283812, -0.0130022736, 0.0246006232, 0.0117195379, -0.0290823281, -0.0227191113, 0.0003043410, 0.0061490173, -0.0039772852, 0.0246963184, -0.0134708425, -0.0077722506, 0.0247221626, -0.0333797596, -0.0112457722, -0.0025525284, 0.0036720089, 0.0056941197, -0.0051597282, 0.0059126788, 0.0115706567, 0.0261070095, -0.0224563945, -0.0185160134, 0.0006636604, -0.0135538047, 0.0093024625, -0.0050495090, -0.0037244761, 0.0147722950, -0.0393538326, 0.0141392797, -0.0481046103, -0.0507624894, 0.0113055939, 0.0166283362, -0.0306520835, -0.0649172738, -0.0277935322, 0.0001900703, 0.0180197489, -0.0476167686, 0.0067699859, -0.0216692612, 0.0183024127, 0.0299051125, 0.0024636199, -0.0045034257, 0.0320259854, -0.0225214306, -0.0103744166, 0.0043845875, -0.0326805599, -0.0590869598, -0.0241436213, -0.0323259868, 0.0109907985, 0.0045947260, -0.0372230560, 0.0138532761, 0.0268268622, 0.0126656312, -0.0048570363, -0.0536909439, 0.0185034126, 0.0248977542, 0.0281656403, 0.0134638241, -0.0083544329, -0.0098285703, 0.0273743756, 0.0261461865, 0.0399328619, 0.0435234085, -0.0112456046, -0.0088290907, 0.0564063862, -0.0076692211, 0.0210254788, -0.0400834605, -0.0583165511, -0.0187651925, 0.0040867254, -0.0035358663, -0.0427085236, 0.0146305989, 0.0232436862, -0.0082065780, 0.0212013200, -0.0317489356, 0.0152350198, -0.0156809036, -0.0073381877, -0.0422475152, -0.0431198925, -0.0235576294, 0.0147551093, 0.0179398190, -0.0201468263, -0.0427987762, 0.0294346530, 0.0160333682, -0.0050099636, -0.0473949723, 0.0391200818, -0.0264164843, -0.0013698767, -0.0426708795, 0.0184231345, -0.0548050292, -0.0602773204, -0.0407960154, -0.0312118363, -0.0397013836, 0.0079380358, -0.0244728196, 0.0278124362, -0.0426743068, 0.0029362766, -0.0252016522, 0.0084172133, -0.0188440476, 0.0223938134, -0.0393317975, 0.0184334107, -0.0396825597, -0.0083997641, -0.0292497426, -0.0252283812, -0.0130022736, 0.0246006232, 0.0117195379, -0.0290823281, -0.0227191113, 0.0003043410, 0.0061490173, -0.0039772852, 0.0246963184, -0.0134708425, -0.0077722506, 0.0247221626, -0.0333797596, -0.0112457722, -0.0025525284, 0.0036720089, 0.0056941197, -0.0051597282, 0.0059126788, 0.0115706567, 0.0261070095, -0.0224563945, -0.0185160134, 0.0006636604, -0.0135538047, 0.0093024625, -0.0050495090, -0.0037244761, 0.0147722950, -0.0393538326, 0.0141392797, -0.0481046103, -0.0507624894, 0.0113055939, 0.0166283362, -0.0306520835, -0.0649172738, -0.0277935322, 0.0001900703, 0.0180197489, -0.0476167686, 0.0067699859, -0.0216692612, 0.0183024127, 0.0299051125, 0.0024636199, -0.0045034257, 0.0320259854, -0.0225214306, -0.0103744166, 0.0043845875, -0.0326805599, -0.0590869598, -0.0241436213, -0.0323259868, 0.0109907985, 0.0045947260, -0.0372230560, 0.0138532761, 0.0268268622, 0.0126656312, -0.0048570363, -0.0536909439, 0.0185034126, 0.0248977542, 0.0281656403, 0.0134638241, -0.0083544329, -0.0098285703, 0.0273743756, 0.0261461865, 0.0399328619, 0.0435234085, -0.0112456046, -0.0088290907, 0.0564063862, -0.0076692211, 0.0210254788, -0.0400834605, -0.0583165511, -0.0187651925, 0.0040867254, -0.0035358663, -0.0427085236, 0.0146305989, 0.0232436862, -0.0082065780, 0.0212013200, -0.0317489356, 0.0152350198, -0.0156809036, -0.0073381877, -0.0422475152, -0.0431198925, -0.0235576294, 0.0147551093, 0.0179398190, -0.0201468263, -0.0427987762, 0.0294346530, 0.0160333682, -0.0050099636, -0.0473949723, 0.0391200818, -0.0264164843, -0.0013698767, -0.0426708795, 0.0184231345, -0.0548050292, -0.0602773204, -0.0407960154, -0.0312118363, -0.0397013836, 0.0079380358, -0.0244728196, 0.0278124362, -0.0426743068, 0.0029362766, -0.0252016522, 0.0084172133, -0.0188440476, 0.0223938134, -0.0393317975, 0.0184334107, -0.0396825597, -0.0083997641, -0.0292497426, -0.0252283812, -0.0130022736, 0.0246006232, 0.0117195379, -0.0290823281, -0.0227191113, 0.0003043410, 0.0061490173, -0.0039772852, 0.0246963184, -0.0134708425, -0.0077722506, 0.0247221626, -0.0333797596, -0.0112457722, -0.0025525284, 0.0036720089, 0.0056941197, -0.0051597282, 0.0059126788, 0.0115706567, 0.0261070095, -0.0224563945, -0.0185160134, 0.0006636604, -0.0135538047, 0.0093024625, -0.0050495090, -0.0037244761, 0.0147722950, -0.0393538326, 0.0141392797, -0.0481046103, -0.0507624894, 0.0113055939, 0.0166283362, -0.0306520835, -0.0649172738, -0.0277935322, 0.0001900703, 0.0180197489, -0.0476167686, 0.0067699859, -0.0216692612, 0.0183024127, 0.0299051125, 0.0024636199, -0.0045034257, 0.0320259854, -0.0225214306, -0.0103744166, 0.0043845875, -0.0326805599, -0.0590869598, -0.0241436213, -0.0323259868, 0.0109907985, 0.0045947260, -0.0372230560, 0.0138532761, 0.0268268622, 0.0126656312, -0.0048570363, -0.0536909439, 0.0185034126, 0.0248977542, 0.0281656403, 0.0134638241, -0.0083544329, -0.0098285703, 0.0273743756, 0.0261461865, 0.0399328619, 0.0435234085, -0.0112456046, -0.0088290907, 0.0564063862, -0.0076692211, 0.0210254788, -0.0400834605, -0.0583165511, -0.0187651925, 0.0040867254, -0.0035358663, -0.0427085236, 0.0146305989, 0.0232436862, -0.0082065780, 0.0212013200, -0.0317489356, 0.0152350198, -0.0156809036, -0.0073381877, -0.0422475152, -0.0431198925, -0.0235576294, 0.0147551093, 0.0179398190, -0.0201468263, -0.0427987762, 0.0294346530, 0.0160333682, -0.0050099636, -0.0473949723, 0.0391200818, -0.0264164843, -0.0013698767, -0.0426708795, 0.0184231345, -0.0548050292, -0.0602773204, -0.0407960154, -0.0312118363, -0.0397013836, 0.0079380358, -0.0244728196, 0.0278124362, -0.0426743068, 0.0029362766, -0.0252016522, 0.0084172133, -0.0188440476, 0.0223938134, -0.0393317975, 0.0184334107, -0.0396825597, -0.0083997641, -0.0292497426, -0.0252283812, -0.0130022736, 0.0246006232, 0.0117195379, -0.0290823281, -0.0227191113, 0.0003043410, 0.0061490173, -0.0039772852, 0.0246963184, -0.0134708425, -0.0077722506, 0.0247221626, -0.0333797596, -0.0112457722, -0.0025525284, 0.0036720089, 0.0056941197, -0.0051597282, 0.0059126788, 0.0115706567, 0.0261070095, -0.0224563945, -0.0185160134, 0.0006636604, -0.0135538047, 0.0093024625, -0.0050495090, -0.0037244761, 0.0147722950, -0.0393538326, 0.0141392797, -0.0481046103, -0.0507624894, 0.0113055939, 0.0166283362, -0.0306520835, -0.0649172738, -0.0277935322, 0.0001900703, 0.0180197489, -0.0476167686, 0.0067699859, -0.0216692612, 0.0183024127, 0.0299051125, 0.0024636199, -0.0045034257, 0.0320259854, -0.0225214306, -0.0103744166, 0.0043845875, -0.0326805599, -0.0590869598, -0.0241436213, -0.0323259868, 0.0109907985, 0.0045947260, -0.0372230560, 0.0138532761, 0.0268268622, 0.0126656312, -0.0048570363, -0.0536909439, 0.0185034126, 0.0248977542, 0.0281656403, 0.0134638241, -0.0083544329, -0.0098285703, 0.0273743756, 0.0261461865, 0.0399328619, 0.0435234085, -0.0112456046, -0.0088290907, 0.0564063862, -0.0076692211, 0.0210254788, -0.0400834605, -0.0583165511, -0.0187651925, 0.0040867254, -0.0035358663, -0.0427085236, 0.0146305989, 0.0232436862, -0.0082065780, 0.0212013200, -0.0317489356, 0.0152350198, -0.0156809036, -0.0073381877, -0.0422475152, -0.0431198925, -0.0235576294, 0.0147551093, 0.0179398190, -0.0201468263, -0.0427987762, 0.0294346530, 0.0160333682, -0.0050099636, -0.0473949723, 0.0391200818, -0.0264164843, -0.0013698767, -0.0426708795, 0.0184231345, -0.0548050292, -0.0602773204, -0.0407960154, -0.0312118363, -0.0397013836, 0.0079380358, -0.0244728196, 0.0278124362, -0.0426743068, 0.0029362766, -0.0252016522, 0.0084172133, -0.0188440476, 0.0223938134, -0.0393317975, 0.0184334107, -0.0396825597, -0.0083997641, -0.0292497426, -0.0252283812, -0.0130022736, 0.0246006232, 0.0117195379, -0.0290823281, -0.0227191113, 0.0003043410, 0.0061490173, -0.0039772852, 0.0246963184, -0.0134708425, -0.0077722506, 0.0247221626, -0.0333797596, -0.0112457722, -0.0025525284, 0.0036720089, 0.0056941197, -0.0051597282, 0.0059126788, 0.0115706567, 0.0261070095, -0.0224563945, -0.0185160134, 0.0006636604, -0.0135538047, 0.0093024625, -0.0050495090, -0.0037244761, 0.0147722950, -0.0393538326, 0.0141392797, -0.0481046103, -0.0507624894, 0.0113055939, 0.0166283362, -0.0306520835, -0.0649172738, -0.0277935322, 0.0001900703, 0.0180197489, -0.0476167686, 0.0067699859, -0.0216692612, 0.0183024127, 0.0299051125, 0.0024636199, -0.0045034257, 0.0320259854, -0.0225214306, -0.0103744166, 0.0043845875, -0.0326805599, -0.0590869598, -0.0241436213, -0.0323259868, 0.0109907985, 0.0045947260, -0.0372230560, 0.0138532761, 0.0268268622, 0.0126656312, -0.0048570363, -0.0536909439, 0.0185034126, 0.0248977542, 0.0281656403, 0.0134638241, -0.0083544329, -0.0098285703, 0.0273743756, 0.0261461865, 0.0399328619, 0.0435234085, -0.0112456046, -0.0088290907, 0.0564063862, -0.0076692211, 0.0210254788, -0.0400834605, -0.0583165511, -0.0187651925, 0.0040867254, -0.0035358663, -0.0427085236, 0.0146305989, 0.0232436862, -0.0082065780, 0.0212013200, -0.0317489356, 0.0152350198, -0.0156809036, -0.0073381877, -0.0422475152, -0.0431198925, -0.0235576294, 0.0147551093, 0.0179398190, -0.0201468263, -0.0427987762, 0.0294346530, 0.0160333682, -0.0050099636, -0.0473949723, 0.0391200818, -0.0264164843, -0.0013698767, -0.0426708795, 0.0184231345, -0.0548050292, -0.0602773204, -0.0407960154, -0.0312118363, -0.0397013836, 0.0079380358, -0.0244728196, 0.0278124362, -0.0426743068, 0.0029362766, -0.0252016522, 0.0084172133, -0.0188440476, 0.0223938134, -0.0393317975, 0.0184334107, -0.0396825597, -0.0083997641, -0.0292497426, -0.0252283812, -0.0130022736, 0.0246006232, 0.0117195379, -0.0290823281, -0.0227191113, 0.0003043410, 0.0061490173, -0.0039772852, 0.0246963184, -0.0134708425, -0.0077722506, 0.0247221626, -0.0333797596, -0.0112457722, -0.0025525284, 0.0036720089, 0.0056941197, -0.0051597282, 0.0059126788, 0.0115706567, 0.0261070095, -0.0224563945, -0.0185160134, 0.0006636604, -0.0135538047, 0.0093024625, -0.0050495090, -0.0037244761, 0.0147722950, -0.0393538326, 0.0141392797, -0.0481046103, -0.0507624894, 0.0113055939, 0.0166283362, -0.0306520835, -0.0649172738, -0.0277935322, 0.0001900703, 0.0180197489, -0.0476167686, 0.0067699859, -0.0216692612, 0.0183024127, 0.0299051125, 0.0024636199, -0.0045034257, 0.0320259854, -0.0225214306, -0.0103744166, 0.0043845875, -0.0326805599, -0.0590869598, -0.0241436213, -0.0323259868, 0.0109907985, 0.0045947260, -0.0372230560, 0.0138532761, 0.0268268622, 0.0126656312, -0.0048570363, -0.0536909439, 0.0185034126, 0.0248977542, 0.0281656403, 0.0134638241, -0.0083544329, -0.0098285703, 0.0273743756, 0.0261461865, 0.0399328619, 0.0435234085, -0.0112456046, -0.0088290907, 0.0564063862, -0.0076692211, 0.0210254788, -0.0400834605, -0.0583165511, -0.0187651925, 0.0040867254, -0.0035358663, -0.0427085236, 0.0146305989, 0.0232436862, -0.0082065780, 0.0212013200, -0.0317489356, 0.0152350198, -0.0156809036, -0.0073381877, -0.0422475152, -0.0431198925, -0.0235576294, 0.0147551093, 0.0179398190, -0.0201468263, -0.0427987762, 0.0294346530, 0.0160333682, -0.0050099636, -0.0473949723, 0.0391200818, -0.0264164843, -0.0013698767, -0.0426708795, 0.0184231345, -0.0548050292, -0.0602773204, -0.0407960154, -0.0312118363, -0.0397013836, 0.0079380358, -0.0244728196, 0.0278124362, -0.0426743068, 0.0029362766, -0.0252016522, 0.0084172133, -0.0188440476, 0.0223938134, -0.0393317975, 0.0184334107, -0.0396825597, -0.0083997641, -0.0292497426, -0.0252283812, -0.0130022736, 0.0246006232, 0.0117195379, -0.0290823281, -0.0227191113, 0.0003043410, 0.0061490173, -0.0039772852, 0.0246963184, -0.0134708425, -0.0077722506, 0.0247221626, -0.0333797596, -0.0112457722, -0.0025525284, 0.0036720089, 0.0056941197, -0.0051597282, 0.0059126788, 0.0115706567, 0.0261070095, -0.0224563945, -0.0185160134, 0.0006636604, -0.0135538047, 0.0093024625, -0.0050495090, -0.0037244761, 0.0147722950, -0.0393538326, 0.0141392797, -0.0481046103, -0.0507624894, 0.0113055939, 0.0166283362, -0.0306520835, -0.0649172738, -0.0277935322, 0.0001900703, 0.0180197489, -0.0476167686, 0.0067699859, -0.0216692612, 0.0183024127, 0.0299051125, 0.0024636199, -0.0045034257, 0.0320259854, -0.0225214306, -0.0103744166, 0.0043845875, -0.0326805599, -0.0590869598, -0.0241436213, -0.0323259868, 0.0109907985, 0.0045947260, -0.0372230560, 0.0138532761, 0.0268268622, 0.0126656312, -0.0048570363, -0.0536909439, 0.0185034126, 0.0248977542, 0.0281656403, 0.0134638241, -0.0083544329, -0.0098285703, 0.0273743756, 0.0261461865, 0.0399328619, 0.0435234085, -0.0112456046, -0.0088290907, 0.0564063862, -0.0076692211, 0.0210254788, -0.0400834605, -0.0583165511, -0.0187651925, 0.0040867254, -0.0035358663, -0.0427085236, 0.0146305989, 0.0232436862, -0.0082065780, 0.0212013200, -0.0317489356, 0.0152350198, -0.0156809036, -0.0073381877, -0.0422475152, -0.0431198925, -0.0235576294, 0.0147551093, 0.0179398190, -0.0201468263, -0.0427987762, 0.0294346530, 0.0160333682, -0.0050099636, -0.0473949723, 0.0391200818, -0.0264164843, -0.0013698767, -0.0426708795, 0.0184231345, -0.0548050292, -0.0602773204, -0.0407960154, -0.0312118363, -0.0397013836, 0.0079380358, -0.0244728196, 0.0278124362, -0.0426743068, 0.0029362766, -0.0252016522, 0.0084172133, -0.0188440476, 0.0223938134, -0.0393317975, 0.0184334107, -0.0396825597, -0.0083997641, -0.0292497426, -0.0252283812, -0.0130022736, 0.0246006232, 0.0117195379, -0.0290823281, -0.0227191113, 0.0003043410, 0.0061490173, -0.0039772852, 0.0246963184, -0.0134708425, -0.0077722506, 0.0247221626, -0.0333797596, -0.0112457722, -0.0025525284, 0.0036720089, 0.0056941197, -0.0051597282, 0.0059126788, 0.0115706567, 0.0261070095, -0.0224563945, -0.0185160134, 0.0006636604, -0.0135538047, 0.0093024625, -0.0050495090, -0.0037244761, 0.0147722950, -0.0393538326, 0.0141392797, -0.0481046103, -0.0507624894, 0.0113055939, 0.0166283362, -0.0306520835, -0.0649172738, -0.0277935322, 0.0001900703, 0.0180197489, -0.0476167686, 0.0067699859, -0.0216692612, 0.0183024127, 0.0299051125, 0.0024636199, -0.0045034257, 0.0320259854, -0.0225214306, -0.0103744166, 0.0043845875, -0.0326805599, -0.0590869598, -0.0241436213, -0.0323259868, 0.0109907985, 0.0045947260, -0.0372230560, 0.0138532761, 0.0268268622, 0.0126656312, -0.0048570363, -0.0536909439, 0.0185034126, 0.0248977542, 0.0281656403, 0.0134638241, -0.0083544329, -0.0098285703, 0.0273743756, 0.0261461865, 0.0399328619, 0.0435234085, -0.0112456046, -0.0088290907, 0.0564063862, -0.0076692211, 0.0210254788, -0.0400834605, -0.0583165511, -0.0187651925, 0.0040867254, -0.0035358663, -0.0427085236, 0.0146305989, 0.0232436862, -0.0082065780, 0.0212013200, -0.0317489356, 0.0152350198, -0.0156809036, -0.0073381877, -0.0422475152, -0.0431198925, -0.0235576294, 0.0147551093, 0.0179398190, -0.0201468263, -0.0427987762, 0.0294346530, 0.0160333682, -0.0050099636, -0.0473949723, 0.0391200818, -0.0264164843, -0.0013698767, -0.0426708795, 0.0184231345, -0.0548050292, -0.0602773204, -0.0407960154, -0.0312118363, -0.0397013836, 0.0079380358, -0.0244728196, 0.0278124362, -0.0426743068, 0.0029362766, -0.0252016522, 0.0084172133, -0.0188440476, 0.0223938134, -0.0393317975, 0.0184334107, -0.0396825597, -0.0083997641, -0.0292497426, -0.0252283812, -0.0130022736, 0.0246006232, 0.0117195379, -0.0290823281, -0.0227191113, 0.0003043410, 0.0061490173, -0.0039772852, 0.0246963184, -0.0134708425, -0.0077722506, 0.0247221626, -0.0333797596, -0.0112457722, -0.0025525284, 0.0036720089, 0.0056941197, -0.0051597282, 0.0059126788, 0.0115706567, 0.0261070095, -0.0224563945, -0.0185160134, 0.0006636604, -0.0135538047, 0.0093024625, -0.0050495090, -0.0037244761, 0.0147722950, -0.0393538326, 0.0141392797, -0.0481046103, -0.0507624894, 0.0113055939, 0.0166283362, -0.0306520835, -0.0649172738, -0.0277935322, 0.0001900703, 0.0180197489, -0.0476167686, 0.0067699859, -0.0216692612, 0.0183024127, 0.0299051125, 0.0024636199, -0.0045034257, 0.0320259854, -0.0225214306, -0.0103744166, 0.0043845875, -0.0326805599, -0.0590869598, -0.0241436213, -0.0323259868, 0.0109907985, 0.0045947260, -0.0372230560, 0.0138532761, 0.0268268622, 0.0126656312, -0.0048570363, -0.0536909439, 0.0185034126, 0.0248977542, 0.0281656403, 0.0134638241, -0.0083544329, -0.0098285703, 0.0273743756, 0.0261461865, 0.0399328619, 0.0435234085, -0.0112456046, -0.0088290907, 0.0564063862, -0.0076692211, 0.0210254788, -0.0400834605, -0.0583165511, -0.0187651925, 0.0040867254, -0.0035358663, -0.0427085236, 0.0146305989, 0.0232436862, -0.0082065780, 0.0212013200, -0.0317489356, 0.0152350198, -0.0156809036, -0.0073381877, -0.0422475152, -0.0431198925, -0.0235576294, 0.0147551093, 0.0179398190, -0.0201468263, -0.0427987762, 0.0294346530, 0.0160333682, -0.0050099636, -0.0473949723, 0.0391200818, -0.0264164843, -0.0013698767, -0.0426708795, 0.0184231345, -0.0548050292, -0.0602773204, -0.0407960154, -0.0312118363, -0.0397013836, 0.0079380358, -0.0244728196, 0.0278124362, -0.0426743068, 0.0029362766, -0.0252016522, 0.0084172133, -0.0188440476, 0.0223938134, -0.0393317975, 0.0184334107, -0.0396825597, -0.0083997641, -0.0292497426, -0.0252283812, -0.0130022736, 0.0246006232, 0.0117195379, -0.0290823281, -0.0227191113, 0.0003043410, 0.0061490173, -0.0039772852, 0.0246963184, -0.0134708425, -0.0077722506, 0.0247221626, -0.0333797596, -0.0112457722, -0.0025525284, 0.0036720089, 0.0056941197, -0.0051597282, 0.0059126788, 0.0115706567, 0.0261070095, -0.0224563945, -0.0185160134, 0.0006636604, -0.0135538047, 0.0093024625, -0.0050495090, -0.0037244761, 0.0147722950, -0.0393538326, 0.0141392797, -0.0481046103, -0.0507624894, 0.0113055939, 0.0166283362, -0.0306520835, -0.0649172738, -0.0277935322, 0.0001900703, 0.0180197489, -0.0476167686, 0.0067699859, -0.0216692612, 0.0183024127, 0.0299051125, 0.0024636199, -0.0045034257, 0.0320259854, -0.0225214306, -0.0103744166, 0.0043845875, -0.0326805599, -0.0590869598, -0.0241436213, -0.0323259868, 0.0109907985, 0.0045947260, -0.0372230560, 0.0138532761, 0.0268268622, 0.0126656312, -0.0048570363, -0.0536909439, 0.0185034126, 0.0248977542, 0.0281656403, 0.0134638241, -0.0083544329, -0.0098285703, 0.0273743756, 0.0261461865, 0.0399328619, 0.0435234085, -0.0112456046, -0.0088290907, 0.0564063862, -0.0076692211, 0.0210254788, -0.0400834605, -0.0583165511, -0.0187651925, 0.0040867254, -0.0035358663, -0.0427085236, 0.0146305989, 0.0232436862, -0.0082065780, 0.0212013200, -0.0317489356, 0.0152350198, -0.0156809036, -0.0073381877, -0.0422475152, -0.0431198925, -0.0235576294, 0.0147551093, 0.0179398190, -0.0201468263, -0.0427987762, 0.0294346530, 0.0160333682, -0.0050099636, -0.0473949723, 0.0391200818, -0.0264164843, -0.0013698767, -0.0426708795, 0.0184231345, -0.0548050292, -0.0602773204, -0.0407960154, -0.0312118363, -0.0397013836, 0.0079380358, -0.0244728196, 0.0278124362, -0.0426743068, 0.0029362766, -0.0252016522, 0.0084172133, -0.0188440476, 0.0223938134, -0.0393317975, 0.0184334107, -0.0396825597, -0.0083997641, -0.0292497426, -0.0252283812, -0.0130022736, 0.0246006232, 0.0117195379, -0.0290823281, -0.0227191113, 0.0003043410, 0.0061490173, -0.0039772852, 0.0246963184, -0.0134708425, -0.0077722506, 0.0247221626, -0.0333797596, -0.0112457722, -0.0025525284, 0.0036720089, 0.0056941197, -0.0051597282, 0.0059126788, 0.0115706567, 0.0261070095, -0.0224563945, -0.0185160134, 0.0006636604, -0.0135538047, 0.0093024625, -0.0050495090, -0.0037244761, 0.0147722950, -0.0393538326, 0.0141392797, -0.0481046103, -0.0507624894, 0.0113055939, 0.0166283362, -0.0306520835, -0.0649172738, -0.0277935322, 0.0001900703, 0.0180197489, -0.0476167686, 0.0067699859, -0.0216692612, 0.0183024127, 0.0299051125, 0.0024636199, -0.0045034257, 0.0320259854, -0.0225214306, -0.0103744166, 0.0043845875, -0.0326805599, -0.0590869598, -0.0241436213, -0.0323259868, 0.0109907985, 0.0045947260, -0.0372230560, 0.0138532761, 0.0268268622, 0.0126656312, -0.0048570363, -0.0536909439, 0.0185034126, 0.0248977542, 0.0281656403, 0.0134638241, -0.0083544329, -0.0098285703, 0.0273743756, 0.0261461865, 0.0399328619, 0.0435234085, -0.0112456046, -0.0088290907, 0.0564063862, -0.0076692211, 0.0210254788, -0.0400834605, -0.0583165511, -0.0187651925, 0.0040867254, -0.0035358663, -0.0427085236, 0.0146305989, 0.0232436862, -0.0082065780, 0.0212013200, -0.0317489356, 0.0152350198, -0.0156809036, -0.0073381877, -0.0422475152, -0.0431198925, -0.0235576294, 0.0147551093, 0.0179398190, -0.0201468263, -0.0427987762, 0.0294346530, 0.0160333682, -0.0050099636, -0.0473949723, 0.0391200818, -0.0264164843, -0.0013698767, -0.0426708795, 0.0184231345, -0.0548050292, -0.0602773204, -0.0407960154, -0.0312118363, -0.0397013836, 0.0079380358, -0.0244728196, 0.0278124362, -0.0426743068, 0.0029362766, -0.0252016522, 0.0084172133, -0.0188440476, 0.0223938134, -0.0393317975, 0.0184334107, -0.0396825597, -0.0083997641, -0.0292497426, -0.0252283812, -0.0130022736, 0.0246006232, 0.0117195379, -0.0290823281, -0.0227191113, 0.0003043410, 0.0061490173, -0.0039772852, 0.0246963184, -0.0134708425, -0.0077722506, 0.0247221626, -0.0333797596, -0.0112457722, -0.0025525284, 0.0036720089, 0.0056941197, -0.0051597282, 0.0059126788, 0.0115706567, 0.0261070095, -0.0224563945, -0.0185160134, 0.0006636604, -0.0135538047, 0.0093024625, -0.0050495090, -0.0037244761, 0.0147722950, -0.0393538326, 0.0141392797, -0.0481046103, -0.0507624894, 0.0113055939, 0.0166283362, -0.0306520835, -0.0649172738, -0.0277935322, 0.0001900703, 0.0180197489, -0.0476167686, 0.0067699859, -0.0216692612, 0.0183024127, 0.0299051125, 0.0024636199, -0.0045034257, 0.0320259854, -0.0225214306, -0.0103744166, 0.0043845875, -0.0326805599, -0.0590869598, -0.0241436213, -0.0323259868, 0.0109907985, 0.0045947260, -0.0372230560, 0.0138532761, 0.0268268622, 0.0126656312, -0.0048570363, -0.0536909439, 0.0185034126, 0.0248977542, 0.0281656403, 0.0134638241, -0.0083544329, -0.0098285703, 0.0273743756, 0.0261461865, 0.0399328619, 0.0435234085, -0.0112456046, -0.0088290907, 0.0564063862, -0.0076692211, 0.0210254788, -0.0400834605, -0.0583165511, -0.0187651925, 0.0040867254, -0.0035358663, -0.0427085236, 0.0146305989, 0.0232436862, -0.0082065780, 0.0212013200, -0.0317489356, 0.0152350198, -0.0156809036, -0.0073381877, -0.0422475152, -0.0431198925, -0.0235576294, 0.0147551093, 0.0179398190, -0.0201468263, -0.0427987762, 0.0294346530, 0.0160333682, -0.0050099636, -0.0473949723, 0.0391200818, -0.0264164843, -0.0013698767, -0.0426708795, 0.0184231345, -0.0548050292, -0.0602773204, -0.0407960154, -0.0312118363, -0.0397013836, 0.0079380358, -0.0244728196, 0.0278124362, -0.0426743068, 0.0029362766, -0.0252016522, 0.0084172133, -0.0188440476, 0.0223938134, -0.0393317975, 0.0184334107, -0.0396825597, -0.0083997641, -0.0292497426, -0.0252283812, -0.0130022736, 0.0246006232, 0.0117195379, -0.0290823281, -0.0227191113, 0.0003043410, 0.0061490173, -0.0039772852, 0.0246963184, -0.0134708425, -0.0077722506, 0.0247221626, -0.0333797596, -0.0112457722, -0.0025525284, 0.0036720089, 0.0056941197, -0.0051597282, 0.0059126788, 0.0115706567, 0.0261070095, -0.0224563945, -0.0185160134, 0.0006636604, -0.0135538047, 0.0093024625, -0.0050495090, -0.0037244761, 0.0147722950, -0.0393538326, 0.0141392797, -0.0481046103, -0.0507624894, 0.0113055939, 0.0166283362, -0.0306520835, -0.0649172738, -0.0277935322, 0.0001900703, 0.0180197489, -0.0476167686, 0.0067699859, -0.0216692612, 0.0183024127, 0.0299051125, 0.0024636199, -0.0045034257, 0.0320259854, -0.0225214306, -0.0103744166, 0.0043845875, -0.0326805599, -0.0590869598, -0.0241436213, -0.0323259868, 0.0109907985, 0.0045947260, -0.0372230560, 0.0138532761, 0.0268268622, 0.0126656312, -0.0048570363, -0.0536909439, 0.0185034126, 0.0248977542, 0.0281656403, 0.0134638241, -0.0083544329, -0.0098285703, 0.0273743756, 0.0261461865, 0.0399328619, 0.0435234085, -0.0112456046, -0.0088290907, 0.0564063862, -0.0076692211, 0.0210254788, -0.0400834605, -0.0583165511, -0.0187651925, 0.0040867254, -0.0035358663, -0.0427085236, 0.0146305989, 0.0232436862, -0.0082065780, 0.0212013200, -0.0317489356, 0.0152350198, -0.0156809036, -0.0073381877, -0.0422475152, -0.0431198925, -0.0235576294, 0.0147551093, 0.0179398190, -0.0201468263, -0.0427987762, 0.0294346530, 0.0160333682, -0.0050099636, -0.0473949723, 0.0391200818, -0.0264164843, -0.0013698767, -0.0426708795, 0.0184231345, -0.0548050292, -0.0602773204, -0.0407960154, -0.0312118363, -0.0397013836, 0.0079380358, -0.0244728196, 0.0278124362, -0.0426743068, 0.0029362766, -0.0252016522, 0.0084172133, -0.0188440476, 0.0223938134, -0.0393317975, 0.0184334107, -0.0396825597, -0.0083997641, -0.0292497426, -0.0252283812, -0.0130022736, 0.0246006232, 0.0117195379, -0.0290823281, -0.0227191113, 0.0003043410, 0.0061490173, -0.0039772852, 0.0246963184, -0.0134708425, -0.0077722506, 0.0247221626, -0.0333797596, -0.0112457722, -0.0025525284, 0.0036720089, 0.0056941197, -0.0051597282, 0.0059126788, 0.0115706567, 0.0261070095, -0.0224563945, -0.0185160134, 0.0006636604, -0.0135538047, 0.0093024625, -0.0050495090, -0.0037244761, 0.0147722950, -0.0393538326, 0.0141392797, -0.0481046103, -0.0507624894, 0.0113055939, 0.0166283362, -0.0306520835, -0.0649172738, -0.0277935322, 0.0001900703, 0.0180197489, -0.0476167686, 0.0067699859, -0.0216692612, 0.0183024127, 0.0299051125, 0.0024636199, -0.0045034257, 0.0320259854, -0.0225214306, -0.0103744166, 0.0043845875, -0.0326805599, -0.0590869598, -0.0241436213, -0.0323259868, 0.0109907985, 0.0045947260, -0.0372230560, 0.0138532761, 0.0268268622, 0.0126656312, -0.0048570363, -0.0536909439, 0.0185034126, 0.0248977542, 0.0281656403, 0.0134638241, -0.0083544329, -0.0098285703, 0.0273743756, 0.0261461865, 0.0399328619, 0.0435234085, -0.0112456046, -0.0088290907, 0.0564063862, -0.0076692211, 0.0210254788, -0.0400834605, -0.0583165511, -0.0187651925, 0.0040867254, -0.0035358663, -0.0427085236, 0.0146305989, 0.0232436862, -0.0082065780, 0.0212013200, -0.0317489356, 0.0152350198, -0.0156809036, -0.0073381877, -0.0422475152, -0.0431198925, -0.0235576294, 0.0147551093, 0.0179398190, -0.0201468263, -0.0427987762, 0.0294346530, 0.0160333682, -0.0050099636, -0.0473949723, 0.0391200818, -0.0264164843, -0.0013698767, -0.0426708795, 0.0184231345, -0.0548050292, -0.0602773204, -0.0407960154, -0.0312118363, -0.0397013836, 0.0079380358, -0.0244728196, 0.0278124362, -0.0426743068, 0.0029362766, -0.0252016522, 0.0084172133, -0.0188440476, 0.0223938134, -0.0393317975, 0.0184334107, -0.0396825597, -0.0083997641, -0.0292497426, -0.0252283812, -0.0130022736, 0.0246006232, 0.0117195379, -0.0290823281, -0.0227191113, 0.0003043410, 0.0061490173, -0.0039772852, 0.0246963184, -0.0134708425, -0.0077722506, 0.0247221626, -0.0333797596, -0.0112457722, -0.0025525284, 0.0036720089, 0.0056941197, -0.0051597282, 0.0059126788, 0.0115706567, 0.0261070095, -0.0224563945, -0.0185160134, 0.0006636604, -0.0135538047, 0.0093024625, -0.0050495090, -0.0037244761, 0.0147722950, -0.0393538326, 0.0141392797, -0.0481046103, -0.0507624894, 0.0113055939, 0.0166283362, -0.0306520835, -0.0649172738, -0.0277935322, 0.0001900703, 0.0180197489, -0.0476167686, 0.0067699859, -0.0216692612, 0.0183024127, 0.0299051125, 0.0024636199, -0.0045034257, 0.0320259854, -0.0225214306, -0.0103744166, 0.0043845875, -0.0326805599, -0.0590869598, -0.0241436213, -0.0323259868, 0.0109907985, 0.0045947260, -0.0372230560, 0.0138532761, 0.0268268622, 0.0126656312, -0.0048570363, -0.0536909439, 0.0185034126, 0.0248977542, 0.0281656403, 0.0134638241, -0.0083544329, -0.0098285703, 0.0273743756, 0.0261461865, 0.0399328619, 0.0435234085, -0.0112456046, -0.0088290907, 0.0564063862, -0.0076692211, 0.0210254788, -0.0400834605, -0.0583165511, -0.0187651925, 0.0040867254, -0.0035358663, -0.0427085236, 0.0146305989, 0.0232436862, -0.0082065780, 0.0212013200, -0.0317489356, 0.0152350198, -0.0156809036, -0.0073381877, -0.0422475152, -0.0431198925, -0.0235576294, 0.0147551093, 0.0179398190, -0.0201468263, -0.0427987762, 0.0294346530, 0.0160333682, -0.0050099636, -0.0473949723, 0.0391200818, -0.0264164843, -0.0013698767, -0.0426708795, 0.0184231345, -0.0548050292, -0.0602773204, -0.0407960154, -0.0312118363, -0.0397013836, 0.0079380358, -0.0244728196, 0.0278124362, -0.0426743068, 0.0029362766, -0.0252016522, 0.0084172133, -0.0188440476, 0.0223938134, -0.0393317975, 0.0184334107, -0.0396825597, -0.0083997641, -0.0292497426, -0.0252283812, -0.0130022736, 0.0246006232, 0.0117195379, -0.0290823281, -0.0227191113, 0.0003043410, 0.0061490173, -0.0039772852, 0.0246963184, -0.0134708425, -0.0077722506, 0.0247221626, -0.0333797596, -0.0112457722, -0.0025525284, 0.0036720089, 0.0056941197, -0.0051597282, 0.0059126788, 0.0115706567, 0.0261070095, -0.0224563945, -0.0185160134, 0.0006636604, -0.0135538047, 0.0093024625, -0.0050495090, -0.0037244761, 0.0147722950, -0.0393538326, 0.0141392797, -0.0481046103, -0.0507624894, 0.0113055939, 0.0166283362, -0.0306520835, -0.0649172738, -0.0277935322, 0.0001900703, 0.0180197489, -0.0476167686, 0.0067699859, -0.0216692612, 0.0183024127, 0.0299051125, 0.0024636199, -0.0045034257, 0.0320259854, -0.0225214306, -0.0103744166, 0.0043845875, -0.0326805599, -0.0590869598, -0.0241436213, -0.0323259868, 0.0109907985, 0.0045947260, -0.0372230560, 0.0138532761, 0.0268268622, 0.0126656312, -0.0048570363, -0.0536909439, 0.0185034126, 0.0248977542, 0.0281656403, 0.0134638241, -0.0083544329, -0.0098285703, 0.0273743756, 0.0261461865, 0.0399328619, 0.0435234085, -0.0112456046, -0.0088290907, 0.0564063862, -0.0076692211, 0.0210254788, -0.0400834605, -0.0583165511, -0.0187651925, 0.0040867254, -0.0035358663, -0.0427085236, 0.0146305989, 0.0232436862, -0.0082065780, 0.0212013200, -0.0317489356, 0.0152350198, -0.0156809036, -0.0073381877, -0.0422475152, -0.0431198925, -0.0235576294, 0.0147551093, 0.0179398190, -0.0201468263, -0.0427987762, 0.0294346530, 0.0160333682, -0.0050099636, -0.0473949723, 0.0391200818, -0.0264164843, -0.0013698767, -0.0426708795, 0.0184231345, -0.0548050292, -0.0602773204, -0.0407960154, -0.0312118363, -0.0397013836, 0.0079380358, -0.0244728196, 0.0278124362, -0.0426743068, 0.0029362766, -0.0252016522, 0.0084172133, -0.0188440476, 0.0223938134, -0.0393317975, 0.0184334107, -0.0396825597, -0.0083997641, -0.0292497426, -0.0252283812, -0.0130022736, 0.0246006232, 0.0117195379, -0.0290823281, -0.0227191113, 0.0003043410, 0.0061490173, -0.0039772852, 0.0246963184, -0.0134708425, -0.0077722506, 0.0247221626, -0.0333797596, -0.0112457722, -0.0025525284, 0.0036720089, 0.0056941197, -0.0051597282, 0.0059126788, 0.0115706567, 0.0261070095, -0.0224563945, -0.0185160134, 0.0006636604, -0.0135538047, 0.0093024625, -0.0050495090, -0.0037244761, 0.0147722950, -0.0393538326, 0.0141392797, -0.0481046103, -0.0507624894, 0.0113055939, 0.0166283362, -0.0306520835, -0.0649172738, -0.0277935322, 0.0001900703, 0.0180197489, -0.0476167686, 0.0067699859, -0.0216692612, 0.0183024127, 0.0299051125, 0.0024636199, -0.0045034257, 0.0320259854, -0.0225214306, -0.0103744166, 0.0043845875, -0.0326805599, -0.0590869598, -0.0241436213, -0.0323259868, 0.0109907985, 0.0045947260, -0.0372230560, 0.0138532761, 0.0268268622, 0.0126656312, -0.0048570363, -0.0536909439, 0.0185034126, 0.0248977542, 0.0281656403, 0.0134638241, -0.0083544329, -0.0098285703, 0.0273743756, 0.0261461865, 0.0399328619, 0.0435234085, -0.0112456046, -0.0088290907, 0.0564063862, -0.0076692211, 0.0210254788, -0.0400834605, -0.0583165511, -0.0187651925, 0.0040867254, -0.0035358663, -0.0427085236, 0.0146305989, 0.0232436862, -0.0082065780, 0.0212013200, -0.0317489356, 0.0152350198, -0.0156809036, -0.0073381877, -0.0422475152, -0.0431198925, -0.0235576294, 0.0147551093, 0.0179398190, -0.0201468263, -0.0427987762, 0.0294346530, 0.0160333682, -0.0050099636, -0.0473949723, 0.0391200818, -0.0264164843, -0.0013698767, -0.0426708795, 0.0184231345, -0.0548050292, -0.0602773204, -0.0407960154, -0.0312118363, -0.0397013836, 0.0079380358, -0.0244728196, 0.0278124362, -0.0426743068, 0.0029362766, -0.0252016522, 0.0084172133, -0.0188440476, 0.0223938134, -0.0393317975, 0.0184334107, -0.0396825597, -0.0083997641, -0.0292497426, -0.0252283812, -0.0130022736, 0.0246006232, 0.0117195379, -0.0290823281, -0.0227191113, 0.0003043410, 0.0061490173, -0.0039772852, 0.0246963184, -0.0134708425, -0.0077722506, 0.0247221626, -0.0333797596, -0.0112457722, -0.0025525284, 0.0036720089, 0.0056941197, -0.0051597282, 0.0059126788, 0.0115706567, 0.0261070095, -0.0224563945, -0.0185160134, 0.0006636604, -0.0135538047, 0.0093024625, -0.0050495090, -0.0037244761, 0.0147722950, -0.0393538326, 0.0141392797, -0.0481046103, -0.0507624894, 0.0113055939, 0.0166283362, -0.0306520835, -0.0649172738, -0.0277935322, 0.0001900703, 0.0180197489, -0.0476167686, 0.0067699859, -0.0216692612, 0.0183024127, 0.0299051125, 0.0024636199, -0.0045034257, 0.0320259854, -0.0225214306, -0.0103744166, 0.0043845875, -0.0326805599, -0.0590869598, -0.0241436213, -0.0323259868, 0.0109907985, 0.0045947260, -0.0372230560, 0.0138532761, 0.0268268622, 0.0126656312, -0.0048570363, -0.0536909439, 0.0185034126, 0.0248977542, 0.0281656403, 0.0134638241, -0.0083544329, -0.0098285703, 0.0273743756, 0.0261461865, 0.0399328619, 0.0435234085, -0.0112456046, -0.0088290907, 0.0564063862, -0.0076692211, 0.0210254788, -0.0400834605, -0.0583165511, -0.0187651925, 0.0040867254, -0.0035358663, -0.0427085236, 0.0146305989, 0.0232436862, -0.0082065780, 0.0212013200, -0.0317489356, 0.0152350198, -0.0156809036, -0.0073381877, -0.0422475152, -0.0431198925, -0.0235576294, 0.0147551093, 0.0179398190, -0.0201468263, -0.0427987762, 0.0294346530, 0.0160333682, -0.0050099636, -0.0473949723, 0.0391200818, -0.0264164843, -0.0013698767, -0.0426708795, 0.0184231345, -0.0548050292, -0.0602773204, -0.0407960154, -0.0312118363, -0.0397013836, 0.0079380358, -0.0244728196, 0.0278124362, -0.0426743068, 0.0029362766, -0.0252016522, 0.0084172133, -0.0188440476, 0.0223938134, -0.0393317975, 0.0184334107, -0.0396825597, -0.0083997641, -0.0292497426, -0.0252283812, -0.0130022736, 0.0246006232, 0.0117195379, -0.0290823281, -0.0227191113, 0.0003043410, 0.0061490173, -0.0039772852, 0.0246963184, -0.0134708425, -0.0077722506, 0.0247221626, -0.0333797596, -0.0112457722, -0.0025525284, 0.0036720089, 0.0056941197, -0.0051597282, 0.0059126788, 0.0115706567, 0.0261070095, -0.0224563945, -0.0185160134, 0.0006636604, -0.0135538047, 0.0093024625, -0.0050495090, -0.0037244761, 0.0147722950, -0.0393538326, 0.0141392797, -0.0481046103, -0.0507624894, 0.0113055939, 0.0166283362, -0.0306520835, -0.0649172738, -0.0277935322, 0.0001900703, 0.0180197489, -0.0476167686, 0.0067699859, -0.0216692612, 0.0183024127, 0.0299051125, 0.0024636199, -0.0045034257, 0.0320259854, -0.0225214306, -0.0103744166, 0.0043845875, -0.0326805599, -0.0590869598, -0.0241436213, -0.0323259868, 0.0109907985, 0.0045947260, -0.0372230560, 0.0138532761, 0.0268268622, 0.0126656312, -0.0048570363, -0.0536909439, 0.0185034126, 0.0248977542, 0.0281656403, 0.0134638241, -0.0083544329, -0.0098285703, 0.0273743756, 0.0261461865, 0.0399328619, 0.0435234085, -0.0112456046, -0.0088290907, 0.0564063862, -0.0076692211, 0.0210254788, -0.0400834605, -0.0583165511, -0.0187651925, 0.0040867254, -0.0035358663, -0.0427085236, 0.0146305989, 0.0232436862, -0.0082065780, 0.0212013200, -0.0317489356, 0.0152350198, -0.0156809036, -0.0073381877, -0.0422475152, -0.0431198925, -0.0235576294, 0.0147551093, 0.0179398190, -0.0201468263, -0.0427987762, 0.0294346530, 0.0160333682, -0.0050099636, -0.0473949723, 0.0391200818, -0.0264164843, -0.0013698767, -0.0426708795, 0.0184231345, -0.0548050292, -0.0602773204, -0.0407960154, -0.0312118363, -0.0397013836, 0.0079380358, -0.0244728196, 0.0278124362, -0.0426743068, 0.0029362766, -0.0252016522, 0.0084172133, -0.0188440476, 0.0223938134, -0.0393317975, 0.0184334107, -0.0396825597, -0.0083997641, -0.0292497426, -0.0252283812, -0.0130022736, 0.0246006232, 0.0117195379, -0.0290823281, -0.0227191113, 0.0003043410, 0.0061490173, -0.0039772852, 0.0246963184, -0.0134708425, -0.0077722506, 0.0247221626, -0.0333797596, -0.0112457722, -0.0025525284, 0.0036720089, 0.0056941197, -0.0051597282, 0.0059126788, 0.0115706567, 0.0261070095, -0.0224563945, -0.0185160134, 0.0006636604, -0.0135538047, 0.0093024625, -0.0050495090, -0.0037244761, 0.0147722950, -0.0393538326, 0.0141392797, -0.0481046103, -0.0507624894, 0.0113055939, 0.0166283362, -0.0306520835, -0.0649172738, -0.0277935322, 0.0001900703, 0.0180197489, -0.0476167686, 0.0067699859, -0.0216692612, 0.0183024127, 0.0299051125, 0.0024636199, -0.0045034257, 0.0320259854, -0.0225214306, -0.0103744166, 0.0043845875, -0.0326805599, -0.0590869598, -0.0241436213, -0.0323259868, 0.0109907985, 0.0045947260, -0.0372230560, 0.0138532761, 0.0268268622, 0.0126656312, -0.0048570363, -0.0536909439, 0.0185034126, 0.0248977542, 0.0281656403, 0.0134638241, -0.0083544329, -0.0098285703, 0.0273743756, 0.0261461865, 0.0399328619, 0.0435234085, -0.0112456046, -0.0088290907, 0.0564063862, -0.0076692211, 0.0210254788, -0.0400834605, -0.0583165511, -0.0187651925, 0.0040867254, -0.0035358663, -0.0427085236, 0.0146305989, 0.0232436862, -0.0082065780, 0.0212013200, -0.0317489356, 0.0152350198, -0.0156809036, -0.0073381877, -0.0422475152, -0.0431198925, -0.0235576294, 0.0147551093, 0.0179398190, -0.0201468263, -0.0427987762, 0.0294346530, 0.0160333682, -0.0050099636, -0.0473949723, 0.0391200818, -0.0264164843, -0.0013698767, -0.0426708795, 0.0184231345, -0.0548050292, -0.0602773204, -0.0407960154, -0.0312118363, -0.0397013836, 0.0079380358, -0.0244728196, 0.0278124362, -0.0426743068, 0.0029362766, -0.0252016522, 0.0084172133, -0.0188440476, 0.0223938134, -0.0393317975, 0.0184334107, -0.0396825597, -0.0083997641, -0.0292497426, -0.0252283812, -0.0130022736, 0.0246006232, 0.0117195379, -0.0290823281, 