//Numpy array shape [256]
//Min -0.026113402098
//Max 0.021576454863
//Number of zeros 0

#ifndef B88_H_
#define B88_H_

#ifndef __SYNTHESIS__
model_default_t b88[256];
#else
model_default_t b88[256] = {0.0061502601, -0.0049128653, -0.0152744232, -0.0167753156, 0.0105821807, -0.0070850630, -0.0072734728, 0.0086765913, -0.0017441197, -0.0091141341, 0.0056096003, -0.0005410627, -0.0045231972, -0.0091312015, -0.0060924217, -0.0103525408, -0.0056558503, -0.0081700115, -0.0112293027, 0.0019078096, -0.0210387409, -0.0021877207, 0.0141950157, -0.0101483930, -0.0024994838, -0.0065584481, -0.0035130901, 0.0040111477, -0.0045236177, 0.0120896921, -0.0098852711, -0.0062039890, -0.0007078520, -0.0043464601, 0.0012593253, -0.0124678873, -0.0151953697, -0.0053178952, -0.0102821682, -0.0024923163, 0.0015564555, -0.0044184243, -0.0077535827, 0.0023463890, -0.0114289336, 0.0053395438, -0.0151153943, -0.0086909207, -0.0009745130, -0.0099331373, -0.0015320486, -0.0080471709, 0.0021142557, 0.0109237405, -0.0035200967, 0.0083718207, -0.0017297115, -0.0010788403, -0.0012819864, 0.0060316506, 0.0045750123, 0.0160564501, -0.0040111961, -0.0073454464, -0.0049506533, -0.0063151135, -0.0072126868, 0.0046382039, 0.0000909644, -0.0055448804, -0.0084580760, -0.0002813243, -0.0060277465, -0.0088401735, 0.0116307819, -0.0045978720, -0.0086847423, -0.0070323902, 0.0074284552, 0.0009077875, -0.0014026746, -0.0041436553, 0.0020991361, -0.0129732993, -0.0014413490, -0.0146280238, -0.0072726351, -0.0022779375, -0.0047214073, -0.0191594660, -0.0069979201, 0.0079243220, -0.0039865053, -0.0173252728, 0.0078923665, 0.0125716496, -0.0024344123, -0.0102763595, -0.0107140262, -0.0014437452, -0.0059207352, -0.0030111331, 0.0033874484, -0.0068366588, 0.0003661129, -0.0016627393, 0.0083944099, -0.0097797904, -0.0261134021, -0.0065849829, 0.0182688497, -0.0039517623, 0.0094229383, -0.0108817872, -0.0098921135, -0.0049100611, -0.0028636246, -0.0051669925, 0.0025518290, -0.0061347103, -0.0029675325, -0.0038223027, -0.0197029449, 0.0001488695, -0.0110139856, -0.0062576002, -0.0166014004, -0.0024218012, -0.0092823654, -0.0025676871, 0.0054395837, -0.0056153745, 0.0130299581, -0.0024327377, 0.0215764549, -0.0153945740, 0.0003785835, 0.0040087183, -0.0006998382, -0.0142897507, -0.0143799093, -0.0013343127, -0.0038000557, 0.0020779353, -0.0075372173, 0.0010177650, -0.0029921243, 0.0072627133, -0.0042469152, -0.0017529349, 0.0081807710, -0.0049654609, 0.0027497148, -0.0078576552, -0.0017956451, -0.0099103078, -0.0090917340, 0.0054131141, -0.0040818723, -0.0042113177, -0.0130111780, 0.0177757479, -0.0105004841, -0.0055314805, -0.0014478406, -0.0122724874, 0.0054071741, -0.0159157664, -0.0060077887, 0.0116135785, 0.0056650429, -0.0045584925, 0.0017550562, 0.0076971035, -0.0081634587, 0.0150720384, 0.0014433267, -0.0048745233, -0.0046773190, -0.0194150489, -0.0022144541, -0.0027941130, -0.0109382868, 0.0069830548, -0.0024423066, 0.0179140326, -0.0042353165, 0.0048500630, 0.0073984745, -0.0067747436, -0.0092109228, -0.0163933244, -0.0023719703, -0.0055925655, 0.0055060852, 0.0115356389, -0.0033476755, 0.0013684910, 0.0075711464, 0.0096156579, -0.0046851765, -0.0005541685, -0.0041752304, -0.0081896959, -0.0007963612, -0.0065205479, -0.0196801797, -0.0099098841, -0.0109570427, -0.0172967184, -0.0145311030, -0.0046552615, -0.0056383447, -0.0089452211, 0.0123477578, -0.0104810698, 0.0102395676, -0.0018760682, -0.0140761035, -0.0053788833, -0.0256079379, 0.0078077223, 0.0006158169, -0.0053071156, -0.0056067295, 0.0008689438, -0.0039888411, -0.0041212230, -0.0084179891, 0.0102410167, -0.0083799371, -0.0141991526, 0.0031065550, -0.0044314628, 0.0103300028, 0.0047119008, -0.0037367088, -0.0067826072, -0.0045956327, -0.0038456938, -0.0059375316, -0.0015014103, 0.0002250648, -0.0061387075, -0.0010347699, 0.0058616581, -0.0050042276, -0.0150671275, -0.0037803268, -0.0064042327, 0.0112062255, -0.0077751325, -0.0021306649, -0.0014800495, 0.0165062919, 0.0063002380};

#endif

#endif
