//Numpy array shape [128]
//Min -0.064987167716
//Max 0.056467112154
//Number of zeros 0

#ifndef B94_H_
#define B94_H_

#ifndef __SYNTHESIS__
model_default_t b94[128];
#else
model_default_t b94[128] = {-0.0048622652, -0.0537487492, 0.0185233336, 0.0249245595, 0.0281959642, 0.0134783192, -0.0083634276, -0.0098391520, 0.0274038464, 0.0261743348, 0.0399758555, 0.0435702652, -0.0112577118, -0.0088385958, 0.0564671122, -0.0076774778, 0.0210481156, -0.0401266143, -0.0583793335, -0.0187853947, 0.0040911250, -0.0035396731, -0.0427545048, 0.0146463504, 0.0232687108, -0.0082154134, 0.0212241448, -0.0317831151, 0.0152514223, -0.0156977866, -0.0073460881, -0.0422929972, -0.0431663170, -0.0235829912, 0.0147709949, 0.0179591328, -0.0201685168, -0.0428448543, 0.0294663422, 0.0160506293, -0.0050153574, -0.0474459976, 0.0391621999, -0.0264449250, -0.0013713515, -0.0427168198, 0.0184429698, -0.0548640341, -0.0603422150, -0.0408399366, -0.0312454384, -0.0397441275, 0.0079465816, -0.0244991668, 0.0278423801, -0.0427202508, 0.0029394377, -0.0252287835, 0.0084262751, -0.0188643355, 0.0224179234, -0.0393741429, 0.0184532553, -0.0397252813, -0.0084088072, -0.0292812325, -0.0252555422, -0.0130162723, 0.0246271081, 0.0117321555, -0.0291136391, -0.0227435715, 0.0003046687, 0.0061556371, -0.0039815670, 0.0247229058, -0.0134853451, -0.0077806180, 0.0247487780, -0.0334156975, -0.0112578794, -0.0025552765, 0.0036759621, 0.0057002502, -0.0051652831, 0.0059190444, 0.0115831140, 0.0261351168, -0.0224805716, -0.0185359474, 0.0006643749, -0.0135683967, 0.0093124779, -0.0050549451, -0.0037284859, 0.0147881992, -0.0393962003, 0.0141545022, -0.0481563993, -0.0508171394, 0.0113177653, 0.0166462380, -0.0306850839, -0.0649871677, -0.0278234556, 0.0001902749, 0.0180391483, -0.0476680323, 0.0067772744, -0.0216925908, 0.0183221176, 0.0299373083, 0.0024662723, -0.0045082741, 0.0320604630, -0.0225456767, -0.0103855859, 0.0043893079, -0.0327157453, -0.0591505729, -0.0241696145, -0.0323607884, 0.0110026309, 0.0045996727, -0.0372631289, 0.0138681903, 0.0268557444, 0.0126792667};

#endif

#endif
