//Numpy array shape [256, 13]
//Min -0.019727134133
//Max 0.013995617723
//Number of zeros 0

#ifndef W91_H_
#define W91_H_

#ifndef __SYNTHESIS__
model_default_t w91[3328];
#else
model_default_t w91[3328] = {-0.0060871690, 0.0111159471, -0.0029516816, 0.0035934632, -0.0043474789, -0.0046016605, 0.0115979061, 0.0023319524, -0.0081485780, -0.0032327309, 0.0056166657, -0.0035684979, -0.0098539780, -0.0037034774, 0.0067454792, 0.0035640449, -0.0108816888, 0.0068637168, 0.0004112847, -0.0071391036, 0.0036949257, -0.0061971520, -0.0032835624, 0.0024443664, -0.0079619593, -0.0082400254, -0.0104838736, -0.0042518891, -0.0028983698, 0.0105865946, -0.0012132543, 0.0036723916, -0.0050220341, -0.0106135149, -0.0004772165, -0.0080272442, -0.0061378397, -0.0080043823, -0.0051640272, 0.0034697296, 0.0004691360, 0.0049104584, 0.0020670181, 0.0036023324, -0.0025371327, -0.0096463762, -0.0070229686, -0.0060637309, -0.0039292865, 0.0086223139, 0.0088340495, -0.0061502725, -0.0090714080, -0.0077919860, -0.0060265632, 0.0111730461, 0.0096391742, -0.0034649454, -0.0008008868, 0.0032495956, -0.0100765676, -0.0032280149, -0.0004283156, 0.0014849838, -0.0031377201, -0.0013061238, 0.0058006245, -0.0042342626, -0.0075520390, 0.0016926739, 0.0027515206, -0.0077236169, 0.0009596422, 0.0040156822, -0.0082706427, 0.0060392981, 0.0050608316, 0.0072005790, -0.0018970296, -0.0091819313, -0.0035939301, -0.0052900001, 0.0061157436, -0.0000029836, 0.0068200146, -0.0100922416, -0.0061143080, 0.0057098046, 0.0044710392, -0.0012936863, 0.0044794450, -0.0060455248, 0.0105597280, -0.0046057909, 0.0059465247, -0.0112905801, 0.0027105231, -0.0098183664, -0.0051396583, 0.0082332642, -0.0065499876, -0.0020641997, 0.0092100639, 0.0030138047, 0.0057141377, 0.0003448282, -0.0083364855, -0.0086369664, -0.0050831070, 0.0019086060, -0.0059549025, -0.0074642936, -0.0049175582, -0.0074163748, -0.0047655175, -0.0086351402, 0.0022454621, 0.0081344451, -0.0075255099, 0.0074357030, 0.0084892868, -0.0006078727, -0.0089626561, 0.0049166759, 0.0016506117, -0.0081279997, -0.0031281905, -0.0068825396, -0.0054763727, -0.0022315183, -0.0002897415, 0.0080134186, -0.0047429246, -0.0068106774, -0.0142761731, 0.0084129298, 0.0007578926, 0.0020389160, -0.0026650230, -0.0014298027, -0.0035033423, 0.0096480574, 0.0065194166, 0.0060926584, -0.0037727654, 0.0051339644, -0.0071339681, -0.0048170037, 0.0095002014, -0.0050967013, 0.0081934554, -0.0065215775, -0.0081229054, -0.0045192538, 0.0056100565, 0.0017594166, -0.0020493999, -0.0040526155, 0.0020050040, 0.0066223821, 0.0072239206, 0.0072754227, 0.0089869878, -0.0021257637, -0.0041587034, -0.0005743114, -0.0086195032, 0.0102691268, -0.0009165619, -0.0088812893, -0.0007746539, 0.0060273341, 0.0040964639, -0.0071486018, -0.0066309524, -0.0038925736, -0.0057118473, -0.0057274546, 0.0022773952, 0.0047360775, -0.0002645829, -0.0088109615, -0.0072224667, -0.0080569175, -0.0001331808, 0.0010751888, -0.0073631938, -0.0107354940, -0.0078837081, 0.0017809415, 0.0074770737, -0.0014695296, 0.0082629666, 0.0060450663, 0.0022109927, -0.0009363329, -0.0066835572, 0.0016187459, 0.0052317230, -0.0075486224, -0.0010100093, 0.0082754200, -0.0062597251, -0.0008895020, -0.0030302714, -0.0053249533, 0.0057865699, -0.0015522943, 0.0066189798, -0.0009683415, -0.0031565156, -0.0095965193, -0.0014069481, -0.0020902711, 0.0062862770, -0.0058213187, 0.0025699679, -0.0000703849, -0.0020511767, -0.0059596091, -0.0090570918, -0.0083137476, 0.0069762239, -0.0044123621, 0.0020645053, -0.0030142464, 0.0067294933, 0.0057691770, 0.0015822424, 0.0021200611, -0.0029366300, -0.0104073236, 0.0051383477, -0.0094465390, 0.0063139717, 0.0077486978, -0.0100521039, -0.0087714302, -0.0027953144, -0.0034603031, -0.0073930521, -0.0054427289, -0.0094310602, -0.0061570114, 0.0006358767, -0.0060370510, -0.0032746155, 0.0037673758, -0.0059470386, -0.0065248633, 0.0002444638, -0.0144777320, -0.0122084009, 0.0016472938, 0.0023118629, 0.0035782017, -0.0036638550, 0.0052385128, 0.0043513606, -0.0068680190, 0.0046160626, 0.0033822204, -0.0000027927, 0.0073998202, -0.0033366063, -0.0041897135, 0.0045007451, -0.0127364605, -0.0005888610, 0.0011828262, -0.0122735208, 0.0040147536, 0.0069318324, -0.0044386800, -0.0048769790, -0.0002447414, 0.0001019346, -0.0079763017, 0.0099060872, -0.0078533861, -0.0023200308, 0.0062407138, 0.0037376905, -0.0066462627, -0.0057183178, -0.0038004023, -0.0101145901, 0.0003197718, -0.0030720629, 0.0013674453, -0.0071244282, 0.0064221987, 0.0121671622, -0.0098355960, 0.0072551163, 0.0060085158, -0.0087604593, -0.0051265716, -0.0006853786, 0.0023477459, -0.0082591132, -0.0087581574, -0.0086112076, 0.0058167069, 0.0079195550, -0.0088818787, 0.0003196343, -0.0067647041, -0.0101758361, -0.0028118862, -0.0072430130, -0.0057922193, -0.0134250619, 0.0112157284, 0.0064649416, -0.0067491082, 0.0002070021, 0.0009994959, 0.0111739403, -0.0032004999, 0.0085919011, 0.0039180551, 0.0093445043, -0.0041731329, 0.0034705542, -0.0025059299, 0.0080709950, -0.0083352252, 0.0002664519, -0.0006292012, 0.0006047008, 0.0063647731, 0.0054744003, -0.0057341004, -0.0029867879, 0.0074291834, -0.0052800136, -0.0004979541, 0.0073124705, -0.0042977673, 0.0038225847, -0.0069988099, -0.0000849888, -0.0057178370, 0.0078052035, 0.0012768945, -0.0050799525, -0.0006782231, 0.0017380160, -0.0007491845, 0.0054543988, -0.0091565711, -0.0010788210, 0.0072600205, 0.0074850289, -0.0044164877, -0.0026627607, -0.0061692889, -0.0070410959, 0.0092944321, 0.0096808812, 0.0076696672, -0.0017518705, -0.0017402132, -0.0044866933, -0.0098592294, -0.0003772648, 0.0084631568, -0.0016770950, -0.0040412571, 0.0071911082, 0.0001762720, -0.0037387250, -0.0009034158, -0.0028036018, 0.0040245742, 0.0079186745, -0.0032948246, 0.0081767329, -0.0000317111, 0.0000951937, -0.0083313849, 0.0030281871, 0.0021649612, 0.0061466732, 0.0052111939, -0.0018551444, -0.0053679177, 0.0086581631, -0.0083322352, 0.0016238666, 0.0035451415, -0.0004051305, -0.0094375718, -0.0045904243, -0.0036715653, 0.0027284908, 0.0074214543, 0.0030729166, -0.0055624825, -0.0007826140, 0.0002309821, -0.0005554793, -0.0075380478, 0.0035541055, -0.0017186722, -0.0057250019, 0.0035413443, -0.0095025421, -0.0093276139, 0.0048260017, 0.0057465966, -0.0059872615, -0.0006421892, 0.0048728823, 0.0042198151, -0.0059214300, -0.0078229596, 0.0060775737, 0.0060908083, 0.0105186983, 0.0024839431, 0.0019323945, -0.0118479835, 0.0026370942, -0.0073259358, -0.0103279321, -0.0163923140, -0.0045005963, 0.0075800694, 0.0026977733, 0.0002980657, 0.0042616666, 0.0001330039, -0.0070156467, -0.0027847035, 0.0060144713, -0.0009030191, -0.0083554454, -0.0061018015, -0.0079650201, -0.0085440508, -0.0010019097, 0.0095356600, -0.0075596139, -0.0004357940, 0.0066930954, 0.0075773015, 0.0083151757, -0.0086089999, 0.0094288850, -0.0153265692, -0.0017789825, -0.0014344042, 0.0091331267, -0.0066016714, -0.0075829206, -0.0042219874, -0.0020779465, -0.0046930423, 0.0044667098, 0.0043972954, 0.0049946746, -0.0088597118, 0.0027466835, -0.0045672615, -0.0015041253, -0.0031998657, -0.0039822291, -0.0100039475, 0.0093782526, -0.0121336177, 0.0100086484, -0.0034147887, 0.0000525721, -0.0078039238, -0.0120560227, 0.0003721224, 0.0032054060, -0.0049266561, -0.0104821776, -0.0040537476, -0.0003750038, 0.0041273689, 0.0087521380, -0.0078438651, 0.0079739398, 0.0054760923, 0.0041796731, 0.0079348271, -0.0012449469, 0.0085524389, -0.0081380570, 0.0026799678, 0.0058458657, 0.0045743396, -0.0019722901, -0.0066047276, -0.0074553002, -0.0031759469, 0.0033982657, 0.0097961333, -0.0018089122, 0.0066577190, -0.0081285079, 0.0014466829, -0.0016663963, -0.0065529862, -0.0044631119, 0.0077219700, -0.0019060728, 0.0017875263, 0.0007787697, 0.0013516157, 0.0067823614, 0.0072477452, 0.0043852180, 0.0049577582, -0.0048694561, -0.0058712482, 0.0058303829, -0.0067846411, -0.0052009493, -0.0069225751, 0.0114298002, -0.0061361528, 0.0000323502, -0.0103790397, -0.0009659840, -0.0107637140, -0.0058018842, 0.0007883856, -0.0140195183, 0.0019945688, -0.0073339647, 0.0052496779, -0.0035587059, 0.0025642829, 0.0075345707, -0.0101590484, -0.0018369536, 0.0067191774, -0.0035435149, 0.0072470942, 0.0055781458, -0.0036099962, 0.0067515666, -0.0077869300, -0.0072459213, -0.0057632192, -0.0150340174, 0.0050496984, -0.0031605220, 0.0095052711, -0.0029097759, -0.0096909350, 0.0123720355, 0.0078061383, 0.0062369671, -0.0065009958, 0.0101588999, 0.0093654857, 0.0045230987, 0.0075925074, 0.0055281352, -0.0035292910, -0.0112116180, -0.0004050792, 0.0015711879, -0.0019035648, -0.0093086403, -0.0016798136, -0.0063147272, -0.0050109489, 0.0057007838, 0.0055378853, 0.0025651831, -0.0042450960, 0.0049949704, 0.0025199902, -0.0035946344, -0.0060667957, 0.0038344264, 0.0049228695, 0.0050766456, 0.0070480319, 0.0017038698, -0.0092578451, 0.0084254101, -0.0002090863, 0.0076615446, -0.0112887322, -0.0064891660, 0.0047695874, -0.0014969336, -0.0111942205, 0.0062030544, -0.0072429376, 0.0024057237, 0.0045035261, -0.0100706892, 0.0025468231, 0.0105670100, 0.0014505660, -0.0016986900, 0.0048807856, 0.0007956219, -0.0089147795, -0.0062542487, -0.0115526655, -0.0095453129, -0.0079604077, -0.0036065770, 0.0052572249, -0.0058723800, -0.0124470391, -0.0066096643, -0.0066628819, 0.0044254574, -0.0085045726, -0.0061754317, 0.0070969757, -0.0051813796, -0.0090332683, 0.0084087361, -0.0081229100, 0.0053370127, -0.0005259533, 0.0017662707, -0.0056015307, -0.0180334536, -0.0103526402, -0.0102656206, -0.0020218590, 0.0104574467, -0.0084530550, -0.0075787680, -0.0039706979, -0.0092246496, 0.0052417352, -0.0157316539, 0.0057703573, -0.0041990867, -0.0003789931, -0.0058594549, -0.0101437375, 0.0073996157, 0.0020777091, 0.0088698324, -0.0047320493, -0.0097730664, 0.0076511459, 0.0052745618, 0.0002078194, -0.0077187881, -0.0054549133, -0.0013830100, 0.0001336692, -0.0078502836, -0.0005578642, 0.0027320773, 0.0032175559, -0.0092946805, 0.0079502705, 0.0056104174, 0.0007952519, -0.0016566854, -0.0036365410, 0.0045210869, -0.0010259690, -0.0016199723, 0.0038353653, -0.0074220396, -0.0013401858, -0.0020757390, -0.0014103273, -0.0006013034, -0.0056791925, -0.0097754260, -0.0056667951, 0.0063995328, 0.0083370697, 0.0069916119, 0.0015340479, -0.0064997846, 0.0027716594, -0.0102622149, -0.0120276771, 0.0068729991, -0.0074125328, -0.0057563478, -0.0018287439, 0.0053762699, 0.0103142578, -0.0137733651, 0.0002237342, -0.0044487918, -0.0050542103, -0.0044398969, -0.0101284255, -0.0045959529, -0.0022117446, 0.0053522208, -0.0080674351, 0.0070752200, -0.0030535330, 0.0008258064, 0.0063757778, 0.0010679927, 0.0017952943, -0.0057810582, -0.0014244452, 0.0004852956, 0.0016046200, -0.0002622288, -0.0066182015, -0.0026950794, -0.0008757508, 0.0003064218, -0.0044323474, 0.0050557612, 0.0119329838, -0.0057260281, -0.0041710677, -0.0088404349, -0.0111189748, -0.0072372088, -0.0064210121, 0.0032025280, -0.0003237477, 0.0061654909, 0.0069009290, -0.0047139523, -0.0031478765, -0.0035634156, -0.0030227450, -0.0028573661, -0.0057834543, -0.0048971895, -0.0064725565, 0.0011551427, -0.0050765045, 0.0054369996, -0.0006747401, 0.0064257872, -0.0066226990, -0.0034127517, -0.0004042641, 0.0103810018, -0.0063222461, -0.0005134114, -0.0034479314, -0.0011881391, -0.0079503562, 0.0116469625, -0.0035738186, -0.0019854313, -0.0089942173, 0.0100032828, 0.0050874224, -0.0091990273, -0.0011124586, 0.0040925045, -0.0111736868, -0.0030152123, -0.0029337602, -0.0164548334, -0.0022249107, 0.0043264867, -0.0053303588, -0.0022185243, -0.0105685359, 0.0038433745, 0.0093802438, -0.0103425224, 0.0013182804, 0.0044777379, 0.0028139431, -0.0073175677, -0.0130736820, -0.0084793911, 0.0042632176, 0.0034589714, 0.0017967325, -0.0116084305, -0.0034677807, -0.0083478236, 0.0127942185, -0.0076743475, 0.0047377524, 0.0071253299, -0.0051190030, 0.0091291739, -0.0113920985, 0.0053692654, -0.0039591748, 0.0038016852, 0.0020978251, -0.0003463430, 0.0042583771, 0.0042279291, -0.0046425868, -0.0085029976, -0.0103344432, -0.0134344123, 0.0104669546, -0.0080339826, -0.0018156992, 0.0023170571, -0.0060565175, -0.0016437386, 0.0088632928, -0.0001167446, 0.0009185305, -0.0073724533, 0.0059619955, 0.0005328178, -0.0095791023, -0.0060062339, -0.0077179926, -0.0001460829, -0.0096336076, 0.0024418693, -0.0075073329, 0.0047975418, -0.0000438023, 0.0096465944, 0.0123931426, 0.0050450147, -0.0048118186, -0.0072492751, 0.0007468553, -0.0007288680, 0.0083593120, -0.0051215567, -0.0008235875, 0.0055274117, 0.0046353425, 0.0011233057, 0.0028708205, 0.0013530225, -0.0075585569, 0.0036580823, 0.0032823029, -0.0090768957, 0.0036714245, 0.0087820665, -0.0009097566, 0.0045952756, -0.0064144508, -0.0042865568, -0.0063565558, -0.0073834522, 0.0035181755, -0.0021320847, -0.0093367746, 0.0055980382, 0.0078376127, -0.0076105119, 0.0050523315, 0.0069367348, -0.0051089086, -0.0026110573, 0.0044734870, -0.0080116546, 0.0048250623, 0.0055979046, -0.0093394037, 0.0000915417, 0.0025743573, 0.0025706303, 0.0021740236, 0.0035383295, 0.0025589119, -0.0039328726, -0.0031632791, -0.0132294373, 0.0064334204, -0.0051172116, -0.0056689325, 0.0015667279, 0.0070505919, -0.0035849655, -0.0012689226, -0.0042640638, 0.0011335209, -0.0132326009, 0.0003304281, 0.0090307991, 0.0071009445, 0.0080392876, -0.0080885535, -0.0059337864, -0.0057754413, -0.0052337034, -0.0142274993, 0.0047504673, -0.0027058037, 0.0039144273, 0.0108214582, 0.0002218224, -0.0081391854, 0.0057434250, -0.0038922698, 0.0069596115, 0.0023745034, -0.0037915174, -0.0049363262, -0.0077319930, -0.0050312365, 0.0042445846, 0.0069524215, 0.0054996605, 0.0080766632, 0.0083762898, -0.0090995366, -0.0047793060, 0.0074896715, -0.0047673109, -0.0049400666, -0.0057526897, -0.0066641724, -0.0083174114, -0.0009293637, 0.0026366374, -0.0051947221, 0.0060119644, -0.0080083682, -0.0083837927, -0.0101298337, -0.0007624566, 0.0066594613, 0.0002879353, -0.0013028750, 0.0011769409, 0.0052390650, 0.0039492825, 0.0082962067, 0.0074545441, 0.0035336032, 0.0100186211, 0.0019561108, 0.0031294948, 0.0043476440, 0.0016412480, -0.0061219040, -0.0026328767, 0.0055680525, 0.0067391640, -0.0066504930, -0.0051814584, -0.0040383938, -0.0042750259, -0.0069643872, 0.0056666461, 0.0065729060, -0.0051937090, 0.0064975461, -0.0068705671, -0.0012606569, 0.0047905831, -0.0068043342, 0.0049373906, 0.0048275201, 0.0034294480, -0.0035187854, 0.0070050309, -0.0048214550, -0.0111002170, 0.0003208433, -0.0057665427, -0.0025679884, 0.0059052557, 0.0075384418, -0.0126341243, 0.0055803751, -0.0071274057, 0.0014534602, -0.0044141838, 0.0116508947, 0.0061813757, -0.0147392053, -0.0011476889, -0.0060493839, -0.0105311540, -0.0021312564, 0.0055801981, -0.0102140539, 0.0046057072, 0.0040281176, 0.0000180295, 0.0052105366, 0.0013527612, -0.0013787026, 0.0024701452, -0.0013549008, 0.0030592963, 0.0029156417, -0.0013564415, -0.0015055417, 0.0084084283, -0.0035533746, -0.0008980435, -0.0002512137, 0.0080763074, -0.0064982365, -0.0045062851, 0.0081192473, -0.0036604702, 0.0068983970, 0.0064752901, -0.0079897230, -0.0037730363, 0.0084435459, 0.0055100250, 0.0041385318, -0.0064722350, 0.0024931313, -0.0021612690, 0.0053433319, -0.0073603168, 0.0026863199, 0.0076199816, -0.0054022788, 0.0072059874, -0.0144234518, 0.0049542382, 0.0041487763, -0.0069588018, 0.0067822923, -0.0027290293, 0.0020233985, -0.0166638308, -0.0082899994, 0.0019334579, -0.0056980725, 0.0057174675, -0.0077550753, -0.0022310823, -0.0041256361, 0.0061184201, 0.0038800916, 0.0027015688, -0.0057237884, -0.0026966824, -0.0019985944, 0.0055265597, -0.0081781456, 0.0078976206, -0.0103639115, 0.0020905334, -0.0043143097, -0.0023620492, -0.0083397707, 0.0066616496, -0.0094303760, -0.0047371511, -0.0079428657, -0.0076533615, 0.0061786358, 0.0081031141, 0.0037053504, 0.0031354371, -0.0077093281, 0.0085306683, -0.0008915281, 0.0088615865, 0.0002120558, 0.0002977274, 0.0009956971, 0.0011441155, -0.0046542225, 0.0097469604, 0.0101622006, 0.0099410741, 0.0053897340, -0.0080375767, -0.0069609415, -0.0034535833, -0.0079111144, -0.0051527964, -0.0041670870, -0.0023599888, 0.0014490696, 0.0028104583, -0.0084817941, 0.0074328632, -0.0099430020, -0.0073865079, 0.0001793535, 0.0075355066, 0.0076293022, -0.0012107676, 0.0026085156, -0.0045787626, -0.0061369129, 0.0016393919, 0.0046368096, -0.0001104886, -0.0073275393, -0.0066406556, 0.0068223136, 0.0054209588, -0.0010677712, 0.0067922851, -0.0027054037, -0.0028537913, -0.0058605365, -0.0095383564, -0.0138118400, -0.0024819873, -0.0014568007, -0.0109271544, 0.0014619567, -0.0100405847, 0.0056028984, 0.0001852406, -0.0074956201, -0.0047662405, -0.0078522766, -0.0055876206, 0.0034338776, -0.0095093621, 0.0063663212, -0.0012077964, -0.0032244753, 0.0025978975, 0.0085644080, 0.0081951725, 0.0089625350, 0.0036186678, -0.0066807379, 0.0055979286, -0.0089520381, -0.0004040751, 0.0024473807, -0.0060456527, -0.0034084860, -0.0038465746, -0.0042386782, 0.0003197193, -0.0045638569, -0.0084191868, 0.0074967913, -0.0000073375, -0.0070518019, -0.0066733258, -0.0009131945, -0.0004226505, -0.0018319642, 0.0064180592, 0.0014945295, -0.0098362859, -0.0075571527, 0.0083501341, 0.0034217791, -0.0029914485, 0.0013778764, -0.0083162973, 0.0076246938, -0.0037253085, 0.0076712010, -0.0015261909, 0.0079485608, -0.0066743599, -0.0033929658, -0.0043428263, -0.0041276276, -0.0095361893, -0.0043078460, -0.0089569633, 0.0048121184, 0.0044762060, 0.0057713886, -0.0058129614, -0.0074754787, 0.0021255030, 0.0039269398, -0.0061724137, -0.0070202493, -0.0031132870, -0.0050514624, 0.0024891017, 0.0035479662, 0.0065489694, 0.0034534971, -0.0047285788, -0.0091517486, -0.0067645408, 0.0069209625, -0.0086131240, -0.0039469786, 0.0038997468, -0.0037167063, 0.0034968644, -0.0028698112, 0.0042975015, 0.0011547078, -0.0066752844, -0.0062517749, -0.0004198050, 0.0015674920, 0.0070699384, 0.0030987605, -0.0060537644, -0.0066786176, -0.0002688851, -0.0034483065, 0.0018530985, 0.0045214270, -0.0004682742, 0.0066962219, -0.0088549207, 0.0031413471, 0.0071130010, -0.0027577927, 0.0086083872, 0.0052889111, 0.0065242745, -0.0067030664, -0.0086633185, -0.0022214217, 0.0059898483, -0.0026763996, 0.0058727197, 0.0087301441, -0.0004867223, 0.0049183417, -0.0127581352, 0.0009227781, -0.0130862815, 0.0008311496, 0.0046516790, 0.0039884966, -0.0104333565, -0.0050000385, 0.0058001260, -0.0094790327, 0.0096925191, 0.0076329118, -0.0093374953, 0.0083580745, -0.0054033026, -0.0129224185, 0.0096200247, 0.0007040877, -0.0045161151, -0.0069666183, 0.0019568169, -0.0020291167, -0.0060299729, -0.0099159846, 0.0005442687, 0.0053412310, -0.0031698230, -0.0084342744, -0.0011230724, 0.0086263780, -0.0031854968, -0.0016416191, -0.0051917378, 0.0059470838, 0.0041211014, -0.0042885258, 0.0129558327, -0.0074702165, -0.0197271341, -0.0027546428, 0.0090988257, -0.0051014690, -0.0089152015, -0.0058308763, -0.0083715318, -0.0130889232, 0.0048169974, -0.0034112562, -0.0074265931, -0.0044248361, 0.0033463381, -0.0031646961, -0.0020422684, 0.0007816295, 0.0026263931, -0.0029686529, 0.0042760949, -0.0040293353, 0.0049365335, 0.0016266703, 0.0046524951, 0.0085354302, -0.0012479314, -0.0017874176, -0.0121735750, -0.0086213876, 0.0020894562, -0.0043087688, -0.0077565651, -0.0047430114, -0.0125459958, 0.0078809877, -0.0090934795, -0.0108839696, -0.0034226106, -0.0031521125, 0.0074389294, -0.0037236082, -0.0000951276, 0.0042131130, -0.0134964120, 0.0074301028, -0.0098826697, -0.0091093963, -0.0057544742, -0.0098965279, -0.0009963651, 0.0011934077, 0.0062071693, -0.0078289750, -0.0026480189, -0.0014837511, -0.0104588926, -0.0081318286, -0.0004141041, -0.0020862734, 0.0025329801, -0.0007118966, 0.0079859175, -0.0051663536, 0.0032328851, 0.0096961829, -0.0048524931, 0.0111086685, -0.0068627100, -0.0045597328, 0.0081371587, -0.0067999074, -0.0009829139, -0.0127049341, -0.0003517782, -0.0033459929, -0.0049619982, 0.0097139219, -0.0013405478, -0.0003814966, 0.0054473018, -0.0136987133, -0.0102098088, -0.0077805731, 0.0026885966, 0.0047155738, 0.0071366875, 0.0050817873, 0.0016988385, 0.0001032433, -0.0087508719, -0.0039430044, 0.0045765601, -0.0075265332, -0.0073597287, -0.0023061837, 0.0051251623, -0.0064158990, 0.0066763763, -0.0102530644, -0.0026023274, 0.0097080036, 0.0036247889, 0.0025262551, -0.0039593687, -0.0063752644, -0.0069508134, -0.0032615271, -0.0032251997, 0.0026663909, 0.0081993195, -0.0061757726, -0.0094044694, -0.0114754931, 0.0044166676, 0.0005995967, -0.0060962737, 0.0052400186, -0.0081685543, 0.0086073279, -0.0026277741, -0.0049263118, -0.0039384472, -0.0034549173, -0.0064119365, -0.0106480713, -0.0089371966, -0.0061538284, 0.0034295160, 0.0047668010, -0.0122845443, -0.0019396097, -0.0063952767, -0.0025309077, -0.0023889159, 0.0006346506, 0.0085391649, -0.0076800431, -0.0016998190, -0.0083440307, -0.0062945172, 0.0055963605, -0.0022880469, 0.0038453217, 0.0054493085, -0.0000687378, 0.0020267747, 0.0016400822, 0.0001736769, 0.0006896267, -0.0001594655, -0.0081020656, -0.0049021622, 0.0084013496, -0.0025813015, -0.0034927645, -0.0003418663, 0.0013336686, 0.0058572033, 0.0081709362, -0.0025004404, 0.0015148289, -0.0025978484, -0.0070524809, 0.0084640163, -0.0013882813, 0.0074689008, 0.0053320725, -0.0035673710, 0.0089460084, -0.0113164325, -0.0039101290, -0.0065569338, -0.0112769069, 0.0011359022, 0.0028214938, -0.0109598571, -0.0011796430, -0.0008154068, 0.0079932372, -0.0018186727, -0.0029392497, -0.0044297759, 0.0000324558, 0.0068367479, -0.0094255250, -0.0084713799, -0.0050016728, -0.0062052101, 0.0052362526, -0.0007634376, 0.0036548562, 0.0083552798, 0.0013993224, 0.0033494712, -0.0133362824, 0.0021949723, -0.0103010918, -0.0137809052, 0.0000840513, -0.0025538421, 0.0005756684, -0.0100827463, 0.0042533921, -0.0015846355, 0.0034067646, -0.0002060213, 0.0025591349, -0.0090878507, -0.0021259867, 0.0004223573, -0.0003928767, 0.0093762077, -0.0053461660, -0.0032767997, -0.0009771541, -0.0093801707, 0.0000470436, -0.0097807767, -0.0090008649, -0.0032785146, 0.0072140044, 0.0018782865, -0.0009613047, 0.0030042085, -0.0040082220, -0.0088101186, -0.0015600865, 0.0082683819, -0.0046344052, 0.0044650546, -0.0034466357, 0.0034807626, -0.0029299573, 0.0003888285, -0.0078852271, -0.0003455553, 0.0006788065, 0.0049333688, -0.0044993432, 0.0012353026, -0.0059757532, 0.0050929273, 0.0006197872, 0.0076911049, 0.0074285095, -0.0084057032, -0.0060746002, -0.0042886026, -0.0075437742, -0.0088682558, 0.0018798419, -0.0005461467, 0.0063756356, 0.0010305693, 0.0017150536, 0.0034013793, 0.0048098393, -0.0074058704, 0.0021617522, 0.0037527014, 0.0047675636, 0.0033774245, 0.0041318231, -0.0087525091, -0.0085534650, -0.0099898198, -0.0001853632, -0.0098085638, 0.0057001831, -0.0064425292, -0.0094661053, -0.0087182589, 0.0088714776, -0.0032008731, 0.0092103785, -0.0019164786, -0.0103447266, -0.0107408584, -0.0001500556, 0.0134655903, 0.0024264210, 0.0028028186, 0.0016433431, 0.0039119164, -0.0012010428, -0.0079287129, -0.0060231089, 0.0048168169, -0.0078795361, -0.0072875689, 0.0033393745, -0.0035443318, 0.0041208419, -0.0023396100, 0.0061476491, 0.0052073119, -0.0075353113, -0.0047903643, 0.0004184438, 0.0076920140, 0.0091413464, -0.0071947492, 0.0079442848, 0.0053797841, 0.0002649605, 0.0009633549, 0.0009534595, -0.0036926078, 0.0020437357, -0.0074676520, -0.0087267892, -0.0043323650, -0.0019680056, 0.0082835597, -0.0088746281, -0.0017054228, 0.0056840750, -0.0086721811, 0.0059244554, -0.0091860182, 0.0015384550, 0.0057257974, -0.0047183799, -0.0026836337, -0.0108648989, 0.0040230267, -0.0044887848, -0.0015122548, -0.0110558044, -0.0089372708, -0.0026007739, -0.0110698157, 0.0059432789, -0.0043736831, -0.0044813854, -0.0046215746, 0.0008725132, -0.0050483091, 0.0005973745, 0.0061699068, 0.0055956489, 0.0001036854, -0.0060240797, -0.0016474014, -0.0029908612, -0.0059925151, -0.0052103208, -0.0067165277, 0.0017428122, 0.0083897134, 0.0043298216, -0.0010467730, 0.0003751108, 0.0027448219, 0.0062330543, -0.0050810729, -0.0033757333, 0.0065318226, 0.0056908436, -0.0020083720, 0.0059223871, 0.0012754850, 0.0013690148, 0.0038326745, 0.0031505884, -0.0066378615, 0.0066693684, 0.0054336070, 0.0013744907, -0.0013527569, 0.0041372135, -0.0057028413, -0.0083427270, 0.0023565127, -0.0028405559, 0.0051063891, -0.0037899796, 0.0045465627, -0.0026505729, -0.0046144676, -0.0082671855, 0.0081218307, 0.0036100130, 0.0096038709, -0.0077825797, 0.0007745834, 0.0073382916, 0.0047701493, 0.0022914522, -0.0103903156, -0.0056056754, -0.0085956003, -0.0077190005, 0.0040258551, 0.0026387793, -0.0082517130, 0.0043320167, -0.0064816436, -0.0008536989, -0.0069168807, -0.0076897898, -0.0056092747, -0.0020925226, -0.0060678407, 0.0005596104, -0.0028370728, 0.0034553390, -0.0048431005, 0.0025821972, 0.0066758355, -0.0070694090, -0.0056426370, -0.0053665546, 0.0042738453, -0.0049883537, -0.0027105479, 0.0026541648, 0.0076970558, 0.0015572119, 0.0031737107, 0.0008688515, 0.0034482737, -0.0045769995, 0.0045619248, 0.0060064721, -0.0077593952, -0.0086866914, -0.0080352514, 0.0102302237, 0.0009519484, 0.0068296932, -0.0026397556, -0.0094964890, 0.0054438721, -0.0111187361, -0.0045697698, 0.0002773007, 0.0043684224, 0.0003312471, 0.0002970808, 0.0001619689, -0.0061695236, -0.0091073171, 0.0005807806, 0.0028600774, -0.0012535274, 0.0030872901, 0.0071085960, 0.0060290541, -0.0036842774, 0.0019127058, 0.0021769226, -0.0000121536, -0.0109224673, 0.0092003332, -0.0011850443, -0.0130227069, 0.0072633668, -0.0008056037, -0.0007885702, 0.0046013187, 0.0100886383, 0.0100268134, -0.0003815644, -0.0065647452, -0.0031065350, 0.0011474455, -0.0096714224, -0.0109423900, 0.0071416933, -0.0057336401, -0.0062305794, 0.0101156968, 0.0036275570, 0.0030020765, 0.0056594554, -0.0058563758, 0.0077912893, -0.0020141389, -0.0134911286, 0.0060646960, 0.0016249339, 0.0057984265, 0.0075211002, -0.0091818125, 0.0009889050, -0.0043932087, -0.0118127442, -0.0033317799, 0.0037280767, 0.0055212889, 0.0030725600, -0.0005023484, 0.0010349955, 0.0000266792, 0.0053897740, 0.0023433761, -0.0020378687, -0.0034682701, -0.0081149279, 0.0047334270, 0.0013924456, 0.0033111448, 0.0072473272, -0.0033573922, -0.0056328327, -0.0036147487, -0.0055661127, 0.0127242230, 0.0037025006, -0.0100147220, 0.0000604359, -0.0015416585, -0.0079581647, 0.0017421652, -0.0015843994, 0.0083072902, 0.0080499062, -0.0100223124, 0.0053035984, -0.0107057596, 0.0066412375, -0.0009611384, -0.0009667589, 0.0037551948, -0.0033930772, 0.0002486621, -0.0060995304, 0.0105335113, -0.0001827236, 0.0026921834, 0.0003251004, 0.0036665321, 0.0067833402, -0.0053618195, 0.0003712547, 0.0076616229, -0.0069436479, 0.0057152222, 0.0027260978, 0.0028642683, -0.0044313215, -0.0076913830, -0.0019813515, 0.0048768797, -0.0015882007, -0.0076863492, -0.0020277873, -0.0092223511, 0.0049839407, 0.0072886059, 0.0080181783, 0.0027979984, 0.0051376585, 0.0050242960, -0.0040753757, -0.0004945147, -0.0027691248, -0.0021833757, -0.0093040291, 0.0058666392, -0.0004494514, -0.0094827445, -0.0074715608, -0.0022622159, -0.0010390688, -0.0073299012, 0.0009685702, 0.0071955293, 0.0052844084, 0.0009460419, -0.0079044434, -0.0047363730, -0.0049155270, -0.0033858805, 0.0078411926, 0.0042896699, 0.0089800862, -0.0035745293, 0.0040378442, -0.0000345964, 0.0085200691, 0.0045703722, 0.0059244509, -0.0012567010, -0.0053090571, -0.0021270747, -0.0079170002, 0.0024488583, -0.0085715512, -0.0085441615, -0.0055179032, -0.0094193994, -0.0049437984, -0.0029630389, 0.0052755617, -0.0045896999, -0.0039961541, 0.0000467431, 0.0092888215, -0.0086477289, 0.0063475595, -0.0055386528, 0.0035868574, -0.0028912258, -0.0017778722, -0.0051033409, 0.0076878402, -0.0043981145, 0.0075151168, -0.0040345621, 0.0012838319, -0.0088226091, -0.0053044659, 0.0097997423, -0.0058429928, -0.0069351656, 0.0022312159, -0.0055436094, -0.0084451986, 0.0090257408, 0.0022554540, -0.0100492293, -0.0025256236, -0.0045059385, -0.0085306586, -0.0111497234, 0.0082543655, -0.0078178293, 0.0039140529, -0.0095463996, -0.0011749551, 0.0099979527, 0.0066170280, 0.0040583688, 0.0079493391, -0.0092395402, -0.0099342958, 0.0006709043, -0.0144210751, -0.0020403112, 0.0081990282, 0.0075190033, -0.0011395941, 0.0051326978, 0.0103059605, -0.0036551346, -0.0044553671, 0.0113498422, 0.0133930114, -0.0017805968, -0.0052320074, 0.0055170238, -0.0078846178, -0.0074731797, 0.0007649847, -0.0052931117, -0.0110584621, -0.0091405349, -0.0099634409, 0.0023937700, 0.0063675570, -0.0009541891, -0.0031095527, 0.0052510273, 0.0008221039, 0.0012479771, -0.0025845185, -0.0063498448, -0.0081827551, -0.0001071315, 0.0035063417, 0.0099977448, -0.0033151524, -0.0096105168, 0.0042740874, 0.0080661502, -0.0082305272, -0.0056851029, 0.0006986994, -0.0010683454, -0.0067460217, 0.0026526555, -0.0034474908, -0.0072866061, -0.0021979474, 0.0056836107, -0.0157006392, 0.0075281167, 0.0097995927, -0.0066805678, -0.0052727373, 0.0041411200, 0.0035204669, -0.0111145172, -0.0071764021, -0.0066797083, 0.0105977986, 0.0008837073, 0.0003200144, 0.0038911868, -0.0060405013, -0.0085207612, 0.0061363430, 0.0048343241, 0.0058929571, -0.0020874674, -0.0079352263, -0.0054266904, 0.0066627945, -0.0065723932, -0.0026206215, 0.0060956964, 0.0046216708, 0.0005604716, 0.0084789394, 0.0084466787, 0.0025524234, -0.0104180741, -0.0014318235, 0.0094181865, 0.0006695746, -0.0041039846, -0.0075488451, 0.0070667942, -0.0032751922, -0.0028650510, -0.0024335108, 0.0047257558, 0.0058446779, -0.0051691129, -0.0000982502, -0.0008291940, -0.0025657170, 0.0075372820, 0.0071944506, -0.0024375407, -0.0092528147, -0.0067901471, 0.0061834726, -0.0003287218, -0.0070956126, -0.0040862164, -0.0116411583, -0.0022720929, -0.0064489026, 0.0045502309, -0.0028038818, 0.0089627498, -0.0051315163, -0.0053604633, 0.0000280945, 0.0001623372, -0.0070003198, 0.0029715215, -0.0049139303, 0.0050996719, -0.0067434092, -0.0058856454, 0.0050969434, -0.0011859210, -0.0046719050, 0.0056962177, 0.0014701600, -0.0053659345, -0.0140037300, 0.0010010103, -0.0074847126, 0.0028861634, -0.0108062615, -0.0007460376, 0.0051261947, 0.0073002747, 0.0061560949, -0.0054637822, -0.0119953936, -0.0067119913, -0.0083968817, -0.0056963593, -0.0121701202, -0.0015109339, 0.0015661409, -0.0151046787, 0.0031491528, -0.0033182894, 0.0063440356, -0.0055118096, 0.0104856735, -0.0065052387, -0.0072857130, -0.0059594561, -0.0164368545, 0.0027454837, -0.0008810714, 0.0029726416, 0.0062448316, 0.0057297496, 0.0023479073, -0.0142283696, 0.0055069071, 0.0001718279, 0.0012825343, 0.0028509721, -0.0068546006, 0.0081559422, -0.0057793519, 0.0027366868, 0.0074153001, -0.0004250622, -0.0105789266, 0.0086490058, -0.0017590494, -0.0082290590, -0.0002839671, 0.0046293291, -0.0065385935, -0.0040899965, -0.0070593432, -0.0078174850, -0.0030973086, 0.0095445226, -0.0053282380, 0.0057274294, -0.0032349671, -0.0008688464, -0.0021222058, 0.0031522416, -0.0016308648, -0.0123209702, -0.0066065087, -0.0175391029, 0.0122112367, -0.0053248014, -0.0015576337, 0.0026664317, -0.0033248448, 0.0081421731, -0.0046705658, -0.0059848711, -0.0113125334, 0.0031597263, -0.0033412684, -0.0111202368, -0.0075115923, 0.0014366704, 0.0039423095, 0.0087142096, 0.0132174236, -0.0055441177, 0.0081882126, -0.0056049496, 0.0034796008, -0.0087156515, -0.0035247580, 0.0043053660, -0.0073950376, -0.0017039623, 0.0066562640, -0.0096885423, -0.0014638527, -0.0049591938, 0.0077002656, -0.0030999237, 0.0051543216, -0.0013057485, -0.0038902891, 0.0066818829, -0.0036211539, -0.0064213028, 0.0034122612, -0.0051137311, -0.0009137093, 0.0004067766, 0.0030541040, -0.0104187834, -0.0036342380, -0.0027943622, -0.0076411651, -0.0025598318, 0.0036759341, -0.0097783851, -0.0048450644, -0.0085547773, -0.0013795206, -0.0072372871, 0.0030853360, 0.0052525937, 0.0063574860, -0.0114235278, -0.0037886750, 0.0104262275, 0.0000930347, 0.0106583216, -0.0011402208, -0.0094219434, -0.0029614659, 0.0075476870, 0.0067909620, 0.0126601412, -0.0057142822, -0.0055101193, -0.0029378454, -0.0075856354, 0.0040258613, 0.0000238591, 0.0001198787, -0.0046588154, 0.0026790601, -0.0103541226, -0.0086092615, 0.0010163257, -0.0071393885, -0.0065960882, 0.0013015387, 0.0077618022, 0.0036897303, -0.0038234561, 0.0025873166, 0.0035966351, -0.0055641728, 0.0072667874, 0.0048751894, -0.0003838230, -0.0015367891, 0.0022086487, -0.0007479735, -0.0047675719, -0.0064183002, 0.0081694554, 0.0015202464, -0.0072282651, 0.0065160920, -0.0055474337, 0.0071731020, -0.0007621213, 0.0043722424, 0.0061968031, 0.0033423425, -0.0067101286, -0.0019377468, 0.0082754303, -0.0062123687, -0.0095245617, -0.0091938119, -0.0008901306, -0.0077195944, -0.0012288843, 0.0046589739, 0.0047552190, 0.0043546801, -0.0041653573, -0.0106138039, 0.0008591682, -0.0055745796, 0.0049208040, -0.0066386683, -0.0063579605, -0.0062460434, -0.0095318619, -0.0070476127, 0.0080202689, -0.0041516761, 0.0032406550, 0.0040840305, -0.0032554195, 0.0015453875, 0.0076254676, -0.0045201270, -0.0014725000, -0.0042030743, 0.0047322346, 0.0071327695, 0.0039935941, 0.0034676196, 0.0091590351, 0.0063256724, -0.0129336795, -0.0184314116, 0.0056319144, 0.0033486623, -0.0101010894, -0.0013040142, 0.0091733381, -0.0021741782, -0.0021666919, 0.0030579846, 0.0034581491, 0.0119929815, -0.0040242244, -0.0034784975, -0.0115186265, -0.0117631008, -0.0094721698, -0.0059647405, 0.0032126983, 0.0018511594, -0.0096435701, 0.0039747207, -0.0074505434, 0.0063654772, 0.0083656055, 0.0056233961, 0.0079518015, 0.0087712617, -0.0093516058, 0.0062795324, -0.0083314295, -0.0038129756, 0.0002327555, 0.0058319967, -0.0056386785, 0.0015416525, -0.0145028010, 0.0090410591, -0.0055862843, -0.0019565578, 0.0012686566, 0.0019386439, 0.0039223694, 0.0037407945, -0.0004044209, -0.0132224065, 0.0112176186, 0.0131902201, 0.0123240630, 0.0071263035, 0.0005775341, 0.0046393798, 0.0070397226, 0.0054279753, -0.0086171705, 0.0002528790, 0.0002436415, 0.0045075674, 0.0022511226, -0.0002391794, 0.0070388340, -0.0035874036, -0.0065834789, 0.0031187351, -0.0005852807, 0.0023095897, -0.0054327966, -0.0071369787, 0.0026614359, -0.0002728757, -0.0052504380, 0.0048383705, 0.0027488621, -0.0049516811, -0.0000637496, -0.0001794635, -0.0045298402, -0.0051139863, 0.0018565161, 0.0012629684, -0.0057197825, 0.0062464317, -0.0078845721, 0.0020141003, -0.0049349329, -0.0057957318, -0.0048730851, -0.0091299089, 0.0049334887, 0.0098860195, 0.0090776844, -0.0071714448, 0.0003425698, -0.0081704199, 0.0050185781, -0.0065219783, 0.0076203425, -0.0039781964, -0.0096942425, -0.0027505646, 0.0100279292, -0.0027496273, -0.0072054923, 0.0074015333, -0.0106793167, -0.0076235255, 0.0014830347, 0.0053231368, 0.0060070117, -0.0094318059, -0.0015002703, 0.0083424946, -0.0030636100, 0.0047345365, 0.0071270351, -0.0128597963, 0.0035783082, 0.0037072409, -0.0074375669, 0.0034430769, -0.0065205741, 0.0073906726, -0.0122162928, 0.0103312887, -0.0061106019, 0.0073739888, -0.0094515813, -0.0095189768, -0.0006452811, -0.0093058770, -0.0067154827, -0.0033994700, -0.0053285880, 0.0081075374, 0.0051353406, 0.0015731513, -0.0099151269, -0.0066232946, -0.0080392076, 0.0083367533, 0.0047917343, 0.0014972743, 0.0016483555, 0.0119341054, 0.0045008170, -0.0048493495, -0.0016721639, -0.0097912657, -0.0051360927, -0.0057152907, -0.0049070629, 0.0072193768, -0.0087928616, -0.0084796361, -0.0059724805, 0.0060826783, 0.0047015237, -0.0074525849, -0.0095372829, -0.0045194417, -0.0077061337, -0.0044909199, -0.0023887462, -0.0093242259, -0.0014402682, 0.0081314888, 0.0048076608, 0.0075588590, -0.0029079760, 0.0034641508, 0.0029992847, -0.0096282672, -0.0001923022, 0.0051587821, 0.0016115979, 0.0018070089, -0.0075789981, 0.0079727817, -0.0060411300, -0.0062925483, 0.0041828655, 0.0027998331, -0.0056183966, -0.0106827464, 0.0024397684, -0.0080399597, -0.0009325483, 0.0072099688, 0.0034179111, 0.0108192072, -0.0030624390, -0.0017421795, -0.0008005580, -0.0106210322, -0.0032878903, -0.0081680124, -0.0116855629, 0.0078039603, 0.0008047983, 0.0037438456, 0.0041622773, 0.0085509302, 0.0054767587, 0.0063467743, -0.0088257145, 0.0035539228, -0.0117140171, -0.0059321166, -0.0052339364, -0.0025266129, 0.0082282379, -0.0070941782, 0.0054129636, -0.0094863541, 0.0028280057, -0.0021162366, 0.0019610588, -0.0063756521, 0.0007470629, -0.0024742422, 0.0055386002, -0.0041957863, -0.0015988129, 0.0045892345, -0.0033687860, 0.0063919024, -0.0038898828, -0.0063881798, 0.0062192812, -0.0098155786, 0.0073242312, -0.0053245536, -0.0077793322, -0.0015621099, -0.0030572102, 0.0003884461, 0.0002115191, -0.0099086718, 0.0079722535, -0.0027297725, -0.0079081198, -0.0018817432, -0.0091066439, -0.0091250596, 0.0055039137, -0.0094716622, -0.0004028206, 0.0009228123, -0.0055623421, -0.0034488804, 0.0013010602, 0.0071120856, 0.0065782076, -0.0017381930, 0.0006624607, -0.0076640630, -0.0071779781, 0.0078738233, -0.0095883693, 0.0080806548, 0.0029521804, -0.0071530914, 0.0014689461, 0.0043307416, 0.0038352208, -0.0067845868, 0.0068420410, 0.0076020958, -0.0013761256, 0.0009242576, 0.0028891734, -0.0035492722, -0.0013561087, 0.0074180976, -0.0066170365, 0.0002237141, 0.0055840664, 0.0032667742, -0.0031665126, -0.0083638986, -0.0028885238, -0.0011437642, 0.0042126100, 0.0010650034, 0.0058634893, -0.0099893653, 0.0038317008, 0.0014133009, 0.0101397253, -0.0047280891, 0.0087920884, -0.0052235451, -0.0124212769, 0.0044614302, -0.0074210265, 0.0083893913, -0.0049462693, 0.0064565718, -0.0028657522, 0.0098457995, -0.0027080202, -0.0052038982, -0.0004028455, -0.0029125903, -0.0091658626, -0.0117186494, -0.0078302445, -0.0071385559, 0.0035002401, 0.0049862266, 0.0021220179, -0.0083576685, 0.0084670856, -0.0080827214, 0.0001319637, -0.0067638492, -0.0071281223, -0.0024768159, -0.0099665165, 0.0082698889, -0.0083596900, -0.0055731725, -0.0029174634, 0.0031955817, 0.0007785753, 0.0029317224, 0.0065440116, -0.0085825896, -0.0082722130, 0.0034840552, 0.0035493065, 0.0015815280, -0.0020661174, -0.0112159899, 0.0021135497, -0.0085340546, -0.0107741139, 0.0068122466, -0.0029421155, 0.0053145625, 0.0009597863, -0.0039081777, -0.0091225081, 0.0016788728, -0.0136091972, -0.0026738442, -0.0038991917, -0.0031721628, 0.0005981634, 0.0028890663, 0.0001320860, -0.0012139751, -0.0081151237, -0.0117311062, 0.0061580570, -0.0073045975, -0.0048145453, -0.0079506354, 0.0059950146, 0.0120173446, 0.0023486827, 0.0067579795, -0.0120667767, 0.0045005284, 0.0020263550, -0.0147125328, -0.0055182709, -0.0025170895, -0.0098665342, 0.0038189594, -0.0030808433, 0.0101817715, 0.0020108388, 0.0000897562, -0.0082235975, 0.0053544730, 0.0010805330, 0.0100260802, -0.0041102878, 0.0056476325, -0.0069001187, 0.0001027031, -0.0082829784, 0.0040233325, 0.0077475323, 0.0028909722, -0.0004072313, 0.0060809537, -0.0020893149, -0.0061545902, -0.0001077515, 0.0033111488, 0.0004161832, -0.0032172190, 0.0050887375, -0.0102636185, -0.0083613620, 0.0077732203, -0.0040321029, -0.0051931169, -0.0032774342, -0.0092340467, 0.0027312081, 0.0029897839, -0.0005099771, 0.0074531628, -0.0015296540, 0.0069025537, 0.0001882340, -0.0057010025, -0.0049649882, -0.0022592055, -0.0024499644, -0.0022802360, 0.0000229827, -0.0004198283, -0.0020698515, -0.0101767372, 0.0026940727, 0.0086427779, -0.0088657717, 0.0042381737, -0.0014014073, 0.0082129121, 0.0074631213, 0.0070244956, -0.0101218687, -0.0019266235, -0.0016581918, -0.0000973006, 0.0000200874, 0.0044601505, -0.0037063555, -0.0064456602, -0.0065392131, -0.0015414829, -0.0044365100, -0.0033536604, -0.0088583561, 0.0048011920, 0.0042558565, 0.0074419548, 0.0078961353, -0.0144173381, -0.0043635628, 0.0068982902, -0.0013968248, 0.0076725293, 0.0017372127, 0.0033334876, -0.0037145477, -0.0020754366, 0.0099672383, 0.0019876584, 0.0003256840, 0.0075329586, 0.0030554294, 0.0014569933, 0.0008646599, 0.0095633900, 0.0007341905, 0.0105542574, -0.0059297148, -0.0030836717, 0.0081721502, -0.0063754346, -0.0051729126, -0.0022938303, -0.0005510533, -0.0069389830, -0.0073299583, 0.0012613756, -0.0083970684, 0.0036201482, -0.0078762160, 0.0065669666, -0.0072198113, -0.0067002141, -0.0042495918, 0.0060814716, -0.0063964520, 0.0024770729, 0.0051194684, -0.0074531097, 0.0066103416, 0.0027413813, -0.0014366060, -0.0051913603, 0.0051766633, -0.0105246463, 0.0010467981, 0.0052016848, -0.0057543394, -0.0067824614, 0.0058195444, 0.0009452362, -0.0057374502, 0.0077332813, 0.0038771816, 0.0025846895, 0.0060069512, -0.0101991199, 0.0011971072, 0.0053608367, 0.0028557460, 0.0045825675, -0.0028043835, 0.0024693566, 0.0083967652, 0.0068629207, 0.0035496320, -0.0082255031, 0.0028493126, 0.0081837219, -0.0069393234, 0.0043226724, -0.0065042045, 0.0044517675, 0.0000377730, -0.0027218658, -0.0017531396, 0.0085218867, -0.0037671474, -0.0000474741, -0.0048099650, -0.0004020926, -0.0032467844, 0.0074294369, -0.0064957821, 0.0019568724, -0.0044811702, -0.0029038356, -0.0027748087, -0.0000287356, -0.0058659077, 0.0002880375, -0.0045124852, -0.0007901677, -0.0035220729, 0.0042043529, 0.0061295909, 0.0138905371, 0.0059727517, -0.0146282634, -0.0013962616, -0.0077831022, -0.0052036715, 0.0083150672, -0.0064820605, 0.0034841329, -0.0066833802, 0.0027409025, -0.0030265639, -0.0060178753, 0.0016377222, -0.0024521267, 0.0036571607, -0.0013900597, 0.0016648099, 0.0061489363, 0.0031206361, -0.0044910952, -0.0086971439, -0.0030021068, 0.0006533664, -0.0046920261, 0.0020553525, -0.0110637751, 0.0103235933, -0.0106278950, 0.0015074056, -0.0012602699, -0.0041495744, -0.0069599405, -0.0027905670, -0.0067499048, -0.0062455043, 0.0050207172, 0.0045647857, 0.0139956177, -0.0082078726, 0.0028969177, 0.0014428092, 0.0064355190, -0.0036056083, 0.0061606199, 0.0049113835, -0.0050644206, 0.0052886878, -0.0040647342, -0.0083422137, 0.0047466122, 0.0048984081, 0.0023867645, 0.0032294009, -0.0020082435, 0.0077470372, -0.0081363182, -0.0092932597, -0.0005786287, 0.0016035983, 0.0000846477, -0.0074217255, 0.0076500215, -0.0124342819, -0.0077266177, 0.0062253863, 0.0050544056, 0.0034690284, 0.0080522846, -0.0001363192, 0.0063004173, -0.0101261972, -0.0007834807, 0.0057013217, 0.0051033660, -0.0025179415, 0.0063168058, 0.0027537445, -0.0035844998, -0.0080127613, -0.0077920677, -0.0003490615, -0.0129490373, -0.0015958437, -0.0060549419, 0.0070141020, -0.0040852625, -0.0050481332, -0.0085096812, -0.0016354049, 0.0062832242, -0.0077583434, 0.0057762591, -0.0068890398, -0.0060754351, -0.0050288181, 0.0009039197, -0.0070781729, -0.0071383435, -0.0020325797, 0.0028993420, 0.0138598982, -0.0022633279, -0.0075148256, -0.0081721445, -0.0123726248, -0.0052772618, 0.0048897208, 0.0084398713, 0.0015060425, -0.0039790655, 0.0045570800, 0.0082043658, 0.0003828026, -0.0025097439, -0.0075607680, -0.0115041333, -0.0104691531, 0.0049326344, -0.0029673126, -0.0050687463, -0.0014429141, -0.0095753820, -0.0019575371, 0.0021045373, 0.0060194188, -0.0068874518, 0.0054417084, 0.0107424699, 0.0045858896, -0.0020006095, -0.0004117388, 0.0022601469, -0.0044731213, -0.0000383474, 0.0000490119, -0.0030143563, 0.0024255624, 0.0078461258, -0.0045298262, -0.0022518326, 0.0075908890, 0.0086549486, 0.0055551931, 0.0117134209, -0.0125767318, -0.0064483493, -0.0069038477, 0.0053037903, -0.0043224502, 0.0080691699, 0.0097121060, 0.0020167677, -0.0080113668, -0.0064294351, -0.0021360283, -0.0100603064, 0.0011056981, 0.0084203266, 0.0021875568, -0.0104433955, -0.0001959539, 0.0066742720, 0.0018099051, -0.0079437931, 0.0034408467, -0.0034365044, 0.0016277648, -0.0044837059, 0.0022482281, -0.0123699900, -0.0012260175, -0.0084278673, 0.0093130425, 0.0024444689, -0.0015599482, 0.0070828457, 0.0002150762, -0.0032027421, -0.0026466535, 0.0044969168, -0.0089224898, -0.0082183502, 0.0067661654, -0.0043639479, -0.0024811247, -0.0060619464, 0.0038250139, 0.0077050447, -0.0050473640, -0.0079554950, -0.0005072922, -0.0065386997, -0.0024982085, -0.0048703926, 0.0047813547, 0.0049729246, -0.0026183162, 0.0068906508, -0.0086265585, -0.0068679008, -0.0038013266, 0.0071096667, -0.0121363610, 0.0081791695, -0.0129970863, 0.0094317608, 0.0084328017, 0.0011443774, 0.0048287684, -0.0005209306, -0.0105327746, 0.0017943990, -0.0017158281, 0.0086314055, 0.0083254586, -0.0051483062, 0.0058225287, -0.0081203248, 0.0000771585, -0.0034974728, -0.0057832179, -0.0067608946, -0.0022696921, -0.0079989328, -0.0013803973, -0.0020231223, -0.0058900459, -0.0099346019, -0.0018976954, 0.0073110760, -0.0106057715, 0.0018390115, 0.0134520382, -0.0097720420, 0.0033143349, -0.0043509449, -0.0101510915, 0.0033396880, -0.0006223884, -0.0104198010, -0.0033019649, 0.0030453790, 0.0086496630, -0.0033387532, -0.0091292676, -0.0005478199, 0.0079556675, -0.0088080817, 0.0028039016, -0.0011791115, -0.0041450728, -0.0028640285, -0.0100985380, -0.0012833491, 0.0001571427, -0.0007735228, -0.0058142737, -0.0014814636, -0.0007310271, 0.0038204572, 0.0007395564, 0.0064832408, 0.0043987695, 0.0040529912, -0.0085314740, -0.0101384313, 0.0046248981, -0.0110516141, -0.0068817207, 0.0063728643, -0.0100232695, -0.0155518073, 0.0098367998, -0.0060263451, 0.0062770672, 0.0053310412, 0.0026594278, -0.0033209599, -0.0121631808, 0.0069432687, -0.0049248687, 0.0040767905, -0.0082166319, 0.0038374290, -0.0066970265, -0.0005435302, -0.0039263010, -0.0066583478, 0.0073666617, 0.0080533730, -0.0062949050, 0.0075785019, -0.0001830015, -0.0071391744, -0.0070495982, -0.0082188333, 0.0011651703, 0.0025581752, -0.0097382999, 0.0005110077, -0.0052690958, -0.0141097826, 0.0017748915, -0.0058511604, -0.0012775979, -0.0069896303, -0.0108554960, -0.0003896107, -0.0042931027, 0.0074286272, 0.0034416053, 0.0040009803, -0.0066365520, -0.0048466364, -0.0148295015, -0.0046754260, -0.0088041095, -0.0055413395, 0.0082278021, -0.0048348443, 0.0025099438, 0.0005703853, -0.0003267958, -0.0154452796, -0.0062295121, -0.0049060687, 0.0032921698, -0.0033374055, -0.0037347699, -0.0038305505, 0.0050837437, 0.0002629285, -0.0023618906, -0.0017566116, 0.0058778923, 0.0004150585, -0.0055595753, 0.0075822742, -0.0094891573, -0.0047283983, -0.0044141381, 0.0059856580, 0.0089462568, -0.0021641366, -0.0067112267, 0.0050851102, -0.0057571359, 0.0030826041, -0.0002047620, -0.0025345978, -0.0072650628, -0.0020609135, 0.0012960232, 0.0079058202, -0.0035142910, 0.0097641090, -0.0053263381, 0.0018265080, 0.0023567183, 0.0049983054, -0.0057777244, 0.0009397738, 0.0071972310, 0.0065912954, 0.0010157238, -0.0041095960, 0.0047776266, 0.0106834956, 0.0034966225, -0.0043823419, -0.0030157539, 0.0013913624, 0.0076824861, -0.0116842461, -0.0064853069, -0.0083927456, 0.0075662381, 0.0038174481, 0.0010613965, 0.0035908875, 0.0051692597, 0.0034585797, 0.0075972019, -0.0013935774, -0.0104929338, -0.0025508430, 0.0042359461, 0.0044771386, 0.0038143893, -0.0095393346, 0.0077034783, -0.0048955917, -0.0069292747, 0.0029098630, -0.0081990054, -0.0002029889, -0.0000531062, 0.0058608026, 0.0024277624, -0.0036234489, -0.0000386108, -0.0002612985, 0.0005450595, 0.0051592087, 0.0034088369, 0.0032685341, 0.0085259914, 0.0094279108, 0.0085031615, -0.0120503191, -0.0053744671, -0.0006827142, 0.0085228466, -0.0049458884, -0.0101408834, -0.0012803246, -0.0070571007, 0.0044493943, 0.0025491076, 0.0031427528, -0.0044388542, -0.0182945054, -0.0032936665, 0.0114293331, -0.0084022376, 0.0068204451, 0.0084998455, -0.0044084896, -0.0061414127, 0.0053836215, -0.0085821225, 0.0054595753, -0.0099966667, -0.0017149057, -0.0006029581, 0.0074292039, 0.0023658709, 0.0045654513, 0.0057742593, 0.0073765232, 0.0042139085, -0.0070931566, 0.0056576800, 0.0076151134, 0.0074463633, -0.0091536496, 0.0074316337, 0.0081845511, 0.0001420590, 0.0078588967, -0.0011527648, -0.0057765149, 0.0062849865, -0.0003463208, -0.0108989105, -0.0039244460, -0.0009723782, 0.0054036464, 0.0060523962, -0.0126378681, -0.0098748521, 0.0021363539, -0.0092558761, -0.0090552622, -0.0013668051, 0.0069212857, -0.0049858954, 0.0092164356, 0.0082388759, 0.0055388144, 0.0066457362, -0.0090162095, -0.0074352371, -0.0033517893, 0.0032131089, -0.0026347740, 0.0071482877, 0.0086173372, -0.0076608942, 0.0044124587, 0.0049540252, -0.0078507113, 0.0123366226, -0.0057664279, 0.0076908542, -0.0066389676, -0.0079481028, 0.0001441720, 0.0054215647, -0.0091295149, -0.0107503355, -0.0095880758, -0.0079362747, 0.0018954830, 0.0073432660, -0.0004027473, -0.0000708142, -0.0046743051, 0.0036805285, 0.0057107948, 0.0073032116, -0.0027693698, 0.0010718328, 0.0044940458, 0.0008078322, 0.0025162141, 0.0016425915, -0.0035960198, 0.0070040287, -0.0077636039, 0.0049650430, -0.0018275964, 0.0031637068, 0.0077725681, 0.0059687910, -0.0022107253, 0.0081949401, 0.0021112617, 0.0085760642, -0.0101037688, 0.0089337606, 0.0053609989, 0.0077857656, 0.0102266524, 0.0085610126, 0.0062284363, -0.0011263299, -0.0015848145, 0.0027245072, -0.0052662571, 0.0073001234, -0.0008438273, -0.0009005350, 0.0024670276, -0.0030362437, -0.0003168624, -0.0024440615, -0.0113441534, -0.0162580643, 0.0112735926, -0.0061988737, 0.0080828448, 0.0069492682, 0.0028422274, 0.0005557319};

#endif

#endif
